{
  "output": {
    "weights": [
      [
        -1.1293107069374986, 
        1.230542510892833
      ], 
      [
        -1.0505028040852527, 
        1.016125091981569
      ], 
      [
        -1.1198060223181308, 
        0.8656877443750165
      ], 
      [
        0.915262891278445, 
        -1.0548054829088847
      ], 
      [
        -1.1985170895571875, 
        1.2982519353333324
      ], 
      [
        -0.9606722044429189, 
        1.1482659841542648
      ], 
      [
        -0.8866054305939387, 
        1.1333719679728242
      ], 
      [
        0.5410781533438215, 
        -1.0040669832947344
      ], 
      [
        -0.7743433094254398, 
        1.195172872639539
      ], 
      [
        -1.097540973487644, 
        0.9013665076917663
      ]
    ], 
    "biases": [
      0.22140070100493037, 
      -0.22140070100493048
    ]
  }, 
  "hidden": [
    {
      "weights": [
        [
          0.01635662657756705, 
          0.00034650309326161546, 
          -0.037550398842227294, 
          -0.04559298770547571, 
          -0.09862133768435567, 
          -0.012794573009087649, 
          0.04108821272444892, 
          0.14682246700209312, 
          -0.002163601490463036, 
          -0.035593280661545754
        ], 
        [
          -0.11163516793122803, 
          -0.15136972045011915, 
          0.040178505613316824, 
          -0.060061068592132116, 
          0.00044426786294525755, 
          -0.026541395300637975, 
          0.08257281248834192, 
          -0.08717327046513905, 
          0.0862982639066486, 
          -0.10490909103867818
        ], 
        [
          -2.6883698342184477e-39, 
          0.02006384683706935, 
          -3.955618361346728e-18, 
          8.428390378003386e-87, 
          0.024925061927948303, 
          4.0822428832190394e-64, 
          0.019878603248349325, 
          -0.014864374973714211, 
          0.01884410808375746, 
          -2.3830057328992033e-42
        ], 
        [
          -0.08055114362938595, 
          -0.05541006704423887, 
          -0.027494104937445214, 
          -0.011671374499537604, 
          -0.18131442020064423, 
          -0.2000947974765695, 
          0.1096695035392158, 
          -0.02165328643481554, 
          -0.038659887700967385, 
          -0.15947621719170746
        ], 
        [
          -0.012418134803362934, 
          -0.09917470184968319, 
          -8.518584361190036e-09, 
          -4.716253845815896e-85, 
          -0.08954124093403454, 
          -0.03767731304048157, 
          -0.07126577900823175, 
          0.13785750038190775, 
          -0.13905346498447144, 
          -0.038933455039546136
        ], 
        [
          0.01010209217625441, 
          0.01113242263384909, 
          0.04516713049274325, 
          0.08987083903493137, 
          -0.0410399964088443, 
          0.009260144290904368, 
          -0.09376226115796346, 
          -0.07812238894705338, 
          -0.051734374232101435, 
          -0.07531070690733452
        ], 
        [
          0.03735928553170139, 
          0.02754184053581105, 
          0.028872477969523285, 
          -2.3589749656867416e-67, 
          0.033952198447315424, 
          0.05933000199212976, 
          1.568600318234231e-05, 
          -0.044438390206539544, 
          0.05446113788373322, 
          4.4820735629841347e-10
        ], 
        [
          -5.195171068174695e-86, 
          -1.789838715204308e-86, 
          -6.069499039666751e-75, 
          1.5707518426886137e-86, 
          -1.3081292584839665e-79, 
          2.1375167711229193e-85, 
          -2.715814643250702e-84, 
          -3.6662651020214116e-13, 
          1.6429645360469638e-83, 
          -2.1411545166357826e-86
        ], 
        [
          9.87630815639655e-11, 
          1.2300901232347388e-35, 
          0.0562091735314936, 
          -0.06164216498679015, 
          4.158846801082161e-14, 
          0.06487758853256294, 
          0.06362529799448614, 
          -0.04786177167267217, 
          0.05889669423454111, 
          5.314715812519397e-05
        ], 
        [
          -0.050122637927330634, 
          0.003579833425042867, 
          -0.12498697419470542, 
          -0.29645333148424935, 
          0.06906786035134764, 
          -0.03399917765544018, 
          0.04687369548364074, 
          0.035339404882615784, 
          0.06557900228812823, 
          0.014996824528345115
        ], 
        [
          -0.24581094336706388, 
          0.22288905931652134, 
          -0.05532113930795497, 
          -0.12385962486471407, 
          -0.06873638371131098, 
          0.027365814428497084, 
          -0.12336757210113514, 
          0.018550420945164185, 
          0.020991426951609698, 
          -0.0592005461381505
        ], 
        [
          1.9308967072195026e-82, 
          -0.005586810557394305, 
          -0.026240833956685743, 
          0.010210904804867879, 
          -0.00044476778719575703, 
          -0.00599821546627846, 
          1.8725893293495926e-38, 
          0.004505247070241048, 
          1.0287265423303326e-82, 
          -0.0051495149179990075
        ], 
        [
          0.10167965820628337, 
          0.11293539169199263, 
          0.1460556149100879, 
          -0.1534089722170629, 
          0.05058628154567738, 
          0.10408299488469686, 
          -0.012555515607428546, 
          -0.0054131260781242, 
          -0.07703104404290162, 
          0.04954043864584179
        ], 
        [
          0.047419366960918814, 
          -0.0945463136469551, 
          -0.0010325133189578919, 
          -0.03447836453797512, 
          0.11625816227607089, 
          -0.07816555734887408, 
          0.12896481813433092, 
          -0.04544856504791679, 
          0.1153277646338226, 
          0.03928197074544756
        ], 
        [
          -0.002534068043819928, 
          0.05587203242493134, 
          -0.19480405864196015, 
          0.19272345099252416, 
          -0.19059230851592024, 
          -0.148697991426506, 
          -0.0439015677926557, 
          0.16058283974002766, 
          -0.09931339822651801, 
          -0.1563545124760656
        ], 
        [
          7.440002702939275e-85, 
          -1.901334802541933e-79, 
          1.4303660948949107e-86, 
          -7.0036520736743255e-87, 
          1.803053134850511e-84, 
          -2.615655460901001e-85, 
          1.4749995192383775e-79, 
          -8.972292552509058e-80, 
          -5.939524959703891e-86, 
          -3.9324301314065634e-87
        ], 
        [
          -0.15602048486712172, 
          0.17963797047793287, 
          -0.18352700809121106, 
          0.15848005559418032, 
          -0.29528996874331676, 
          -0.18373414668167157, 
          -0.08597130875671347, 
          0.0994363202274986, 
          0.0870882773388806, 
          -0.14809310980153995
        ], 
        [
          -0.14256622952006168, 
          -0.0773444310337973, 
          -0.10582306115925012, 
          0.23008752297305957, 
          -0.22589151585873163, 
          -0.188853932812002, 
          -0.04957654097624575, 
          0.1611396437276237, 
          0.004913240468458898, 
          -0.1424551233952194
        ], 
        [
          -4.9933344515006765e-87, 
          7.791985632589634e-84, 
          2.1585010043724902e-79, 
          -1.9107900477222842e-82, 
          1.627682743398497e-79, 
          -1.2787647861173919e-80, 
          3.958916137224601e-86, 
          5.726314857145878e-76, 
          -6.994142260724801e-84, 
          -3.4231735416513295e-06
        ], 
        [
          -0.048225938111061524, 
          0.15401889226553156, 
          0.21964189632529244, 
          -0.047018581508328015, 
          -0.004144175181422527, 
          0.11053299591974002, 
          0.1193152698508271, 
          0.15622065742242713, 
          0.06349529185707584, 
          -0.011001612213476005
        ], 
        [
          -0.057606498779463486, 
          0.042789162438757966, 
          0.09666356176953723, 
          -0.19681838462756676, 
          -0.13673301482824343, 
          0.09430881583541277, 
          0.026870625157438294, 
          0.11921697606803322, 
          -0.08105881681265582, 
          0.005150102643973492
        ], 
        [
          3.411554134479745e-82, 
          -2.8513628434944134e-83, 
          4.072443981728985e-13, 
          -1.2406313361239958e-85, 
          7.464642587980986e-86, 
          -3.5712815624358365e-86, 
          4.153239723039059e-10, 
          4.214256720117306e-82, 
          -1.3852906597416258e-86, 
          -8.165408179457413e-84
        ], 
        [
          0.21759011893194524, 
          0.08405144542990739, 
          -0.06384426744088076, 
          -0.19793458951449402, 
          0.06716198882538942, 
          0.2589772240492854, 
          0.037937864828764975, 
          -0.045321757786243935, 
          -0.12936571415320292, 
          -0.016000803068821793
        ], 
        [
          0.13339345637308858, 
          0.04448296313577681, 
          -0.017381265536634594, 
          -0.028071866453188165, 
          -0.14396230028252574, 
          -0.17009298183688348, 
          -0.2703072127362837, 
          0.15410198783373202, 
          -0.009374559372687346, 
          0.014415819424848816
        ], 
        [
          -0.13730173527985348, 
          -0.008413767696499787, 
          0.05514189979719003, 
          0.12180330681960555, 
          -2.6719804405673296e-19, 
          -0.13367332043407326, 
          0.031008938419793002, 
          0.08237224650342442, 
          6.787097817102721e-20, 
          -0.12178140233454277
        ], 
        [
          -0.06715842646142009, 
          -0.009024237752521633, 
          -5.30538642259457e-71, 
          0.05773612429830711, 
          -1.2391277485892869e-41, 
          -0.060514800956607995, 
          5.694331020648013e-41, 
          0.04637613611913712, 
          2.0789309719984633e-67, 
          -0.05757940003321152
        ], 
        [
          -0.013985188465372061, 
          -0.12564717938926195, 
          -4.011816712926346e-21, 
          0.15671054404769322, 
          -3.872451309493428e-12, 
          -0.004285278028219045, 
          1.0156170756232566e-86, 
          0.12592760175927628, 
          -1.8095701560127218e-76, 
          -0.1531914943706985
        ], 
        [
          0.03901667834581875, 
          0.07879165569246124, 
          1.3021719297951584e-32, 
          -0.08220605505969915, 
          0.07591412494414944, 
          0.08855928116234996, 
          5.3177501937498946e-06, 
          -0.07155984673749699, 
          -3.0754885409777903e-77, 
          0.08439437600192308
        ], 
        [
          -1.2302300709776824e-83, 
          -0.12880030421180533, 
          -0.0352893400385315, 
          0.1255140125225992, 
          -0.00024602518402353364, 
          -0.09653239278850875, 
          -1.0099432090086697e-43, 
          0.09936759775162342, 
          -5.626167444807246e-87, 
          -0.12515212165771186
        ], 
        [
          -5.1367079594317984e-80, 
          -0.005680801179742004, 
          -0.021970586754069554, 
          0.0036557692483103303, 
          -0.0004933357042975121, 
          -0.00424184358841248, 
          3.6879217451133547e-38, 
          0.003582758460414717, 
          5.2582923519492236e-86, 
          -0.0054891187810225586
        ], 
        [
          -0.04206080770971145, 
          -0.046614824024306376, 
          -0.021010052464395447, 
          0.05135157894099292, 
          -0.05340127555406291, 
          -0.048125577617499714, 
          -0.008415609241632217, 
          0.037907553423452124, 
          -1.015323357269588e-80, 
          -0.045349543819167275
        ], 
        [
          -0.10964641561749199, 
          0.0730130738119736, 
          -0.04363864136016534, 
          0.06679397773322708, 
          -0.1308118485062592, 
          -0.38756160474131157, 
          0.09064233104628938, 
          0.11157636607690383, 
          -0.09661926765777029, 
          -0.06567729722635257
        ], 
        [
          -0.10556010321725881, 
          0.19117555082785892, 
          0.15321355073430035, 
          -0.03656532247606742, 
          0.1496724328159072, 
          -0.18054191863486257, 
          0.24019215204081532, 
          -0.23201334298525558, 
          0.02869330184622068, 
          -0.030527691959643007
        ], 
        [
          0.22960554365778946, 
          -0.0012715982502018452, 
          -0.18253210768543807, 
          0.1315845097665563, 
          -0.12457771401465431, 
          -0.11349128271147037, 
          0.09086069449664937, 
          0.1028335899496186, 
          0.013332139915879938, 
          0.28463709601842263
        ], 
        [
          0.010468183604076958, 
          -0.13562141107440545, 
          -0.007098373751372334, 
          -0.045052771610591555, 
          0.08063858500284875, 
          -0.022596712991099947, 
          -0.05332239916150713, 
          -0.03936717533344101, 
          1.2774969980252863e-08, 
          -0.016830233091900338
        ], 
        [
          0.0464153367525538, 
          -0.03186668430475442, 
          -0.17764736805095158, 
          0.2607948050029058, 
          -0.07227357783415828, 
          -0.2597183887928144, 
          0.11480111039058469, 
          0.1413285388317037, 
          0.0020841674916873393, 
          0.10973933063667109
        ], 
        [
          -0.10253292850921843, 
          -0.29804725877684335, 
          -0.03199646246363481, 
          0.07600396520304983, 
          0.1898245994736681, 
          0.1957898115075608, 
          -0.007666931282933029, 
          0.03476684463289316, 
          -0.0511563153064422, 
          0.1692325197973524
        ], 
        [
          0.046720558662739525, 
          0.1967259582813506, 
          0.15266466892424604, 
          -0.21660662313659984, 
          0.019000074294775827, 
          0.08238346418263291, 
          0.0011393760409394858, 
          -0.04214569543607736, 
          -0.145464871740905, 
          -0.008385944145870962
        ], 
        [
          0.00037786106544120113, 
          0.07103277988528046, 
          0.1648207147215928, 
          -0.0985485157712585, 
          -0.011059883060145029, 
          0.1330956539360248, 
          0.1494016596128703, 
          -0.09774255503449547, 
          -0.08116257040801349, 
          -0.0540155611857246
        ], 
        [
          0.1728690506680904, 
          0.10647494945660238, 
          -0.008237393826924263, 
          -0.03728579313212355, 
          0.01097507712368415, 
          0.1731812545393937, 
          0.15714328089334603, 
          -0.04661733091746571, 
          0.1382831129906381, 
          -0.005792491754459418
        ], 
        [
          1.688394500437242e-78, 
          -3.33277111819368e-74, 
          -1.8563355671792672e-82, 
          5.315759277719602e-86, 
          -5.307857836875091e-85, 
          -4.416645515130905e-86, 
          7.499754492567934e-86, 
          -2.2280789724728184e-85, 
          -1.1544714656252986e-83, 
          9.048055951369229e-80
        ], 
        [
          -0.10516451775724044, 
          0.12156005005132448, 
          -0.08590828290297704, 
          0.03433747264757729, 
          0.26930318390366464, 
          0.07184966273589138, 
          -0.1301001879364835, 
          -0.31570523164454684, 
          0.0486508957401989, 
          -0.027464435783869718
        ], 
        [
          -0.20983003209888626, 
          -0.19795588648134094, 
          -0.04273355980448546, 
          0.29931859655585014, 
          -0.06352897215233305, 
          -0.1465713078067728, 
          -0.016820217717139402, 
          0.42440144748028397, 
          0.04535190227791767, 
          -0.040529968816049415
        ], 
        [
          -0.026363187992776253, 
          -0.0596980470539765, 
          -0.06282770099130434, 
          0.0932798682921633, 
          -0.07392003294595448, 
          0.010096762150121456, 
          -0.05773210781016663, 
          0.09153829216920825, 
          -0.03944587012446189, 
          -0.002300007690854573
        ], 
        [
          -0.04585149545932616, 
          0.072131134250082, 
          -0.02646969193370456, 
          0.05659520819104363, 
          -0.4098895941446439, 
          -0.05952103699855115, 
          -0.2743823464977307, 
          0.11661898544769721, 
          0.010367449351856637, 
          0.1308634096594789
        ], 
        [
          -0.028423754870004724, 
          -0.09251384388228148, 
          -0.02179723016235083, 
          0.045135706784219944, 
          -0.17841336661684223, 
          -0.10672129610478404, 
          -0.053576503731922714, 
          0.07480480141675729, 
          0.0888207695614245, 
          -0.44698005599998936
        ], 
        [
          0.1970137073140105, 
          -0.15299028220500652, 
          -0.030156234723487076, 
          -0.10253579925606893, 
          -0.027110391830227672, 
          -0.0833773207234335, 
          -0.05708569873384289, 
          -0.082294022286683, 
          0.15641753721661508, 
          -0.09722965556683913
        ], 
        [
          0.06740952617513916, 
          0.09440484160305006, 
          -0.0511626311089349, 
          -0.11322659981137391, 
          0.02553762341460605, 
          -0.03548775715552123, 
          -0.09702777474349997, 
          0.07012080561194639, 
          0.12566000339219358, 
          0.04527331291758507
        ], 
        [
          -0.08403492463509879, 
          0.041681708522008545, 
          -0.14013001761237773, 
          -0.13655332004347145, 
          -3.7728415362593176e-07, 
          0.03847159416026, 
          0.004449820860601836, 
          -0.043006062308862114, 
          0.05390892934993442, 
          -0.023236792695457874
        ], 
        [
          0.023032184808458703, 
          -9.154592503770856e-48, 
          0.020161029219400366, 
          -0.02010261689631544, 
          -4.5197036577568935e-87, 
          9.359597409181109e-54, 
          0.02044032036278025, 
          -0.016759539788587956, 
          -5.890919874829464e-76, 
          -8.4110269117102e-85
        ], 
        [
          1.5871921079443168e-75, 
          -0.001075052156486812, 
          -8.32877323366653e-81, 
          0.02054351556737781, 
          -0.06417323831132964, 
          -0.0012125913710667434, 
          -0.0381418696764579, 
          0.0011654339671086618, 
          -0.02672544406751739, 
          -0.0012292864751289156
        ], 
        [
          -0.005641498044443121, 
          0.08790080775446546, 
          0.0070439754950142345, 
          -0.010927176239159224, 
          -0.0604759786111424, 
          -0.006877935957472332, 
          0.0879740784843335, 
          -0.007758198374933698, 
          -2.0970375481993425e-11, 
          -0.04851827977637953
        ], 
        [
          0.02459068516856192, 
          0.03750196479244425, 
          0.059701126133851916, 
          -0.024158898419708294, 
          8.574363490992822e-87, 
          -6.363042256169123e-86, 
          0.03895128983658509, 
          -0.030501982301289147, 
          0.03508098820338651, 
          -0.021813099217259175
        ], 
        [
          1.7843936549291047e-85, 
          -2.086978049854494e-86, 
          1.730057505202624e-77, 
          -3.998429496650399e-86, 
          3.0181697153190618e-86, 
          -2.592180483811304e-86, 
          4.795436110981592e-84, 
          -1.7804633649870932e-83, 
          -3.4112665554334616e-85, 
          -8.521947846361294e-86
        ], 
        [
          -0.07947434193815112, 
          -0.07286218990900618, 
          -0.10034932135383043, 
          -0.1706710926079538, 
          -0.13927145595863033, 
          -0.15652717824848705, 
          -0.032438276713202416, 
          -0.062103047199952195, 
          -0.11448599971321123, 
          -0.04289193501500401
        ], 
        [
          -0.1753964579593131, 
          -0.04713050586936376, 
          -0.01576588769141634, 
          0.11367699679410562, 
          0.04812021374250464, 
          -0.22794529054382548, 
          0.1800336493007129, 
          0.08003356955586687, 
          0.17050499622490223, 
          0.14417012501848797
        ], 
        [
          0.08686785825181483, 
          0.1038195756533119, 
          4.980770792354657e-84, 
          -0.09606408445343646, 
          -5.970956208708787e-84, 
          9.172740375625404e-87, 
          0.04546839294759952, 
          -0.08051972714385097, 
          0.09776211502015533, 
          0.07039202674072051
        ], 
        [
          -3.0500890018153105e-83, 
          6.830020410961762e-86, 
          -9.268124083916792e-81, 
          5.6859494290747285e-83, 
          6.29333706387457e-86, 
          5.834227468896966e-87, 
          6.473511314880768e-85, 
          -2.159591990108987e-81, 
          2.741547731227478e-87, 
          2.4799524316612028e-85
        ], 
        [
          -0.2165108600121758, 
          -0.14445549577281508, 
          -0.04557332905743436, 
          1.0556520075306805e-81, 
          -0.015894918665810002, 
          -0.16453969539954513, 
          -0.06581234714344443, 
          0.21490573976437893, 
          -0.043528918779976764, 
          -0.0004480223195000122
        ], 
        [
          -0.1366506638564312, 
          0.020680258866315936, 
          -0.05934134846879893, 
          0.23314146525822227, 
          -0.014875288337097118, 
          -0.16193539124637862, 
          0.0030283524020043966, 
          0.2009145614326705, 
          -0.03762889938199251, 
          -0.03854053063970209
        ], 
        [
          -2.6906659035598914e-86, 
          5.895208936241516e-78, 
          -1.2062053053041092e-84, 
          1.0594069444799399e-82, 
          1.3864324091721724e-86, 
          -1.2589120002672033e-18, 
          1.1952811474889063e-82, 
          -2.346916903750499e-86, 
          4.872474705391455e-86, 
          -2.5648949746755198e-85
        ], 
        [
          3.865581366555832e-77, 
          1.2894178212946302e-84, 
          2.1562226481984577e-86, 
          2.3121740793087456e-83, 
          8.507690234643523e-87, 
          1.967202317600988e-76, 
          -8.001279402119889e-83, 
          1.666746903878996e-85, 
          -3.4474614067710707e-87, 
          1.0795264603915644e-86
        ], 
        [
          0.11163067228548937, 
          -0.010064589844969728, 
          0.06905492798524944, 
          0.046389573156373154, 
          -0.09288859951377484, 
          -0.022201580964770803, 
          -0.10310316157516908, 
          -0.022400867881498813, 
          -0.018525575266688916, 
          0.13080102674954516
        ], 
        [
          0.23694124789824889, 
          -0.3130209231276945, 
          0.14386210162356539, 
          -0.021755666563293596, 
          -0.14982093926694082, 
          0.2664529019066999, 
          0.10901642755506354, 
          -0.06189306344729711, 
          -0.10014679124490412, 
          -0.16712982403604615
        ], 
        [
          -6.0593758763963376e-86, 
          -0.03339795006219141, 
          -2.227282371892678e-79, 
          0.03246698523656466, 
          -0.040392681752623665, 
          -0.034138576881587404, 
          -6.513187431075047e-87, 
          0.025773488937726807, 
          1.2112907728213573e-59, 
          -0.03248364331922849
        ], 
        [
          5.196115376020167e-86, 
          -2.4538835425213313e-86, 
          -1.1616361657072454e-84, 
          2.502354128508604e-85, 
          6.6368171758839035e-87, 
          5.96565519579773e-87, 
          -4.499655320940538e-86, 
          -3.5397350461059424e-78, 
          -6.0448028374878125e-86, 
          -3.046458593361037e-84
        ], 
        [
          0.13129082412551477, 
          0.11628110392910125, 
          0.030970993350367463, 
          0.12473370058948001, 
          -0.15542067750552013, 
          -0.09677798322924112, 
          0.03172274284091829, 
          0.010010204828750719, 
          -0.10630800910799858, 
          -0.12378807885698091
        ], 
        [
          -0.0459374223997256, 
          -0.004347188332130911, 
          -0.01647403194969753, 
          0.13334467354254398, 
          0.06513200765970902, 
          0.031780965618263414, 
          -0.1267495493974251, 
          0.013104331390334352, 
          -0.013930078091647083, 
          0.118795432154991
        ], 
        [
          -9.735551780711062e-87, 
          -6.511969497255376e-87, 
          4.266572986959779e-86, 
          1.0945821300194168e-86, 
          -2.9638506903263715e-87, 
          2.458902406794982e-84, 
          -1.6634056778999932e-85, 
          -3.426019524527937e-86, 
          9.881808007775196e-86, 
          2.6118660471203096e-86
        ], 
        [
          -6.335352383900897e-87, 
          6.942662125713461e-81, 
          1.4310586469492363e-84, 
          5.325204906985723e-85, 
          1.549244753798693e-86, 
          1.4303690209172761e-86, 
          -8.165600479223712e-87, 
          5.487895655362882e-86, 
          -5.277347545676329e-85, 
          -3.5806295425497734e-86
        ], 
        [
          -0.10321671910177775, 
          0.004383372059628993, 
          0.07580929051643369, 
          0.030025382788314556, 
          -1.4316207045725005e-57, 
          -0.059902271376037305, 
          0.004322860283983418, 
          -0.09780121009575361, 
          -0.026487563541157916, 
          -4.048052304230861e-28
        ], 
        [
          2.443540883408696e-60, 
          0.09641905155792008, 
          0.09500497851573791, 
          -0.09478116036033732, 
          -1.2382542280406557e-86, 
          0.09858628573665193, 
          0.09782651835511871, 
          -0.07648141410527688, 
          0.09019339629691508, 
          -7.983959040855045e-38
        ], 
        [
          6.678118993425908e-81, 
          5.7672561602729006e-86, 
          -3.17119540646819e-82, 
          1.232198790836403e-85, 
          7.69177355153175e-87, 
          -5.292473821237348e-86, 
          3.1844541442599674e-86, 
          -3.620510419525798e-86, 
          -4.7968957400610676e-86, 
          1.1479265666706773e-85
        ], 
        [
          1.4829707272413379e-84, 
          -2.1379666618631354e-86, 
          -4.149499287939211e-86, 
          -7.550519658191791e-78, 
          9.563181424729892e-86, 
          -2.576289374308727e-81, 
          -1.5682252060472694e-85, 
          -8.63074517205435e-82, 
          4.180421392083012e-82, 
          1.1635033574384779e-82
        ], 
        [
          -0.09442459450237518, 
          -9.29291740466636e-80, 
          0.011909412496163287, 
          -0.05202582494894804, 
          -0.00652062666148088, 
          0.013201182855474123, 
          0.053046620796370035, 
          0.06062592462971235, 
          0.03999937846818794, 
          -0.04411115796300508
        ], 
        [
          -0.03921392961494237, 
          -0.015123452023033827, 
          -0.018674622958101485, 
          0.029001638022779233, 
          -0.0349453756166725, 
          -0.01848712532230848, 
          -0.022531258442864004, 
          0.024040288233999306, 
          -0.010622671061920087, 
          -0.017048748904225263
        ], 
        [
          -0.04358406309785194, 
          -0.03799637964372978, 
          0.02103794145007872, 
          0.014088887495272909, 
          7.472054579660222e-82, 
          0.02379896208429682, 
          -0.006308654355959135, 
          0.011191885836123946, 
          0.021999733233028153, 
          2.1397869407051373e-08
        ], 
        [
          -0.043606979812272344, 
          -0.03799188185032422, 
          6.798494857470104e-87, 
          0.03680401836971309, 
          5.356197630591758e-84, 
          -6.14173748096113e-36, 
          -0.02955625416546875, 
          0.02899934444883374, 
          9.089312592943375e-51, 
          -1.0338406301225594e-12
        ], 
        [
          0.10781476207909958, 
          0.11877621465412569, 
          0.1640635364692325, 
          -0.13393148349746367, 
          -0.0557082106047056, 
          0.09416410572139103, 
          0.03716850792667869, 
          -0.10085141270008793, 
          0.04709192394876656, 
          0.008511248350657603
        ], 
        [
          0.2964963600587899, 
          -0.0903181650639336, 
          -0.053354623253744654, 
          -0.07148099641134212, 
          -0.29110074273502834, 
          0.057444335442529394, 
          -0.11256635421388905, 
          0.03492744516429148, 
          0.12497070666191727, 
          0.09863471866738502
        ], 
        [
          0.29293641728896364, 
          0.0002809452590557578, 
          0.13896766868643728, 
          -0.1405321118692396, 
          -0.02941726889088121, 
          0.09910893510268813, 
          -0.03867870902279422, 
          -0.036666182977515824, 
          -0.0396291647108323, 
          -0.0013731909197013427
        ], 
        [
          0.07999574719681002, 
          -0.16390456845121765, 
          -0.1429599543388334, 
          0.07984136001279302, 
          -0.018176850140404145, 
          0.06794439793440428, 
          -0.11235008661110882, 
          0.05276227521044634, 
          -0.02676034780391163, 
          0.06742358692681856
        ], 
        [
          -0.07986389939599854, 
          -0.12094198909590569, 
          0.17210185643565695, 
          0.191386789641853, 
          0.013944271579583589, 
          0.04836496982869142, 
          0.0555400944715097, 
          0.09362280427697087, 
          0.04634666398058245, 
          0.06605973161462135
        ], 
        [
          0.10251140924095824, 
          0.01620572649986269, 
          0.09338170060920345, 
          0.02701060866504956, 
          0.281079200155347, 
          0.0808101761152993, 
          0.0031775460078399534, 
          -0.058188221032205056, 
          -0.10717281324911085, 
          0.0887459800329583
        ], 
        [
          -0.3565607895965876, 
          -0.1670853237067805, 
          -0.21191550678426027, 
          0.06207400474149613, 
          0.12433914201173726, 
          -0.10057487654104942, 
          0.06119422930176218, 
          0.07567916536157064, 
          0.06292381219622456, 
          -0.05521619970872468
        ], 
        [
          -0.08252179653329389, 
          -0.1352371647623331, 
          -0.036931932973027916, 
          0.3322709216964991, 
          -0.0774841296187286, 
          0.00774327824425359, 
          -0.20618006467637925, 
          0.1093674108217375, 
          0.17345026049912118, 
          -0.004059845619989272
        ], 
        [
          -3.5636889270696366e-87, 
          -2.111584190690496e-87, 
          4.1879442660134535e-81, 
          3.296940508166449e-84, 
          3.402105639480492e-85, 
          -5.6789822748879525e-83, 
          1.2628826747201352e-85, 
          1.7573207614054123e-79, 
          -7.383462469550928e-86, 
          -2.3935362801791462e-86
        ], 
        [
          -1.0907039539517402e-87, 
          0.06776444565010149, 
          -2.953232197261531e-44, 
          -0.0655274356886403, 
          0.08414910687658614, 
          0.07080970494973397, 
          7.516978609271391e-86, 
          -0.0590796918947141, 
          0.06321769146043389, 
          0.06841120125318623
        ], 
        [
          -6.613128724438141e-80, 
          1.740907673147393e-78, 
          -4.0025250941736494e-87, 
          -4.651281753399837e-76, 
          4.750443571538333e-82, 
          -2.4024157450127503e-82, 
          6.594478484901569e-86, 
          3.872518778078261e-84, 
          -5.09842278407936e-85, 
          1.7702266830674673e-87
        ], 
        [
          3.61119144987255e-80, 
          -4.756234795876958e-14, 
          8.408498322867994e-85, 
          -9.41414474020365e-87, 
          -9.436347489969858e-84, 
          -1.1306403317393499e-85, 
          7.839907763182495e-80, 
          -6.774818665654386e-85, 
          -7.453039066715463e-82, 
          -4.5557188487224195e-86
        ], 
        [
          0.03922066145772376, 
          -0.10033527189309213, 
          -0.23351796089171725, 
          -0.021431294634109994, 
          -0.022358425484615706, 
          -0.17361941582019833, 
          -0.1305528037928504, 
          0.07147427332560531, 
          0.043956702632888284, 
          0.0006098417287174167
        ], 
        [
          0.19264638936317482, 
          0.07648197931061505, 
          0.007168612315375543, 
          -0.07301079855378853, 
          -0.01638346565639552, 
          0.08028512822286861, 
          0.065940683964623, 
          -0.04585693462326494, 
          -0.0029976609849600086, 
          0.07552217968210027
        ], 
        [
          -0.06358903326421532, 
          0.2932692992312148, 
          0.018620891950192547, 
          -0.0802753601464449, 
          0.05710117424356729, 
          -0.020188987330247234, 
          0.060140360467673445, 
          -0.018554215556239408, 
          0.0322354031317988, 
          0.007171313510779898
        ], 
        [
          0.158165727890802, 
          -0.041091351988606466, 
          -0.007594789851875641, 
          0.07540503607294619, 
          -0.007811676980921317, 
          0.0588658928800667, 
          -0.09936389467544403, 
          -0.002884374630348443, 
          -0.17904658361827577, 
          -0.00992202072748376
        ], 
        [
          0.06244744373926344, 
          -0.13442176268784625, 
          -0.03974207970456642, 
          0.0009519048386453458, 
          -0.00023843698347443797, 
          0.19151324420525723, 
          -0.1953540251809208, 
          -0.05791984539931414, 
          0.1297493548943478, 
          0.053820802037460924
        ], 
        [
          -0.039900209001054295, 
          -0.18296805856974988, 
          -0.17717295394152408, 
          0.059183216467430855, 
          0.08543782521821473, 
          -0.07857566816668354, 
          -0.13074775705316974, 
          0.12041394869271813, 
          -0.03545799156314985, 
          -0.016370246057298206
        ], 
        [
          -0.03963426704329772, 
          0.12471421633055206, 
          -0.010864941487334606, 
          0.09386524002886985, 
          0.08552287682905926, 
          0.022368994229271324, 
          0.035523681944392704, 
          0.010425244845948253, 
          -0.06595183771656171, 
          0.09864526617156405
        ], 
        [
          -0.022691185264296004, 
          0.05054127369478403, 
          -0.05245478796380289, 
          0.01970081882642941, 
          0.0598789508529322, 
          -0.03682747264632793, 
          0.07202862115584016, 
          -0.024543436769380155, 
          -0.006082855703534177, 
          -0.017927692745972366
        ], 
        [
          -0.018784508479350443, 
          0.08653193868361624, 
          0.053370948401324544, 
          -0.007585434149890839, 
          -0.08633367778387198, 
          -0.04721297707145523, 
          0.01820249953705228, 
          -0.018463522419295064, 
          -0.11681358567868415, 
          -0.03248522871010447
        ], 
        [
          0.06959601243250116, 
          -0.06092473059775263, 
          -0.06912129886682847, 
          -0.025700710797434027, 
          0.07596225802648245, 
          -0.05191481806114079, 
          0.03961938801047882, 
          0.027675816117563284, 
          0.033033530728238135, 
          0.13151568039465075
        ], 
        [
          0.2096441603208345, 
          -0.07323037210713568, 
          -0.01132130307185961, 
          -0.15320158274221793, 
          0.19876016258432955, 
          0.16380640565253685, 
          0.19239343895099983, 
          -0.1238971926655332, 
          -0.03340938870158796, 
          0.15107400146831126
        ], 
        [
          -5.911960863595002e-85, 
          1.443081796445263e-84, 
          1.8753127003378467e-83, 
          1.9111281960742815e-83, 
          1.104969339321743e-78, 
          -3.917653660997598e-86, 
          -6.16320535562982e-85, 
          -3.781632330656117e-86, 
          -2.855676485267504e-86, 
          3.826428195912849e-87
        ], 
        [
          0.029995209125912754, 
          0.050785976578098455, 
          0.049134111861500566, 
          0.023624595893378807, 
          0.03227183283276487, 
          0.02595759025149211, 
          0.026362089640044484, 
          -0.018756821570389333, 
          4.2763988928080746e-10, 
          0.024669682671220373
        ], 
        [
          -2.287887427020322e-86, 
          -3.4727382702942936e-86, 
          -8.28457195041366e-87, 
          7.60231558901487e-86, 
          -6.763665979362953e-75, 
          -5.712603538055556e-81, 
          4.397087986935234e-87, 
          -1.741600066632045e-83, 
          -2.2888334057160157e-85, 
          8.038912321237153e-87
        ], 
        [
          -9.340684332977465e-86, 
          6.1829600326090476e-83, 
          -1.754732165487735e-86, 
          -2.820947492449496e-86, 
          -5.483164607524423e-82, 
          -3.361220402855099e-83, 
          -4.142405234289131e-86, 
          6.009056190507701e-87, 
          3.7773121056415214e-86, 
          8.15564885565576e-87
        ], 
        [
          -1.2062598392811452e-86, 
          1.314162361311069e-81, 
          1.1304344341625724e-84, 
          -2.4153646597868215e-86, 
          -4.269709871573954e-86, 
          -6.484939529844096e-78, 
          3.1089535377141586e-86, 
          1.0622079535102736e-86, 
          1.662834354178053e-86, 
          4.6458785198524744e-85
        ], 
        [
          -0.021435440481278954, 
          -0.06794514292741675, 
          0.18780929391692697, 
          0.10028438317382825, 
          0.03895238583165038, 
          0.2074375094244037, 
          -0.37929668890245105, 
          0.019067930973960194, 
          -0.1466320125169384, 
          0.062460088263977795
        ], 
        [
          -0.04931391320640761, 
          0.02380608914032277, 
          -0.043371836603819845, 
          0.06867488200720023, 
          -0.05201934610405052, 
          -0.04465436621739812, 
          -0.06369483793367615, 
          0.051718469023163266, 
          -0.04169039063287773, 
          -0.05910284058807532
        ], 
        [
          -0.1102119861778399, 
          -0.06064155479935804, 
          0.10857188943449897, 
          0.08781039802480843, 
          -0.08116009668494396, 
          -0.030040061861797127, 
          -0.06740430788965208, 
          0.06318395423337175, 
          0.06524020945648723, 
          -0.11693152677277992
        ], 
        [
          7.141256171348193e-68, 
          -0.01961939947836387, 
          -2.4867563717404746e-75, 
          0.018833035958499073, 
          8.304866913892467e-78, 
          -2.8802475356114993e-74, 
          -0.019726359820420127, 
          0.01556135326537253, 
          -1.1202372099804194e-77, 
          -0.019081289578168487
        ], 
        [
          0.12535028028138884, 
          0.05994586717085721, 
          0.07777177985694, 
          0.09122176491408383, 
          0.22972692769118844, 
          0.1257106003265348, 
          0.1103941851048763, 
          -0.056449019851536046, 
          0.007722757847143637, 
          0.08086893827388017
        ], 
        [
          -0.14352874426718137, 
          -0.030510885461179353, 
          -0.12563345184738345, 
          0.12115639599931423, 
          -3.163521356321327e-87, 
          -0.10302138775627283, 
          -0.12889650717558548, 
          0.1025077693237277, 
          -0.025562426754636373, 
          -0.1246032752190681
        ], 
        [
          0.018739615514849522, 
          -0.006450932441773207, 
          0.01606649256154067, 
          0.015133380918379256, 
          0.012582061577800133, 
          0.016690699638055993, 
          0.01655919423238358, 
          -0.012820946739318767, 
          -5.849419717808124e-10, 
          0.038116592563617
        ], 
        [
          -8.672441067551856e-85, 
          2.568454651225552e-81, 
          2.787682194945824e-85, 
          -4.035227428443152e-80, 
          6.151067215635112e-86, 
          -1.6448567465686082e-77, 
          5.6820667055893e-84, 
          8.202668335753948e-87, 
          -1.0464426896563751e-78, 
          1.0477812854540679e-85
        ], 
        [
          -3.3152808914887925e-85, 
          -4.168263000461786e-86, 
          4.182901787250229e-87, 
          1.116774340040479e-86, 
          2.339757487299845e-82, 
          -1.169709204846364e-87, 
          2.65802609208681e-83, 
          -5.0909436880079096e-85, 
          3.0072309277521372e-86, 
          5.415696376383092e-87
        ], 
        [
          5.3859999370428305e-87, 
          -1.7935738972064958e-83, 
          5.086107569337937e-87, 
          8.371738472346456e-80, 
          -5.599068386459809e-86, 
          4.555853311165951e-80, 
          -8.698899804634685e-84, 
          -2.9831956609447904e-84, 
          3.4094356552895205e-87, 
          9.21143431964234e-86
        ], 
        [
          1.724137060514277e-83, 
          5.1087844451702674e-83, 
          1.7060202990760316e-83, 
          -3.530857999260799e-86, 
          6.462474210983367e-83, 
          -3.666231147673028e-86, 
          -4.0797050262246515e-86, 
          2.0453673225673767e-83, 
          3.0700465152471004e-86, 
          1.5687994802471142e-87
        ], 
        [
          -1.1889854486485853e-85, 
          -6.2985760786089194e-86, 
          5.387803189599131e-87, 
          -1.2643367935429435e-79, 
          1.339271056926315e-79, 
          -1.317603478913008e-85, 
          1.0668025121095227e-86, 
          1.2757532599785062e-83, 
          4.826782394135391e-86, 
          1.2633785752824282e-83
        ], 
        [
          -0.10818078717104204, 
          0.12454006674416487, 
          0.0272266710283181, 
          -0.12379841852549239, 
          -0.07085479079290995, 
          -0.1869676557139649, 
          0.12525363339024595, 
          0.21522798093687992, 
          0.08491729020667102, 
          0.07383168208882274
        ], 
        [
          0.0034483490815661474, 
          0.010728864147770826, 
          0.008097937532351784, 
          0.18145202588905537, 
          0.037028280376530415, 
          0.02167256627745751, 
          0.05999110169174595, 
          0.01394635078484389, 
          0.038191612839900406, 
          0.16976890360526806
        ], 
        [
          0.27646653479688105, 
          -0.06234774713454576, 
          0.11232890536120722, 
          0.15634465970393846, 
          -0.08730155878109216, 
          -0.07283816563665112, 
          0.2563361633271622, 
          0.12636822974486536, 
          0.12312162024375169, 
          -0.07810566732172679
        ], 
        [
          -0.12492052783235645, 
          -0.15602116238671415, 
          0.22033875259593483, 
          -0.23953672730108944, 
          0.235718023899526, 
          0.38538618128081426, 
          -0.020454015178568458, 
          -0.02657221107371607, 
          0.23153298713900347, 
          0.1159031148560342
        ], 
        [
          -0.0019324581201274674, 
          0.19844762999810106, 
          0.026021105492961716, 
          -0.21542805182686117, 
          0.08385245555085984, 
          -7.247481463160157e-38, 
          0.004093416323989835, 
          -0.011284664513540264, 
          -0.09283129497966477, 
          0.0038490827854202984
        ], 
        [
          -0.10530037129078838, 
          -0.03875649023392383, 
          -0.04637363026755073, 
          0.1537924895200504, 
          -0.08474136285592321, 
          -0.02984766632724414, 
          -0.09165970742698774, 
          0.12533802780580616, 
          0.16006110179230015, 
          0.01864321563868232
        ], 
        [
          -0.04322463247715358, 
          -0.23436084054837625, 
          0.131592219496049, 
          0.1838433516803941, 
          -0.1563329921566857, 
          0.2830867386190917, 
          0.039512668677226914, 
          0.020564969880858198, 
          0.15551173660450482, 
          0.22458642112109947
        ], 
        [
          -0.07930533645847365, 
          -0.18923263530104129, 
          -0.09166225588352271, 
          0.10513594506964818, 
          -0.14579325808107743, 
          -0.08406210906169581, 
          0.05034700349259507, 
          0.2203467713632374, 
          -0.024046213404373833, 
          -0.08940149234801373
        ], 
        [
          2.3682894702896265e-86, 
          4.3260088315763146e-86, 
          4.630624704270329e-83, 
          -1.273466832569742e-86, 
          -8.560192215111827e-86, 
          -1.331862692498102e-85, 
          1.3490942974324324e-84, 
          -3.114829433477175e-85, 
          1.2262465012512728e-85, 
          -7.756869634218813e-84
        ], 
        [
          -1.4604936108970423e-79, 
          -3.471275208687828e-86, 
          3.927799523268516e-85, 
          3.95320667452705e-83, 
          -1.8628970941596613e-86, 
          -4.1801903358811796e-75, 
          -2.864422985306325e-81, 
          -1.8875371411596645e-86, 
          1.383249902825122e-86, 
          8.765822639361656e-81
        ], 
        [
          -1.5553993731995866e-86, 
          8.73009320874773e-86, 
          1.7128663195085838e-83, 
          -1.9873749170731683e-83, 
          -3.899118019068848e-86, 
          7.528380301267078e-85, 
          1.5358965317935193e-85, 
          -1.1421157571765856e-83, 
          -3.3874268094999245e-86, 
          -7.14516155252723e-87
        ], 
        [
          -1.7009685730106253e-85, 
          1.5777158964749038e-83, 
          4.516689313721092e-86, 
          3.133726122411851e-84, 
          2.043433986975267e-86, 
          1.1474007119867252e-86, 
          -4.3461915969771326e-80, 
          6.06670093279892e-85, 
          6.879723591928215e-86, 
          -7.277905497799066e-86
        ], 
        [
          -0.08628417121225222, 
          0.08209200459005081, 
          0.26319781682338417, 
          0.1140058058732859, 
          0.056949248280211494, 
          0.10089303247772993, 
          -0.038201015697207366, 
          -0.1001557316362479, 
          0.11822482326254015, 
          0.08235968018773854
        ], 
        [
          -0.05824711919643538, 
          0.10973023222904216, 
          -0.044062476576280145, 
          -0.052849917949030205, 
          -0.055962509347518764, 
          -0.001715343022223584, 
          0.0668265597280946, 
          0.03671318775401714, 
          -0.08315563262483491, 
          -0.12626426099298246
        ], 
        [
          0.12638258454323908, 
          -0.10055627215485624, 
          -0.09829978339881006, 
          -0.10307519998929464, 
          0.3740680577981742, 
          0.17857927873079976, 
          -0.18792248636133743, 
          0.14943352958671313, 
          0.2436222833677416, 
          -0.031435748569776385
        ], 
        [
          0.04614168048441613, 
          -0.1233731935476621, 
          0.2003614764108886, 
          -0.01396488916670673, 
          -0.2641669572692992, 
          0.17447152741137567, 
          -0.15318742635942967, 
          0.09697561662077082, 
          -0.0780603020922242, 
          0.035673904146561165
        ], 
        [
          -0.081765794654055, 
          0.06162404808316196, 
          0.0820282829762782, 
          -0.060704158696537384, 
          -0.048751887176294875, 
          -0.20094914646344747, 
          0.09180365681936345, 
          0.07653368151106249, 
          0.200900110926425, 
          0.11441311662072443
        ], 
        [
          0.1364218224637313, 
          0.06957022560551411, 
          0.10515519347646586, 
          0.09667142832856986, 
          0.15335264975897447, 
          0.0784496757168199, 
          0.14427309027458854, 
          -0.16005246526386438, 
          -0.10090085873260363, 
          0.18909601722667752
        ], 
        [
          0.13124411128637262, 
          0.07411796935865056, 
          0.14249273844814567, 
          0.07170203728583933, 
          0.03040826318361749, 
          -0.28612092749152584, 
          0.08588636450467292, 
          0.15581866495990168, 
          0.09180002089453493, 
          -0.2785416710767053
        ], 
        [
          0.014430362475083077, 
          -0.10884642712557872, 
          0.027528275482555355, 
          -0.2143576392202094, 
          0.12370548463727549, 
          0.2966592377080219, 
          -0.14413760681625984, 
          -0.030421779015153416, 
          0.08899144529971126, 
          0.0729245486450005
        ], 
        [
          1.5300200224079815e-86, 
          1.47785919092872e-85, 
          1.7160743632704306e-85, 
          5.062789444411522e-84, 
          -1.5557329949318756e-86, 
          2.3445063043741502e-79, 
          5.690387212542088e-81, 
          -3.571054504747283e-87, 
          3.761117834728252e-85, 
          3.7496097424228636e-84
        ], 
        [
          1.935971890182317e-80, 
          0.08041881407573014, 
          4.3992661405689445e-86, 
          -0.07918670071188798, 
          0.09537497384454816, 
          0.08016707991295932, 
          -1.3813245580794495e-83, 
          -0.0692489817228891, 
          0.07516388316094212, 
          0.08112665085387148
        ], 
        [
          -0.04825017540752968, 
          -0.0002411652010142714, 
          -0.002576755514142315, 
          0.046326527530117505, 
          0.0036381592970696386, 
          0.003420058213418607, 
          -0.04272449734062543, 
          0.034039037914937925, 
          0.0034832216517382466, 
          -0.04163734654592302
        ], 
        [
          9.73164172736379e-87, 
          -5.046763933360003e-87, 
          1.2272845136364454e-85, 
          -1.1693381114591114e-86, 
          -1.0303388513594e-86, 
          -4.0928972819665344e-86, 
          2.8085212623904734e-85, 
          -5.7342037292423506e-86, 
          -5.782119552208654e-78, 
          4.7545923078452256e-86
        ], 
        [
          2.6735301985494166e-86, 
          8.41119430050185e-86, 
          1.4690243305160534e-79, 
          -3.958153350453079e-82, 
          1.0572691787380496e-83, 
          -1.0996775170192058e-81, 
          -1.12946523749303e-75, 
          2.7822641985092943e-81, 
          -1.0738860604467795e-86, 
          -8.266629318903734e-87
        ], 
        [
          2.489950379510395e-86, 
          0.0350856359260156, 
          3.074722241804824e-62, 
          -0.03287763505540618, 
          0.03935238419822041, 
          0.03483554458440056, 
          -4.096399898413396e-76, 
          -0.02988921423878316, 
          0.033160677018776084, 
          0.03364015442717639
        ], 
        [
          1.335353875323957e-78, 
          1.9826466088698934e-83, 
          4.512251137355319e-80, 
          3.4263411469144254e-82, 
          3.5669714635006844e-80, 
          5.835638186057108e-85, 
          1.7520629275372264e-78, 
          3.671440270248756e-80, 
          1.0142886103569463e-85, 
          -8.05683614634333e-86
        ], 
        [
          -0.04825327463336222, 
          -0.00024127724531210987, 
          -0.002577444758627471, 
          0.046323071258488766, 
          0.0036437238358121094, 
          0.0034195242348621278, 
          -0.042721739052313724, 
          0.034039093728713395, 
          0.0034821964772081266, 
          -0.0416374167649774
        ], 
        [
          -0.03024388150944549, 
          -0.09388310965661295, 
          -0.03596902751910746, 
          6.839504573544518e-86, 
          -4.2658193931748596e-78, 
          -4.2766264630520545e-85, 
          6.914343493748271e-17, 
          0.19302334635589705, 
          -3.395653269764608e-10, 
          -0.23985137812858764
        ], 
        [
          -6.225571289644285e-78, 
          0.014724076988270142, 
          6.693665809731795e-20, 
          -0.010554840914392667, 
          0.012533370407409723, 
          0.011809856237978625, 
          4.0647227078179944e-86, 
          -0.010146161624966437, 
          0.013778117371022585, 
          0.014792332795794665
        ], 
        [
          2.6066261127982224e-84, 
          -2.8169702942795183e-81, 
          -1.0365979810779678e-85, 
          -2.3222271521963914e-86, 
          -1.3704110105012494e-85, 
          -2.0181891370822248e-85, 
          -4.1374237198414107e-78, 
          -7.315765105757662e-87, 
          -3.5698390466804806e-85, 
          -2.19841832294254e-86
        ], 
        [
          4.766619008516582e-87, 
          -4.0774386847007974e-84, 
          -2.0776728635019986e-87, 
          8.72106689312211e-75, 
          1.055051043453417e-78, 
          2.8436800291514063e-86, 
          1.1943124432336707e-84, 
          1.3596424992971937e-86, 
          9.896597840677821e-87, 
          -1.62296501404847e-83
        ], 
        [
          -0.0242710893321084, 
          -0.06277389702944998, 
          -0.029346711947593102, 
          -1.7532589037946227e-85, 
          -1.142549840377517e-85, 
          3.9343164539337344e-84, 
          -5.428858882218934e-86, 
          0.04846467060062737, 
          -2.265201919171844e-14, 
          -0.061041705704251714
        ], 
        [
          2.3169745492765347e-86, 
          -0.08347170858375207, 
          -2.3693383922962588e-31, 
          0.07990755922489894, 
          -0.09901393077061478, 
          -0.08472887083463038, 
          4.23238841385069e-87, 
          0.06459081149553111, 
          -0.08018362054430456, 
          -0.08071850389187303
        ], 
        [
          2.6665603018744024e-81, 
          -8.151032707516917e-85, 
          -4.83333879956294e-81, 
          2.013173013902218e-86, 
          1.7021046067950285e-86, 
          -2.711141624785556e-81, 
          -3.488037644723329e-86, 
          9.503948359648824e-84, 
          -6.880391086395408e-87, 
          6.875698026595944e-84
        ], 
        [
          -2.4256751534217116e-83, 
          2.0739124861209538e-85, 
          -1.7458636118545507e-86, 
          -8.551019945461693e-81, 
          7.401216681687147e-86, 
          7.455502843397146e-83, 
          2.5547805466036707e-85, 
          -3.8149926931647277e-88, 
          -1.0192560556320592e-85, 
          2.3636036570566067e-85
        ], 
        [
          2.4464690633885713e-84, 
          -3.1296259244329746e-82, 
          2.9206967963061515e-87, 
          -2.6060265557838796e-80, 
          3.913611256076998e-87, 
          -9.308965295529808e-87, 
          9.979339800911343e-86, 
          1.1051357024296096e-86, 
          -6.1532555292481674e-86, 
          6.509822003654665e-86
        ], 
        [
          -1.0444178813275862e-87, 
          -0.04594595937431687, 
          1.145930050262039e-83, 
          0.0441377629263183, 
          -0.054892461162219, 
          -0.046790688298589005, 
          -5.224687508115495e-86, 
          0.03546576814726617, 
          -0.04390689346967769, 
          -0.04449295339321256
        ], 
        [
          0.009664290089583064, 
          -7.013126194837601e-73, 
          -0.0015015739730703877, 
          -0.008052475447687118, 
          0.01030879472470836, 
          0.008521004288096138, 
          0.008239022967060198, 
          -0.0060898088229596236, 
          0.007824817352048138, 
          -5.0698390631397624e-12
        ], 
        [
          2.1287402219504656e-85, 
          5.273635470232346e-86, 
          -4.657902513448507e-84, 
          -5.361413973283383e-86, 
          1.7048183585816556e-86, 
          3.829098252637956e-86, 
          -2.1849353414897192e-79, 
          1.1528613757617432e-10, 
          -2.675412789472961e-86, 
          1.7087147844027402e-84
        ], 
        [
          -1.2418235642165814e-82, 
          3.2055822138360774e-86, 
          -8.275854353738488e-86, 
          1.1485217464034011e-76, 
          -3.709350035335222e-87, 
          7.356906394722412e-86, 
          -1.2914367712947296e-89, 
          5.220623631992504e-86, 
          9.39377605367061e-86, 
          -7.9402224590820765e-87
        ], 
        [
          5.539079403922744e-87, 
          0.06775573620225818, 
          -2.8783395671543198e-46, 
          -0.07741777816104321, 
          0.08404895547627034, 
          0.07276862335283614, 
          1.202501816320831e-75, 
          -0.05977114084308407, 
          0.06321751458723361, 
          0.07038297903040139
        ], 
        [
          -1.9433806470038623e-86, 
          3.0854955710270913e-85, 
          -2.214950376978516e-86, 
          -1.5516710057649473e-84, 
          5.4001221640410387e-76, 
          7.569789769639051e-86, 
          1.537395384113374e-82, 
          5.614696523848837e-87, 
          -6.893669114337667e-86, 
          -4.793964245233708e-11
        ], 
        [
          -3.1947256011001727e-86, 
          7.716933907041073e-86, 
          1.0698831995087756e-85, 
          -1.0448933403526804e-86, 
          1.417568066301121e-85, 
          2.5709994238127417e-12, 
          -2.170225090896741e-77, 
          5.584419192946802e-82, 
          1.1936213720789658e-76, 
          2.8180645244980437e-83
        ], 
        [
          3.85530879197176e-86, 
          1.4479456445977244e-86, 
          3.4613687175274885e-86, 
          2.3282563843229088e-86, 
          -2.245816046093885e-87, 
          -3.0683405108213935e-85, 
          6.907069423157759e-79, 
          6.234970354318748e-82, 
          -1.5572386224687558e-86, 
          -3.070969143944681e-86
        ], 
        [
          -2.0600415310157994e-66, 
          0.059458476101852946, 
          -1.28848738706889e-69, 
          -0.05394448881795759, 
          0.07569530272046891, 
          0.059866102665282715, 
          -2.0098655198981816e-86, 
          -0.0502645584991218, 
          0.05594637698294834, 
          0.06250962600781654
        ], 
        [
          -1.8952832037831117e-85, 
          -3.1067141755632295e-84, 
          -8.63277809038639e-83, 
          -1.3678692957164183e-84, 
          2.8633842292382e-86, 
          7.70768772810243e-83, 
          -1.462251856349664e-84, 
          1.5572221800114624e-84, 
          2.093919587626655e-80, 
          -2.4358447559573285e-86
        ], 
        [
          -3.598100679148964e-87, 
          -2.0032199372367626e-80, 
          1.773957911817336e-84, 
          8.27285866829928e-30, 
          6.543720512895996e-82, 
          1.9791709846752024e-87, 
          4.209006806307893e-86, 
          6.627203847344894e-85, 
          -5.441803389943146e-81, 
          4.7881685477867014e-86
        ], 
        [
          -0.19496780253236848, 
          0.1967874928759505, 
          -0.0034624990499443763, 
          0.10709857825443768, 
          0.008281892002377349, 
          0.09807522083169365, 
          -0.021451692940410196, 
          -0.03750493121145761, 
          0.08954559285757324, 
          0.06904478872090049
        ], 
        [
          0.06886772143276974, 
          -0.1393533265676324, 
          0.12721328282100147, 
          0.06734880975937191, 
          -0.07866837073674703, 
          -0.03307839563822346, 
          0.01746437494909753, 
          0.03810385473112093, 
          0.01566413205523567, 
          -0.3159891535048849
        ], 
        [
          0.13703397480282725, 
          -0.003366254575406096, 
          0.02189007735198985, 
          -0.07051246701753602, 
          -0.17834638955788232, 
          -0.09291057944427808, 
          0.09325762963980275, 
          0.05729879621562276, 
          0.01374526439842314, 
          -0.09056640725449505
        ], 
        [
          0.018488750997417733, 
          0.06234014074879323, 
          -0.07101087953187088, 
          0.025482570699879588, 
          -0.03478159730513495, 
          -0.07661400622148647, 
          -0.003311410590643475, 
          0.019504716726533495, 
          -0.04635319272488537, 
          -0.1162987400307157
        ], 
        [
          0.18733483535843304, 
          -0.06334149333404449, 
          0.04589866578257753, 
          -0.12980662899947576, 
          -0.31011833968219044, 
          -0.014149985603524392, 
          -0.0007526406730016213, 
          -0.027067052142936986, 
          -0.30752111125250214, 
          -0.0477641527135553
        ], 
        [
          0.068673163114429, 
          -0.08072311860263036, 
          0.0716799193460954, 
          0.041704831256628085, 
          -0.06038987354771432, 
          -0.017048418438800027, 
          0.014186608382526947, 
          0.019366086196438915, 
          0.15436042724174687, 
          -0.0747697011268067
        ], 
        [
          0.020496928179206574, 
          -0.017756969344013853, 
          -0.21629901965890813, 
          -0.06694153523800248, 
          -0.017414926674388927, 
          0.021494275489389366, 
          -0.015379823615093317, 
          0.03392401967458401, 
          -0.04672192810489888, 
          -0.04439278002451423
        ], 
        [
          4.014201862429155e-86, 
          1.5763319681220258e-84, 
          1.4835053952845086e-85, 
          -7.534851381678184e-85, 
          9.845370230487695e-87, 
          2.9965907721267944e-86, 
          -1.5958375646241969e-86, 
          2.770057231602524e-78, 
          -4.714812679564553e-87, 
          1.2713293367635893e-79
        ], 
        [
          0.39694503762230876, 
          -0.18601894065661398, 
          0.07966240880415357, 
          0.3077006634004852, 
          -0.1548259070123445, 
          -0.0040056005531523865, 
          0.1727885012459917, 
          -0.00420839701889168, 
          -0.41727303278308275, 
          -0.3183780773068336
        ], 
        [
          0.054303167297187045, 
          -0.05452620167698127, 
          -0.021653975503972394, 
          -0.012682137849374827, 
          0.04142613227717377, 
          0.10061321663444084, 
          -0.024100511347592984, 
          -0.013928996211031615, 
          -0.09097948513485461, 
          -0.10527412390203002
        ], 
        [
          0.14762575433119188, 
          0.08385206824709644, 
          -0.179457196146915, 
          0.0651385471090506, 
          -0.07775423144248117, 
          -0.15266583840405068, 
          0.12534848848353758, 
          0.023528993383769067, 
          -0.13852852313563857, 
          -0.24295271300589832
        ], 
        [
          0.13055729835218463, 
          0.11466483279461372, 
          5.352471309960102e-05, 
          -0.11142550314936281, 
          8.961550492273281e-86, 
          -1.4238323882672313e-30, 
          0.039076863069081355, 
          -0.08925215543561987, 
          -9.715502890102965e-86, 
          2.0310744601607093e-80
        ], 
        [
          -0.018709399181067097, 
          -0.00506955339615842, 
          0.045785464533319976, 
          -0.005243718652127234, 
          0.20392394426862695, 
          -0.04244095494598918, 
          0.16209980674755842, 
          -0.22989101356600633, 
          0.06566041878768143, 
          0.07621625192971551
        ], 
        [
          -0.037417257985768476, 
          -0.01680839730766804, 
          -9.576298615679828e-39, 
          0.06885251158887451, 
          -0.08621413141610407, 
          -0.07071654202358839, 
          2.480385813995167e-85, 
          0.053400071950794104, 
          -0.02203089767979544, 
          -0.02210454405240486
        ], 
        [
          -0.02695303689927139, 
          0.10187364123059109, 
          -1.3342525761021451e-30, 
          -0.09795227322200198, 
          1.1857916769498895e-40, 
          -6.037975468769755e-47, 
          0.11927493989837454, 
          -0.07953623231862567, 
          -0.02350236447317659, 
          -2.53964968010991e-85
        ], 
        [
          0.04611949037066665, 
          0.04055163888666723, 
          7.047648085627373e-10, 
          -0.039287359840574104, 
          7.292314479761723e-86, 
          -9.623257263275237e-49, 
          0.04028133782127037, 
          -0.03137384502716507, 
          3.8680489611074683e-87, 
          -2.6885179655755274e-77
        ], 
        [
          0.15728988352042247, 
          -0.0315755932627528, 
          -0.3269062590479814, 
          0.336103213222063, 
          0.12146251892012858, 
          -0.10985344503523602, 
          -0.01943164213984688, 
          0.1266387499050479, 
          0.06355705649278955, 
          0.07995195874098979
        ], 
        [
          -0.08883864131720687, 
          -0.30778090453366513, 
          0.1327901245629163, 
          0.1546964783310865, 
          0.14427301116464045, 
          -0.016313540541085664, 
          -0.056209370362753135, 
          0.07416794231394813, 
          -0.03858606640463073, 
          0.15037605518079367
        ], 
        [
          0.14041123181500373, 
          -0.021370472787804982, 
          -8.925935233190107e-60, 
          0.015841707107299045, 
          -0.005571290601388189, 
          -0.05349857239992845, 
          0.0438376817443577, 
          0.015304011742826336, 
          0.03409222659437763, 
          -0.08657375131756036
        ], 
        [
          3.5182841860439794e-86, 
          6.187786683994293e-85, 
          7.779814755477122e-86, 
          0.020877411949392917, 
          -0.024526386519203216, 
          -0.025391235632365877, 
          -0.021686025929519803, 
          0.017953088732970877, 
          -0.02105681183530632, 
          -0.021076895031657668
        ], 
        [
          0.06526012703606572, 
          -0.6360502012918782, 
          0.0996897619918185, 
          0.11516127303127313, 
          0.11063624320739589, 
          0.12647940461039292, 
          0.1066646639697582, 
          0.13402951299734847, 
          -0.03567738633355115, 
          0.04638784122942789
        ], 
        [
          -0.06977265045599743, 
          -0.07658443860727573, 
          0.11601506023847484, 
          0.309038144084902, 
          0.21882729667539466, 
          0.18798055945793066, 
          0.04187522863452045, 
          0.1668159357402408, 
          0.16768988043815497, 
          0.2067883585827092
        ], 
        [
          -0.13931714412502436, 
          -0.2488468808113064, 
          0.06082812478571669, 
          -0.15951366016834706, 
          0.322672217918589, 
          0.11727974079743414, 
          -0.15310320337440075, 
          0.28403187027513876, 
          0.08191777433981257, 
          0.09583586962425822
        ], 
        [
          -0.03692786251515115, 
          0.18382994320166104, 
          -0.01968901612239869, 
          -0.08861089776515048, 
          0.017411049874804074, 
          -0.14710509451916493, 
          0.06448874562818993, 
          0.004797468069991293, 
          -0.02917992149846301, 
          -0.10711550796956017
        ], 
        [
          1.0023121122507637e-79, 
          -1.1148197185839738e-82, 
          -2.4564049297095467e-86, 
          -8.850451828483044e-83, 
          3.266843764115717e-78, 
          5.322412771290221e-85, 
          -1.2953090620974602e-85, 
          1.8850753072130047e-76, 
          -2.114652291314252e-81, 
          -3.120571829434894e-84
        ], 
        [
          -0.08510791041183191, 
          -0.011430390126890538, 
          0.0017758965799393983, 
          -0.00836712756200328, 
          0.22715640488343014, 
          -0.07605724099754502, 
          0.1692837423075442, 
          0.10945617596342565, 
          0.012006443040751368, 
          0.06784873887154313
        ], 
        [
          -0.045521046449858826, 
          0.04902859693006163, 
          -0.038029275802087786, 
          -0.3481822590545634, 
          0.008247191132376928, 
          0.0188469769632024, 
          -0.05387238048397193, 
          -0.10403665209567901, 
          0.09777161321763395, 
          -0.02559903541459914
        ], 
        [
          0.24826437916657304, 
          0.0927923843859246, 
          0.0909212141190469, 
          0.10268695667500899, 
          0.050090823816251, 
          -0.016106490147261183, 
          0.21869196673028934, 
          -0.06376757442722349, 
          -0.05522677482927401, 
          0.09145926842524778
        ], 
        [
          5.609029771667317e-85, 
          -1.2248492075870817e-86, 
          2.006449552615171e-85, 
          3.3955023019892104e-86, 
          -9.097541820734964e-87, 
          6.337879648150331e-85, 
          3.250884222736701e-85, 
          -1.3839429843722513e-86, 
          9.131901197102698e-85, 
          9.963461385934337e-84
        ], 
        [
          -0.10709579522622095, 
          -0.008770416901621798, 
          -0.05546247497227302, 
          0.06160108677137783, 
          -0.11965905396177304, 
          -0.14560373539936136, 
          0.09633804009520723, 
          0.027835567856237458, 
          -0.0614710578799804, 
          -0.1182069992478741
        ], 
        [
          -0.06367215520646509, 
          0.015081608762240161, 
          0.028064290619801632, 
          -0.02759863723023844, 
          0.02566857633040417, 
          -0.03287724870979324, 
          0.046208189428404066, 
          -0.08734300897718411, 
          0.09643912821770892, 
          0.030472995387291545
        ], 
        [
          2.3116730997509784e-31, 
          0.001721262180328939, 
          3.006711365690091e-37, 
          0.040302401881317285, 
          -0.049203611811087664, 
          -0.041601370640722626, 
          0.048031937708226696, 
          0.03191156047915636, 
          -0.03733952644159913, 
          -0.054122718844996004
        ], 
        [
          -1.941677415009871e-86, 
          -6.202713104729137e-85, 
          5.118735445191057e-79, 
          -8.893234094804285e-86, 
          -7.069856416965331e-75, 
          -3.912615863850319e-85, 
          2.7522428645913302e-84, 
          -6.8926061447229765e-87, 
          -4.265188037547731e-78, 
          -9.054793807069514e-79
        ], 
        [
          5.487198131020191e-44, 
          -0.013349773440774114, 
          0.09287301679926069, 
          0.01733793182945851, 
          -0.053356571840125114, 
          0.1494918608370682, 
          -0.11484952133411294, 
          -0.024195621245155823, 
          -0.05154520968729796, 
          -0.05071379308013464
        ], 
        [
          0.013920050609753836, 
          -0.06707213884183329, 
          0.12918764027022925, 
          0.05183688785171406, 
          -0.1827505738133429, 
          0.06632993175875578, 
          0.020401011927105486, 
          0.02158445464417139, 
          -0.031275467811256494, 
          0.03907156616799269
        ], 
        [
          0.0028606286393172585, 
          0.04601845218544123, 
          0.004315238922447169, 
          0.07242095175039197, 
          1.999059773477778e-39, 
          -0.01705940095716331, 
          0.023814964052926928, 
          0.0036240935183963464, 
          -0.06562200556212891, 
          -0.02538432414658874
        ], 
        [
          -1.6799703593960358e-81, 
          -2.1652243949742203e-86, 
          -1.0168367024319582e-86, 
          2.759629330040609e-86, 
          5.403682939028071e-84, 
          -1.3579373801359095e-86, 
          -3.8413138467454834e-86, 
          8.532265564624454e-83, 
          3.0661760940298613e-85, 
          -9.808065250483085e-86
        ], 
        [
          1.6981007044893126e-86, 
          1.322478937348773e-85, 
          4.432292081817435e-87, 
          3.8574864771001323e-78, 
          -1.613356098419118e-86, 
          -3.960039672253942e-86, 
          -2.7321792553881617e-77, 
          1.1626059923364105e-86, 
          4.618079467532543e-85, 
          5.250427960050121e-85
        ], 
        [
          5.782431357701424e-87, 
          2.1797560970920928e-85, 
          -4.1822854124544755e-81, 
          7.448157826913938e-87, 
          -1.128486259398765e-86, 
          -4.7372261442910896e-86, 
          2.4690736262544484e-86, 
          3.22878284952357e-87, 
          2.1139873770755688e-85, 
          5.063601595796283e-84
        ], 
        [
          1.1440011001565962e-86, 
          1.299095760943522e-85, 
          -2.1025800563102147e-83, 
          2.329168003777927e-87, 
          2.1881574802963966e-86, 
          -1.251618934089406e-84, 
          -5.611893260775699e-85, 
          1.1090043888068348e-85, 
          -8.139420788455856e-88, 
          -6.818944244159905e-87
        ], 
        [
          -5.554929901785888e-86, 
          -1.8239116818513143e-85, 
          -1.5467193080886115e-78, 
          1.1388243339051068e-85, 
          2.2221515641442527e-86, 
          8.583606254562049e-84, 
          -1.0744955132606222e-86, 
          -1.5397521769716688e-81, 
          1.3767406855572508e-85, 
          2.427234791366064e-85
        ], 
        [
          0.09052054319687862, 
          -0.08589103380113226, 
          0.1448140148587871, 
          -0.01992882630022517, 
          0.10497523013644428, 
          0.028780950714688034, 
          0.14616206620553884, 
          -0.0621214185041856, 
          0.1744599134334262, 
          0.1470061818206948
        ], 
        [
          0.055907675618699915, 
          -0.0029409926772900508, 
          0.04688034426528837, 
          0.010981656026794828, 
          0.34810160062954415, 
          0.10123807224824767, 
          0.13674352633452067, 
          -0.24967646877969027, 
          0.19648792077769822, 
          0.2240419095801402
        ], 
        [
          0.25457112776494084, 
          -0.03300218549154912, 
          -0.06668968871851823, 
          -0.22628636941687827, 
          0.10536204048080679, 
          0.0706188420243547, 
          0.11457181740939565, 
          -0.06160872264899368, 
          -0.353977057472157, 
          -0.05197888830377354
        ], 
        [
          -0.1917304433751416, 
          0.15821542171380112, 
          -0.3439357008155077, 
          0.020648775786581024, 
          0.32782345178741695, 
          0.10481676952723208, 
          -0.10471358682780298, 
          0.0029724064124114534, 
          0.01694342848186606, 
          0.1985736692082667
        ], 
        [
          -0.11043418296703424, 
          0.13047216480275745, 
          0.23671044084835915, 
          -0.09001548269524252, 
          -0.2685598912137956, 
          -0.1650085452308651, 
          -0.1064231732278238, 
          -0.05539297334443552, 
          -0.02665090381596506, 
          -0.26726438657572615
        ], 
        [
          0.21010006564638614, 
          -0.1342264361983829, 
          -0.06331011273164, 
          0.10237976261523946, 
          -0.10529826749154235, 
          -0.04986542074189189, 
          0.08006051028958759, 
          -0.039964659144707426, 
          -0.15257750804802478, 
          0.11863470628458832
        ], 
        [
          0.021546107884528102, 
          -0.21084487019077003, 
          -0.03088755477568288, 
          0.24721618495950115, 
          -0.2035683601049264, 
          0.04315385860082364, 
          -0.023428924749935087, 
          0.15540528269279158, 
          -0.053193775839639655, 
          0.06362105198932937
        ], 
        [
          0.10280630770797426, 
          -0.028886717948066715, 
          -0.11168803659653433, 
          0.10519744168591845, 
          -0.00834920008811225, 
          -0.028652387581277177, 
          0.09673965576073533, 
          -0.027635002366141106, 
          -0.030301109246638796, 
          0.07808917612107498
        ], 
        [
          3.356211126484034e-81, 
          1.0322572125322574e-86, 
          8.559521981021003e-81, 
          -7.113579493170261e-86, 
          2.0518831217748952e-86, 
          -2.145451125588778e-86, 
          -2.766727931637633e-83, 
          -2.6362521857535136e-84, 
          2.467060258756063e-86, 
          -5.147414886046103e-83
        ], 
        [
          -0.0012525508883446542, 
          -0.03866614067674997, 
          -0.0073958444432341165, 
          0.018543378912521252, 
          0.04285095939688926, 
          0.010926903443221322, 
          -0.05429576695520305, 
          0.012087515181317728, 
          0.012182029704851795, 
          0.034086004478921274
        ], 
        [
          -4.1576299680041545e-85, 
          -1.1489580278543527e-84, 
          -5.446758445402186e-86, 
          -2.0403316631361218e-84, 
          4.0242029039824996e-81, 
          6.8464410803861475e-19, 
          5.038079588152534e-86, 
          9.134968438320641e-78, 
          1.4843009191067136e-87, 
          -2.0686055351326181e-81
        ], 
        [
          -3.7843016786920423e-87, 
          1.1806388362021005e-76, 
          -1.6777936748430863e-84, 
          -7.919878812081903e-85, 
          -1.053601094655839e-86, 
          3.38296429945066e-79, 
          -1.5541378163367535e-86, 
          4.350823991608239e-86, 
          -2.5325037985965304e-83, 
          2.095235220680681e-85
        ], 
        [
          0.08884645907669943, 
          0.18684700195195378, 
          -0.28424483903845665, 
          -0.06803247500334485, 
          0.08617999614200762, 
          -0.20514755759082853, 
          -0.0032533252046143125, 
          -0.01741638368709168, 
          -0.03759453061987835, 
          -0.07263538960416735
        ], 
        [
          -0.1849615829715027, 
          0.07031853891309901, 
          0.09925603008701163, 
          0.059346285039887314, 
          0.142249033131978, 
          0.13762536379500023, 
          0.049779317936492075, 
          0.015924172885113132, 
          -0.18191000272930763, 
          0.04178005692125182
        ], 
        [
          0.191693680550398, 
          -0.14351697553311155, 
          -0.2189352868251115, 
          0.0779145439552709, 
          0.05160191132917321, 
          0.274496600035932, 
          -0.06141100783466548, 
          -0.027885625657286355, 
          0.037917446920299865, 
          -0.005715571369149301
        ], 
        [
          -0.22363473179196094, 
          0.32111576059373936, 
          0.2231604934022938, 
          -0.05564638138872485, 
          -0.14980614581535043, 
          0.22047881725069549, 
          -0.06236029828529576, 
          0.08088174088620145, 
          -0.40758468776629836, 
          -0.3249977758283109
        ], 
        [
          -0.19448650627583852, 
          -0.08988418530821948, 
          0.1505387006765894, 
          0.05129908738939606, 
          -0.1567124379374793, 
          -0.12869462199083984, 
          0.3230600868977993, 
          0.021969956068590007, 
          0.10214601090778572, 
          -0.32978256678400814
        ], 
        [
          -0.14472173139110467, 
          0.12990622140852862, 
          0.3328161631725857, 
          0.17924258566759887, 
          -0.19928327872282497, 
          -0.06525416712366806, 
          0.10581912650521634, 
          0.04587244149620118, 
          0.027129813221174744, 
          -0.29685248963781663
        ], 
        [
          0.12870412864334277, 
          -0.007821134069304897, 
          0.03421279048868748, 
          0.16667072071302552, 
          -0.2260577151894587, 
          -0.051793264499033174, 
          -0.26384427790239295, 
          -0.41319323862609625, 
          -0.13791041898722908, 
          -0.28092077763440776
        ], 
        [
          0.03915369054871945, 
          0.14719761952808263, 
          0.09556988432936685, 
          -0.19179204251060658, 
          0.08203624382670827, 
          0.06356423331178504, 
          0.017429825933943533, 
          0.2092841549911059, 
          -0.10494313087208144, 
          -0.015208242999616312
        ], 
        [
          0.09595346049163822, 
          -0.14591182308122472, 
          0.18020762940298574, 
          -0.02479776286859933, 
          -0.0056828814985650355, 
          -0.08934933000454086, 
          -0.12654248868296863, 
          0.08796822009994525, 
          0.21259159743000008, 
          -0.02912248389014279
        ], 
        [
          0.23591872882953088, 
          -0.03999529296256245, 
          -0.012228663976614387, 
          -0.19588324164863163, 
          0.20095430215593899, 
          -0.02378961314700233, 
          -0.02530805214310946, 
          0.20741828679737104, 
          -0.031459917482526745, 
          -0.08371057580198919
        ], 
        [
          -0.3035908370515382, 
          -0.15810263267350969, 
          0.061910462949874984, 
          -0.16266415890267352, 
          0.027687790603867155, 
          0.015870178605251528, 
          -0.07290895623625214, 
          -0.08842030537605049, 
          0.12502271453467767, 
          0.08578741910080008
        ], 
        [
          0.08386875562301362, 
          -0.1983649259216354, 
          -0.04215181458232955, 
          0.14930887998078402, 
          0.08648200032418618, 
          0.08136047017063408, 
          -0.13764062793976603, 
          0.07187727588750026, 
          -0.3230485465794267, 
          -0.1600181776511003
        ], 
        [
          -0.3199601241180826, 
          0.01816778104917585, 
          -0.22483357569720522, 
          0.16234497513041993, 
          -0.15773391753524393, 
          0.09871827534741677, 
          0.07282695925044161, 
          0.0033857055660238347, 
          -0.11625766336679227, 
          -0.12471116530499202
        ], 
        [
          0.18473487627539809, 
          0.12230480133514893, 
          -0.12646430409499937, 
          0.22837998478528407, 
          0.043067685533500995, 
          -0.16745686748553723, 
          0.07891474340820084, 
          -0.08488865800185717, 
          -0.1908211455442038, 
          0.3225229800054053
        ], 
        [
          0.055621749997431524, 
          -0.010846450401567995, 
          0.08566945823629331, 
          0.3388089286862849, 
          0.23680718082169933, 
          0.05679362538128798, 
          -0.06966773937330543, 
          -0.009153699481414148, 
          0.025489471594344785, 
          0.11468897593933959
        ], 
        [
          0.11654589840995372, 
          0.07730736245343962, 
          0.22663931883141555, 
          0.18816597832330062, 
          -0.026510702951903133, 
          0.12320329527542909, 
          -0.10745945614908918, 
          0.10674556771004791, 
          0.042461655642932486, 
          -0.0023660049702156284
        ], 
        [
          -0.203250121254015, 
          0.20221561009252798, 
          -0.07640201335944613, 
          -0.09284542326778164, 
          0.09769850987026109, 
          0.2468152670791536, 
          0.11024065272610832, 
          -0.10275385734295146, 
          -0.0967949067248205, 
          0.022641597293393878
        ], 
        [
          0.15940868845605227, 
          -0.09342404238862533, 
          0.02486697969177827, 
          0.06327421763412995, 
          -0.088876865608002, 
          0.021488545837511943, 
          -0.030130612162412092, 
          -0.023517406082670767, 
          0.03281010134178751, 
          -0.032648109203507594
        ], 
        [
          -1.4846288642945112e-72, 
          -1.5418946429983232e-86, 
          -0.07809136100227203, 
          0.0778301055425954, 
          -3.261980822323648e-27, 
          -0.08203082704782154, 
          8.9230487818988e-32, 
          0.061536828107959456, 
          -0.07527835611281543, 
          -0.07778498948626837
        ], 
        [
          -0.11187417998137304, 
          -0.0676651305407411, 
          -0.2542440675037463, 
          5.0402807007485035e-79, 
          -0.036564165529287644, 
          -0.08137720505425082, 
          -0.08941166624979227, 
          0.1857980042237161, 
          -0.13066677323381176, 
          -0.26736902964567816
        ], 
        [
          5.111034049843032e-86, 
          -1.2500919168371802e-86, 
          -3.929985914123268e-86, 
          1.0030333192387286e-84, 
          -1.0640717279411105e-79, 
          -1.491748678590765e-79, 
          8.530718342186428e-85, 
          -4.797210620877192e-86, 
          5.984023386761163e-77, 
          8.557664430174706e-87
        ], 
        [
          1.1709542228553501e-86, 
          -3.332345246294574e-87, 
          -4.742167404578558e-84, 
          4.1955773184377936e-86, 
          2.010286995102562e-83, 
          8.915793840459396e-87, 
          1.3225247048280304e-86, 
          9.571495441768762e-87, 
          8.965764674184541e-87, 
          1.8274628250685644e-86
        ], 
        [
          0.012976365688199846, 
          -0.16620418651886207, 
          -0.2913983557360744, 
          0.1498611623773308, 
          -0.07377622094390032, 
          -0.08851860547919896, 
          0.0008076911149882246, 
          -0.19345394005219294, 
          -0.05230660578536636, 
          -0.16384302565648212
        ], 
        [
          0.12509765200871392, 
          -0.15281299363841655, 
          -0.0006066806178873004, 
          0.11601495371305376, 
          0.08046155959539422, 
          -0.10509760124321206, 
          0.22037605988386422, 
          -0.04655110612200239, 
          0.19387658968201274, 
          -0.11097795379655193
        ], 
        [
          0.03300805825175701, 
          -0.004852909145733903, 
          0.11210319813507096, 
          0.11024859682910863, 
          -0.07272913151600943, 
          -0.16471357891757063, 
          0.10864483349909605, 
          0.11408480041313154, 
          0.04440384569047834, 
          0.03540601499142849
        ], 
        [
          -0.2482869733694773, 
          -0.18529984601812916, 
          0.07133653929602572, 
          0.2594405574078777, 
          0.21358456516800653, 
          0.011577171328953575, 
          -0.27860730727574795, 
          -0.07222128378879171, 
          0.08772311680790541, 
          0.22142201150937066
        ], 
        [
          0.06580215747016957, 
          -0.22427977545429034, 
          -0.179331799424691, 
          0.11887356189091534, 
          -0.2388891256893778, 
          -0.09337184698549285, 
          -0.08474871722245338, 
          -0.07120431821694108, 
          -0.13194727299308323, 
          -0.2802889670697692
        ], 
        [
          0.05511475049284928, 
          0.02086432154573664, 
          0.10027255904665786, 
          0.05281296200278879, 
          -0.35995640704003823, 
          0.1415959490824449, 
          0.20678959339737615, 
          -0.051057843940273996, 
          0.06630212829480578, 
          -0.28979836348878013
        ], 
        [
          0.1881509124117936, 
          -0.2445527246314553, 
          -0.24519149403022178, 
          -0.10372177352786308, 
          -0.31874482135524435, 
          -0.008773649360410415, 
          -0.034736778890057635, 
          -0.23944279733190482, 
          0.09763564614084551, 
          -0.19557809269537133
        ], 
        [
          -0.23497930680761506, 
          0.006344079172933739, 
          0.10707897348088084, 
          0.03274801129470739, 
          0.11318508211594003, 
          -0.009112701158721856, 
          0.01950455414232476, 
          0.21424604022367771, 
          0.06946691410696482, 
          -0.021407291580622476
        ], 
        [
          0.10954168767851855, 
          0.07765129650608252, 
          -0.10519776053362667, 
          -0.03742654578903223, 
          -0.04157619645917977, 
          0.13027137803308347, 
          -0.009508067629755278, 
          0.01981726442203162, 
          0.025224771447900536, 
          -0.015544015994408284
        ], 
        [
          0.0331653184141931, 
          0.04602510467330634, 
          0.1175159941672488, 
          0.04064886942309855, 
          -0.014476779751013238, 
          -0.0003404805463420867, 
          -0.03745589598639168, 
          0.06381013505874625, 
          -0.07061999727436172, 
          -0.03048454124763608
        ], 
        [
          0.11554027563233657, 
          0.06464354093165445, 
          0.07924319541672223, 
          -0.09185563493997385, 
          -0.290821485490216, 
          -0.00036665367814385204, 
          -0.02120027829896077, 
          0.050039646366053035, 
          -0.13309042460761436, 
          -0.028079806753225092
        ], 
        [
          0.1528476904558681, 
          -0.15548425768595625, 
          0.0899344135490946, 
          -0.02336643543553393, 
          -0.0926103701927444, 
          -0.07953590535043485, 
          0.0667406265953236, 
          0.22338309417200397, 
          0.015112576703383174, 
          0.14773210732698824
        ], 
        [
          0.06956647743397415, 
          -0.004110874075197979, 
          0.10504676973281536, 
          0.22406206658643527, 
          -0.09321958006686148, 
          -0.10196737459199773, 
          0.29006223678376486, 
          -0.022416522702492853, 
          -0.26745625011631974, 
          0.015656888969040297
        ], 
        [
          0.17581526230532504, 
          -0.18168771871393152, 
          -0.03163949126236155, 
          -0.2830562296714284, 
          -0.18276377630830345, 
          -0.08236866232351922, 
          -0.03300786685229655, 
          -0.023293035280228722, 
          -0.17950047101304584, 
          -0.0675846896747276
        ], 
        [
          0.1953008473525413, 
          -0.10699242810531899, 
          0.06545606115588794, 
          0.07412164374956312, 
          0.01060651127707244, 
          0.261101085613162, 
          -0.30241895081572373, 
          0.07093111101247328, 
          -0.24619635325764352, 
          -0.15542577743421068
        ], 
        [
          -0.19885091949433942, 
          0.11128286135244264, 
          0.1812135002390518, 
          0.1717947455896993, 
          0.09974290812082043, 
          0.159526645753578, 
          0.011470888499910301, 
          0.061588580585120616, 
          0.11295240979410825, 
          0.09797296022024735
        ], 
        [
          -0.12444698448166687, 
          -0.0798085580336143, 
          0.2010048559065655, 
          -0.0758901047334562, 
          -1.712414159850223e-05, 
          0.1143016663659957, 
          0.029589895705679617, 
          -0.0031124052515557775, 
          0.044879667448699465, 
          -0.02845933310077748
        ], 
        [
          -0.025736583290905765, 
          0.022220255958122808, 
          0.02299204024675404, 
          -0.06885517107494507, 
          0.15185289736810995, 
          0.19616506057110067, 
          -0.10321709368129668, 
          -0.057129206023902625, 
          0.07092587320647592, 
          0.10413832430545278
        ], 
        [
          0.07935917807857575, 
          -0.09900800522089177, 
          -0.18153415353704855, 
          0.055252288953502905, 
          -0.05440365032849157, 
          -0.22661841605578484, 
          -0.025787229873224973, 
          0.021235076768911655, 
          -0.05563436461427284, 
          -0.05675131415755674
        ], 
        [
          -0.13083297045362452, 
          -0.06791378276441885, 
          0.0773914085691163, 
          0.06264109762456707, 
          0.13043799846457113, 
          0.13002279016444612, 
          -0.09387588021349169, 
          -0.14369569942074192, 
          0.1143081307026815, 
          0.026066708135652702
        ], 
        [
          0.131627209113434, 
          -0.06778424344301398, 
          -0.01633209154185119, 
          0.16714377757356144, 
          -0.19445633904622464, 
          -0.6084602454221256, 
          0.14087589107743456, 
          0.2019595758775906, 
          0.3477561638621502, 
          0.18206729753905565
        ], 
        [
          -0.24627278156592047, 
          0.4539251964579769, 
          -0.13321600933464728, 
          0.16837928275871306, 
          0.2539868764173627, 
          -0.3225233747551368, 
          0.12953407719827306, 
          0.22345969914249658, 
          -0.039195532331800745, 
          -0.1870714146059685
        ], 
        [
          0.07008343767878375, 
          -0.011745743767088068, 
          0.12678885381125946, 
          0.093334551662416, 
          -0.033983416625186086, 
          -0.29388874368076157, 
          0.10133571344811301, 
          0.047505845145734166, 
          -0.19719431361767495, 
          0.12319103953312277
        ], 
        [
          0.17792779543222384, 
          -0.033885741007632184, 
          0.1957613157758951, 
          0.1899635223814524, 
          -0.02693629979896063, 
          -0.22331057378254998, 
          0.2388450298589788, 
          0.12815916195886295, 
          0.04928400002730198, 
          0.06431432440471599
        ], 
        [
          0.09217798984193336, 
          0.13160764125311689, 
          0.01396493251337635, 
          -0.10927749837792182, 
          -0.08219144656309747, 
          0.033982291868825155, 
          -0.07220455646843732, 
          0.039536769315876984, 
          -0.1546958901321529, 
          0.13297552326992632
        ], 
        [
          -0.19381822724419656, 
          0.08446120718296142, 
          0.023752231617690935, 
          0.13342770535114284, 
          0.384137661893003, 
          0.2311682754124862, 
          -0.14031414619806037, 
          0.0012535881555451392, 
          0.13551842586448987, 
          -0.09797611923383118
        ], 
        [
          -0.14121381624345739, 
          0.1420890452616119, 
          0.1289087946731493, 
          0.06322218584587386, 
          -0.0694830833449071, 
          0.3226629587873939, 
          -0.20647151506946862, 
          -0.1123198562110189, 
          -0.1485797528860243, 
          0.24702328648598157
        ], 
        [
          -0.05103323240730953, 
          0.05273932594837506, 
          -0.1920667174968995, 
          0.07480514766060571, 
          0.0034933258685638257, 
          -0.08114127765792102, 
          -0.02984672954482989, 
          0.21540517662599898, 
          0.26563184123918443, 
          -0.02954394388557484
        ], 
        [
          -0.06018051262302665, 
          -0.1464017132404227, 
          0.04561052736552974, 
          0.15497776926450585, 
          0.16314991400923834, 
          0.13088310874584827, 
          -0.10488429002226288, 
          0.0931035174687786, 
          0.1702651139191527, 
          -0.25579547630722227
        ], 
        [
          0.32820834652138786, 
          -0.21585351767854458, 
          0.0029233691046291095, 
          0.19100216659515118, 
          -0.2545656171998847, 
          -0.19319438058232255, 
          0.3866899602884069, 
          0.14449158262609044, 
          0.3267180721542053, 
          0.35540676484194134
        ], 
        [
          0.42623362997563174, 
          -0.3042910044815174, 
          -0.15182409798597749, 
          -0.26006536895123206, 
          -0.04235525576991458, 
          -0.1364650765591421, 
          -0.3472120621728025, 
          -0.04534276215442975, 
          -0.4218083715691034, 
          0.17343778270441654
        ], 
        [
          -0.24317128941654842, 
          0.1661155471258725, 
          0.1374675865034727, 
          -0.1815335903906174, 
          -0.17600047447556688, 
          -0.004407848894092577, 
          0.13151792335813273, 
          0.11639418114889523, 
          0.011250775944460525, 
          -0.02893125545296767
        ], 
        [
          -0.4634869628229799, 
          -0.055322262803491985, 
          0.05463397654787995, 
          0.1521218611429468, 
          -0.06832989670185215, 
          -0.026509144981578574, 
          0.06728594828412303, 
          0.11511476051119712, 
          0.04638439958568611, 
          -0.12761186889633216
        ], 
        [
          0.03283618027254373, 
          0.1849128089813516, 
          0.2753202941553111, 
          0.01647383138168094, 
          -0.1393971846300937, 
          -0.026939454691404168, 
          0.23556210494488325, 
          0.09639653938796723, 
          -0.11881752243450024, 
          0.03043676236532304
        ], 
        [
          -0.012544076738052513, 
          0.06798547161895922, 
          0.1772032552874606, 
          0.015595766403227367, 
          0.17117158470332636, 
          0.08202779283856432, 
          0.07953400128607521, 
          -0.0946211126132254, 
          0.07211686027088925, 
          0.10189873535790685
        ], 
        [
          -0.4765730530149744, 
          0.05741711973446698, 
          0.14270260302422558, 
          -0.02471258846677717, 
          0.05976217036091289, 
          0.214902155162255, 
          -0.16245337521410977, 
          -0.061466968196606846, 
          -0.235202943665899, 
          0.1553007947081778
        ], 
        [
          0.14888683288965748, 
          -0.16224610195863753, 
          0.16421825943868623, 
          0.05524496838228385, 
          -0.17479700323733055, 
          0.13764904780395468, 
          -0.35645709548056725, 
          0.0010229270960035242, 
          -0.0708930484006713, 
          -0.1777246690307001
        ], 
        [
          0.2668714333831421, 
          -0.2122059088721997, 
          0.13110440857894423, 
          -0.3122111019369924, 
          -0.039783705066918994, 
          -0.06154763133955869, 
          -0.07090351089542496, 
          0.025783169525565204, 
          0.18976897435061035, 
          -0.006200657363363234
        ], 
        [
          -0.25624611917617873, 
          0.07321615390053407, 
          -0.026420609380445496, 
          0.09223674234603675, 
          0.20900745817954725, 
          -0.034890669917191273, 
          0.15074887909900986, 
          0.03496426025729428, 
          0.10138564788659356, 
          -0.00874888974362468
        ], 
        [
          0.14636918755808456, 
          -0.14516996546644503, 
          -0.2939754864295267, 
          -0.1365158316293021, 
          0.1056095594169155, 
          0.04000519190712493, 
          -0.008249171695884065, 
          -0.1085424802806381, 
          0.15331602259847135, 
          -0.09831540728580475
        ]
      ], 
      "biases": [
        -0.02556794460102618, 
        0.053257912297331435, 
        0.0557022256611516, 
        0.10483077616704967, 
        -0.02976340388339621, 
