{
  "output": {
    "weights": [
      [
        -0.9160560862029631, 
        1.025789726148609
      ], 
      [
        -0.9704788932737878, 
        0.9350477036131247
      ], 
      [
        -0.8268949771739365, 
        0.47058875839180914
      ], 
      [
        0.7591101400932693, 
        -0.9139101117991093
      ], 
      [
        -0.7407267413527314, 
        0.8528248527672433
      ], 
      [
        -0.8997992496280409, 
        1.0910930640236478
      ], 
      [
        -1.0887366967114742, 
        1.3541339343155463
      ], 
      [
        0.40851278433043253, 
        -0.8887329471491641
      ], 
      [
        -0.6567344265854488, 
        1.1279556799308021
      ], 
      [
        -1.1958206927037704, 
        1.0866613291339506
      ]
    ], 
    "biases": [
      0.7881325730178217, 
      -0.7881325730178219
    ]
  }, 
  "hidden": [
    {
      "weights": [
        [
          0.07923984471632083, 
          -0.00934433649535111, 
          -0.18073968321223663, 
          -0.1073122957995927, 
          -0.029152356922596243, 
          -0.01737350960939156, 
          0.05187119730931665, 
          -0.11084309041755565, 
          -0.02310533124277941, 
          0.018861157191271873
        ], 
        [
          -0.0032739481589574033, 
          0.004044947863218403, 
          0.08079519038602984, 
          0.03909526951317087, 
          0.004257648660583647, 
          0.010868077401732849, 
          -0.02377109879989987, 
          0.06645810774768328, 
          0.00961627197916687, 
          -0.04331431097457321
        ], 
        [
          0.010249770811943528, 
          0.03611360141919613, 
          0.11033279164818934, 
          -0.11050425807377086, 
          0.05116613013281788, 
          -0.15047025235989392, 
          0.018539544060141806, 
          -0.041386200052026624, 
          0.026039343661867498, 
          -0.04671261606201726
        ], 
        [
          0.017534224656871118, 
          0.01755375569144553, 
          2.9469581202097855e-06, 
          1.9746013012563542e-83, 
          -4.454379046581611e-63, 
          8.325602543168284e-88, 
          -4.043263577731795e-34, 
          -0.01720044234433719, 
          0.017338760720290843, 
          0.01915494349778412
        ], 
        [
          -0.12288735106700911, 
          -0.11267263425826991, 
          -0.05783528830452219, 
          0.12012503878093425, 
          -0.10873791233643451, 
          0.05555738245781446, 
          -0.06890750990196448, 
          0.04178793793549168, 
          -0.11392353329565559, 
          -0.17475005815959602
        ], 
        [
          -1.3394183156007782e-78, 
          -0.14293825191960238, 
          -0.09908832726958532, 
          1.4916174015852186e-63, 
          -0.020197840717794412, 
          -0.01667642220259818, 
          -0.1940164968567297, 
          0.09710809789251232, 
          -0.11221427823209146, 
          -0.04940938246389265
        ], 
        [
          0.07781862860109477, 
          -0.05700575230223609, 
          -0.04456590512745681, 
          0.07397192041749079, 
          0.03908222076313144, 
          -0.08397108298264605, 
          0.0014005067813096792, 
          -0.01956386367401238, 
          0.05385802626967167, 
          -0.0625801327253666
        ], 
        [
          0.06346337641018307, 
          0.006441327799740214, 
          0.04693476415874892, 
          -9.867600810306695e-87, 
          0.0563237473085453, 
          0.07086018368785038, 
          0.09095581785692654, 
          -1.1849343891417651e-73, 
          0.06283280523499463, 
          -7.52226148580147e-75
        ], 
        [
          3.4960766052394364e-86, 
          3.021873442409598e-83, 
          5.822120039190519e-85, 
          1.1668592856828396e-86, 
          7.38155911560051e-84, 
          -6.612644655416763e-86, 
          2.3970866546244615e-75, 
          -5.622206758455861e-78, 
          -2.3428789579462292e-83, 
          -4.362506057714952e-77
        ], 
        [
          0.06554868767101192, 
          0.1240916778766261, 
          0.08610069732854256, 
          -0.1092063917021175, 
          0.10234789283538198, 
          0.12976325423789584, 
          6.880703022875983e-87, 
          -0.06136800463776124, 
          7.779506342043676e-17, 
          4.175901428028684e-84
        ], 
        [
          0.005663886935816928, 
          -0.01672246973770544, 
          -0.047601024415987715, 
          -0.035542134263173764, 
          0.0032975808503710306, 
          0.21409260622788162, 
          -0.41526342459774285, 
          -0.33945041552333105, 
          0.026895065500958163, 
          -0.011547760760225173
        ], 
        [
          -0.01889664503290323, 
          0.10396909075277035, 
          -0.004949319777582358, 
          -0.08008035645870673, 
          -0.0014858404087209987, 
          -0.06321801936668411, 
          -0.10013355891461148, 
          -0.07855879394884786, 
          -0.0012103886490993283, 
          0.08338755986798897
        ], 
        [
          0.01254298009188953, 
          0.011375666086159265, 
          2.9303737210106804e-15, 
          -0.011099438532709578, 
          0.0091514350206669, 
          4.4309883249097936e-85, 
          0.019694753606232115, 
          -0.007998877972373761, 
          4.038900774732322e-10, 
          0.007663411003897797
        ], 
        [
          0.14972681234117535, 
          0.11079757525383527, 
          0.09188427907731411, 
          -0.147063884802279, 
          0.11622009637007706, 
          0.13203929489819008, 
          -0.021363863496191394, 
          -0.10016460418462445, 
          0.11317789095422395, 
          0.1542908966964182
        ], 
        [
          0.11189965165073527, 
          0.07077343778055159, 
          0.07170598254917783, 
          -0.05407463237719903, 
          0.016592541755432344, 
          0.04886355968749388, 
          0.03122096075272641, 
          -0.037758680770826475, 
          0.12771159302752302, 
          -0.03281330811389013
        ], 
        [
          -0.04916148053227046, 
          0.0757717695189082, 
          -0.10412968339679944, 
          0.0577881385443239, 
          -0.0840902398293971, 
          -0.10575731393283301, 
          0.05752211631711018, 
          0.04057547670998227, 
          -0.057567639325605637, 
          0.022723281460969386
        ], 
        [
          -0.04113699146679266, 
          -0.03623241335841448, 
          -0.0357664967008126, 
          0.04471852480407024, 
          -0.0422760246687319, 
          -0.0283971386980405, 
          7.535040172641784e-85, 
          0.035571984644391354, 
          -0.04656618225519454, 
          7.880530291582518e-80
        ], 
        [
          -0.24853986488107363, 
          0.1435503534571331, 
          -0.12117816747133339, 
          0.2799219693257764, 
          -0.22458016349811455, 
          -0.14454262156418962, 
          -0.09262402330160138, 
          0.08532364268559935, 
          -0.11454706395661343, 
          0.12017790275446666
        ], 
        [
          -0.13304036376077838, 
          -0.149335322612209, 
          -0.08006278061355318, 
          0.17356134329893005, 
          -0.1575954349092126, 
          -0.019820696141852556, 
          -0.10149335014334336, 
          0.12120785023841361, 
          -0.13923187599022369, 
          0.1400240079151064
        ], 
        [
          -2.3892596688742638e-85, 
          2.2727779947359422e-85, 
          -5.218638764831091e-85, 
          -8.952771882905796e-83, 
          -1.1672615180672004e-85, 
          -3.242661535443716e-86, 
          -3.399228963540166e-76, 
          -1.987957926250832e-85, 
          3.1684511134968087e-86, 
          -4.430125697650359e-86
        ], 
        [
          -0.027307497063501992, 
          0.0891960034281485, 
          -0.012783971862060189, 
          0.09591802449831803, 
          0.003705532944955284, 
          0.06489693116419866, 
          0.11924356851371429, 
          0.009934046115343941, 
          -0.01763473807389244, 
          0.05375888313710168
        ], 
        [
          0.0991254067350698, 
          -0.13842800592194054, 
          -0.15361842496769557, 
          -0.1673908470739553, 
          0.0395412783559392, 
          -0.060674359451084625, 
          -0.08569271311778141, 
          -0.12218132389935729, 
          -0.07382521738785977, 
          0.14109545247911784
        ], 
        [
          -1.6072591332063118e-87, 
          6.670245632652328e-85, 
          -1.624808640041986e-85, 
          -5.155877557708297e-87, 
          1.4223453944470738e-85, 
          1.5564252165323654e-85, 
          -2.3027177262938085e-86, 
          -2.3352972385087333e-85, 
          -1.3113514037733872e-86, 
          -8.739982619799447e-86
        ], 
        [
          0.054960834195704494, 
          0.13596041442407303, 
          0.20185467283815547, 
          -0.2530877562748813, 
          0.14402774420822412, 
          0.24619924526896933, 
          -0.03973949545525829, 
          -0.19332033895718953, 
          -0.10530529861282147, 
          0.012476871638270045
        ], 
        [
          0.0657708590867208, 
          0.11673297337902783, 
          0.029247217753373585, 
          0.13098382323623486, 
          -0.06288024953549363, 
          -0.10723152184849742, 
          0.13164416267042867, 
          -0.02573100226984244, 
          -0.11032389630352048, 
          -0.058113944790156184
        ], 
        [
          -0.043349071369644596, 
          0.02836029993803797, 
          0.025191936150850375, 
          0.03877768703243449, 
          -0.042790250597394365, 
          0.06368208719789781, 
          -0.05761168836927697, 
          0.02702760273668223, 
          -0.08664698870984072, 
          -0.05102761992212092
        ], 
        [
          -0.12652430653639124, 
          -2.138917541615194e-09, 
          -3.730070512938367e-86, 
          0.1115318850191327, 
          -0.10184031913323792, 
          -1.4893746777441528e-84, 
          -0.15993039353560176, 
          0.0864515385501568, 
          -0.11163112580921755, 
          -0.1473947037106951
        ], 
        [
          -0.09067510263368263, 
          -0.052597266438526066, 
          -6.350282490130888e-13, 
          0.09158892480636623, 
          -0.0693065573146616, 
          -6.3625980071250954e-58, 
          -0.13194217046617243, 
          0.06377168573877405, 
          -1.4943270597623942e-22, 
          -0.123176226862366
        ], 
        [
          0.04650906052680418, 
          0.04504716287169623, 
          8.837763643061691e-16, 
          -0.04243014967811483, 
          0.03751742618587349, 
          4.53562827028151e-79, 
          0.05570459506650621, 
          -0.03232916923712778, 
          3.659756553317954e-12, 
          0.0537581985217277
        ], 
        [
          -0.1275884215920849, 
          -0.11507938505398059, 
          -3.9912376981975235e-19, 
          0.11122438041941651, 
          -0.1019880476750511, 
          6.007250063276484e-78, 
          -0.16326125091898266, 
          0.08517006812278462, 
          -2.890980082735334e-26, 
          -0.050154292721760946
        ], 
        [
          0.012544600353578446, 
          0.011375019281372772, 
          4.858950136865084e-15, 
          -0.009984494415150697, 
          0.009124001979315215, 
          9.288812843059341e-86, 
          0.019182339705385697, 
          -0.007925248324766402, 
          6.305218219951489e-10, 
          0.007663546839978392
        ], 
        [
          -0.016177010357888516, 
          -0.019235211679584197, 
          -1.2734074635441742e-06, 
          0.01782258424026462, 
          -0.016303791150603236, 
          -1.1238031092400772e-25, 
          -0.023231441750908872, 
          0.014256747765890601, 
          7.162698293176537e-58, 
          -7.165575158621369e-62
        ], 
        [
          -0.04804966437452961, 
          -0.0017087770401893983, 
          -0.11657506325213256, 
          0.0619372239607768, 
          -0.033673703579269, 
          0.03450708446814128, 
          -0.0416690490772754, 
          0.1398597785733739, 
          0.06762080205616293, 
          0.27597619783007776
        ], 
        [
          0.11639188019817709, 
          0.14775897980661873, 
          0.09191693942855726, 
          -0.061779107006663565, 
          0.08571187510601092, 
          0.1629483864503872, 
          0.058675042939389854, 
          0.01607167577084391, 
          0.13784125781046974, 
          0.0677583055125443
        ], 
        [
          0.06604493283465866, 
          0.06469569772003028, 
          -0.20898142271073814, 
          0.022487693640010187, 
          0.13978263915340783, 
          0.10447245932451579, 
          -0.24374712413281682, 
          0.0639852726372682, 
          0.19063666436260368, 
          -0.06481766327172159
        ], 
        [
          0.019569478225290954, 
          0.06431878155283828, 
          0.10758893244892537, 
          -0.04604248452048535, 
          0.06650579179937417, 
          0.10314966964671927, 
          -0.12877054998118698, 
          -0.05411772213136942, 
          0.05738447022255055, 
          -0.10269971473097386
        ], 
        [
          -0.10226978566569822, 
          -0.15045924255343066, 
          -0.20398022734437507, 
          0.2504853585168426, 
          -0.06359863344532513, 
          0.014569695665729967, 
          -0.062317367289528795, 
          0.205494366188688, 
          -0.3252479805521892, 
          0.13274882898770343
        ], 
        [
          -0.3139895431329451, 
          -0.019256331504888334, 
          0.1473117674899228, 
          -0.0691438934922074, 
          0.15086589363648042, 
          0.06365983834072049, 
          0.17888630433011302, 
          0.08015661192538882, 
          0.20406072172120926, 
          -0.12120918060417875
        ], 
        [
          0.08104516201821459, 
          0.1981206572085521, 
          0.2266120417103288, 
          -0.2173661181459398, 
          0.04629131605825305, 
          -0.1838258138871631, 
          0.12428563749542738, 
          -0.03322110480644177, 
          0.002724943803486343, 
          0.1806462993497217
        ], 
        [
          0.10727980752136446, 
          0.11593445031628428, 
          0.003352587608197378, 
          -0.14671047132386214, 
          0.027096254660853084, 
          0.1779934937247211, 
          -0.06638958276626132, 
          0.01067498642958038, 
          -0.013252718260260813, 
          0.17643474190188102
        ], 
        [
          -0.004324920179655545, 
          0.15182618642215703, 
          0.03466647115707467, 
          0.08292035841316257, 
          0.13927972792169177, 
          0.1585275477097409, 
          0.19538164553608686, 
          0.025785798969372952, 
          -0.0032086313395825643, 
          0.0824779480657393
        ], 
        [
          2.9779727215208844e-84, 
          -7.524350808761076e-86, 
          -4.664189198569459e-84, 
          -2.5049558494374886e-86, 
          4.9341557055053e-87, 
          9.791268413065973e-84, 
          4.071523360926602e-86, 
          -7.520745815003765e-87, 
          -1.5003442190966213e-85, 
          1.2008625659388041e-82
        ], 
        [
          0.06977286664424465, 
          -0.21707319450101165, 
          -0.09962442224465938, 
          0.2077434680030372, 
          -3.3796951932101016e-05, 
          -0.17491685970515247, 
          0.014691874806548747, 
          -0.01961950110698435, 
          0.3499711680463629, 
          -0.09621312660307269
        ], 
        [
          -0.0625097235559359, 
          -0.1518863870245227, 
          -0.20628791017185566, 
          0.1982155837344265, 
          -0.15630014415010549, 
          -0.06378767667353398, 
          -0.0019661124969583502, 
          0.06773097103801475, 
          0.10420009908307935, 
          -0.0682334109230198
        ], 
        [
          -0.0449662547126155, 
          -0.031378338420257425, 
          -0.10302130971953082, 
          0.05480514400882984, 
          -0.06562260918318907, 
          -0.07795972401266664, 
          -0.007759913608158922, 
          0.056146325399298994, 
          -0.0841103451442933, 
          0.02166759593687375
        ], 
        [
          -0.1446040704643009, 
          0.12633565703321167, 
          -0.4359414480546362, 
          -0.0874314559664655, 
          -0.06544183614602819, 
          -0.04469771102917459, 
          0.0916125381858832, 
          -0.029354179615416545, 
          0.00230607086881378, 
          -0.2319324749808731
        ], 
        [
          0.21346108046408457, 
          -0.31029683253142754, 
          -0.024035179040469087, 
          -0.2116027929639457, 
          -0.3227081394562849, 
          -0.2757282436696759, 
          0.03226497089066358, 
          -0.1612475834201821, 
          -0.29448334771645546, 
          -0.3537472284287096
        ], 
        [
          -0.09563282790136057, 
          0.06620398223655913, 
          -0.04127881465874568, 
          -0.08025157229155674, 
          0.07285213417599304, 
          0.11023776136476193, 
          0.11166375762532622, 
          -0.0247990034011562, 
          0.0005274565363562659, 
          -0.05813518781821434
        ], 
        [
          0.10805215385977306, 
          -0.0351881615891277, 
          -0.036544936665441126, 
          0.16920694558886862, 
          -0.02233503744632064, 
          -0.23583966007531285, 
          0.13249901198483638, 
          -0.1556133427444661, 
          0.02265916882900358, 
          0.00275812546499253
        ], 
        [
          0.052264376482651934, 
          0.0012317566228457182, 
          0.013497952200644836, 
          0.06592624181594343, 
          -0.16705051277603206, 
          0.04355874051410888, 
          0.009901233016698641, 
          -0.05639929663656624, 
          -0.05447410570150542, 
          -0.06568969984417733
        ], 
        [
          0.00328163850740165, 
          -0.03829803756284343, 
          0.0025700431625781243, 
          -0.0030096162486827247, 
          0.03315939279526567, 
          0.0032856518731633794, 
          -0.014097487002290009, 
          -0.0026485566422190165, 
          -0.022559098469927628, 
          1.5143853571290576e-84
        ], 
        [
          5.522078713925973e-60, 
          1.9275381257817595e-16, 
          2.2077211090172133e-86, 
          -1.88428908745634e-86, 
          1.0547389198080916e-12, 
          4.694130318864782e-85, 
          0.07171669358730409, 
          -2.8291526191394644e-86, 
          -3.1112024032763825e-43, 
          -1.536375632267266e-86
        ], 
        [
          -0.09650414593577801, 
          -0.029364613943585943, 
          -0.01369579783108501, 
          0.02633208056262372, 
          -0.10081879909233696, 
          0.055198283339347516, 
          0.015625776959314143, 
          0.019069461236235583, 
          -0.07631848418132046, 
          0.10132925838220128
        ], 
        [
          0.01730901841823238, 
          0.016008959761632448, 
          0.010682702687692456, 
          -0.035211057485533576, 
          5.251031831375094e-21, 
          -7.772829000700635e-86, 
          -6.525288121200465e-40, 
          -0.006831928385228153, 
          -0.03924236776837396, 
          0.021107202102325223
        ], 
        [
          1.2321932647609866e-85, 
          -3.0841044022779e-86, 
          -2.505181371884342e-85, 
          -2.022092525222765e-85, 
          9.264623653589685e-87, 
          1.8916160141588255e-85, 
          -2.7579068059228913e-86, 
          -9.339702170450008e-87, 
          -6.323816982914568e-86, 
          2.085074874355273e-85
        ], 
        [
          -0.08672129922109538, 
          0.019306421372288732, 
          -0.014926905290281966, 
          -0.009121881035256234, 
          -0.152902504791769, 
          0.02500266526535223, 
          0.043751775449045134, 
          6.794777597694698e-10, 
          -0.17655313599189898, 
          -0.09470170941360577
        ], 
        [
          -0.31346012326990036, 
          0.04638321872656169, 
          -0.04864782351258494, 
          0.03818811714875432, 
          -0.036664006292650285, 
          0.08066513983830556, 
          -0.018530201983868906, 
          0.03708149113048825, 
          0.13470073708005884, 
          -0.04468374776653598
        ], 
        [
          0.12498274801534265, 
          0.12020118234905229, 
          0.08185419918705318, 
          -0.09050364731729106, 
          1.6887750867890677e-76, 
          -1.6138417966230422e-87, 
          0.12341597872846138, 
          -0.06532597516189857, 
          0.00201073550658373, 
          0.14944662155810612
        ], 
        [
          -5.064471501266405e-86, 
          -3.071816425976229e-81, 
          -1.156549020120763e-85, 
          8.691204253523466e-82, 
          2.0765887837019696e-86, 
          -8.73245712893963e-84, 
          -1.031098076117833e-85, 
          -1.4355567478488907e-86, 
          3.046085347130839e-84, 
          -5.083274738383718e-82
        ], 
        [
          -0.09099465427692195, 
          -0.15094657162105332, 
          -0.04543227414817549, 
          4.367313668612429e-87, 
          -0.14368596698121736, 
          -0.13104896856702472, 
          -0.09310350860179142, 
          -5.191003842625985e-73, 
          -0.026148654422477758, 
          -0.057822963579385225
        ], 
        [
          -0.10357529058113694, 
          -0.1005830682966744, 
          -0.09735126915594064, 
          0.16196418601263038, 
          -0.12912294549065084, 
          -0.09918026043090408, 
          -0.10299515186644258, 
          0.12099370808484212, 
          -0.09277050501173432, 
          -1.1822046991579055e-06
        ], 
        [
          2.1215146892223245e-77, 
          1.0191859201757646e-84, 
          2.2718869917899475e-86, 
          1.566815768626889e-83, 
          4.4319943182448136e-86, 
          3.6728208620567006e-76, 
          -7.13799461334493e-82, 
          5.143647144609138e-86, 
          -2.858619445318888e-87, 
          -9.653198403359769e-87
        ], 
        [
          -9.754786404126156e-87, 
          -3.857390671258074e-86, 
          9.03077257382837e-87, 
          4.588496245723676e-84, 
          7.643978182633625e-87, 
          -6.957706900862862e-86, 
          -6.282892509155039e-85, 
          4.188218109835716e-78, 
          -6.238085480786031e-84, 
          1.2100693122845813e-82
        ], 
        [
          -0.043176583406330016, 
          -0.06437441129494244, 
          -0.0035740296089796543, 
          0.2974365076961948, 
          -0.07069624060089767, 
          -0.028486599429224053, 
          -0.1780798885343936, 
          1.928675814635673e-11, 
          -0.10447181407135778, 
          -0.04497958099081298
        ], 
        [
          0.13460861053749312, 
          -0.12771479989351386, 
          0.005226123442670094, 
          -0.07494193810285066, 
          0.08942330278223307, 
          0.0689212980456777, 
          0.08317258242092276, 
          0.05102228847309296, 
          0.01695000099341083, 
          0.05338201551329179
        ], 
        [
          -6.470022592434361e-13, 
          -0.15160761883904994, 
          -0.0001169514820255208, 
          0.1381590331347613, 
          1.391492029846625e-76, 
          1.3557046894936998e-86, 
          -0.20404750019738285, 
          0.01236975268132487, 
          -5.927855672683341e-11, 
          -0.18632970381004849
        ], 
        [
          1.6632552427294808e-85, 
          -7.474659307917518e-82, 
          -2.7742604678350987e-86, 
          8.771665741808664e-75, 
          7.296891489659868e-86, 
          1.172788313841207e-86, 
          1.3947529609653274e-81, 
          -2.8744628452754175e-77, 
          1.4571682488386744e-86, 
          2.5801620708399385e-85
        ], 
        [
          0.055859406164450065, 
          -0.014832956718346325, 
          -0.019966620940158997, 
          0.1339852838734559, 
          0.00887374062761381, 
          -0.016328687211926186, 
          0.017127530125631066, 
          5.219139970812087e-24, 
          -0.0498589817904089, 
          -0.10153541408832556
        ], 
        [
          0.04629576134904525, 
          0.053117537082554366, 
          0.0322531935340498, 
          -0.04069525115941651, 
          0.06561589263309602, 
          -0.0572026578693637, 
          -0.05422576902097219, 
          -0.03076414497591209, 
          0.10977620389733787, 
          7.884289869928494e-44
        ], 
        [
          9.465853667684802e-87, 
          1.3779157196149487e-80, 
          7.573242286848076e-85, 
          5.084946991530827e-84, 
          5.120712436711986e-86, 
          -1.2661706245507125e-86, 
          1.8600285245703424e-86, 
          1.1906146404873038e-86, 
          -1.2371569963720701e-85, 
          -3.865075661132567e-86
        ], 
        [
          -3.1882466662644918e-86, 
          -2.552549361037786e-86, 
          -6.429877714157734e-87, 
          7.825797600198192e-86, 
          -2.4051298255253802e-85, 
          -6.976606274292818e-84, 
          1.2625981514315833e-76, 
          3.1279406542308417e-86, 
          -1.3426367872328605e-86, 
          9.087702509151205e-86
        ], 
        [
          -0.03295277754434928, 
          -0.10487531814103543, 
          -0.0336189030363398, 
          0.06001138891810616, 
          -0.04369424313531416, 
          -0.05931331738522433, 
          0.025740041211082615, 
          -0.05061881963711533, 
          0.054212132489237314, 
          9.411998677673894e-86
        ], 
        [
          0.10984932560400738, 
          0.10577719901437432, 
          0.07452952422978781, 
          -0.09672035288459606, 
          0.0009349411702312796, 
          0.11066792228332066, 
          -1.3209699139663916e-86, 
          -0.07377523802188536, 
          0.09601149893156749, 
          6.834741399813785e-86
        ], 
        [
          2.6457591123575767e-84, 
          2.3997990366587866e-86, 
          -6.792050522085755e-86, 
          -1.0540459454156362e-77, 
          -6.61722406708449e-85, 
          -2.803219719474547e-81, 
          2.3544145456424517e-85, 
          -3.778092392223076e-82, 
          2.777789284288484e-82, 
          2.9551524677275436e-82
        ], 
        [
          7.005150485295321e-86, 
          -1.3849733810304181e-81, 
          2.107318968342637e-82, 
          -8.028194540661415e-77, 
          -2.3955795101405054e-85, 
          -1.8167932482454898e-84, 
          -7.387363771747181e-76, 
          2.104304472569151e-86, 
          2.44907521196962e-87, 
          -2.2256144635034077e-86
        ], 
        [
          0.00561074227571327, 
          0.1214041267632592, 
          -0.0008865097019443153, 
          -0.11095188759172835, 
          0.07769679805281716, 
          0.09658248603778906, 
          -0.03344159048523225, 
          0.019576391126087007, 
          -3.1211460975885887e-22, 
          0.022424295753986797
        ], 
        [
          -0.024244791088556282, 
          -0.014914420522619279, 
          -0.030156408425506476, 
          0.03656385920833836, 
          -0.0263849830567467, 
          -0.042096241277707655, 
          0.007969968805142951, 
          0.030100408633893124, 
          -0.03834255234995937, 
          -2.8402309860075363e-71
        ], 
        [
          0.014985011855174165, 
          0.055436362254513045, 
          0.0398434117256562, 
          -0.04996926904414937, 
          0.046977301085938984, 
          0.05762269530940275, 
          -2.831911094842986e-82, 
          -0.03964281842605188, 
          -0.006920011807728534, 
          -1.0535321885248004e-86
        ], 
        [
          -0.00016732327707619764, 
          -0.007663538845272957, 
          -0.004551329906159426, 
          0.006655359832055238, 
          -0.005836272186570176, 
          -0.008117193721505806, 
          -3.554648412611715e-86, 
          0.004459531925359449, 
          -0.006766835533483586, 
          -5.281007106850989e-88
        ], 
        [
          0.17498227171039504, 
          0.11748649969027646, 
          0.019597392037707214, 
          -0.006343423963718355, 
          0.05283379528549685, 
          0.19726542142053266, 
          0.025936267756195, 
          0.05149225208916418, 
          0.095698537210932, 
          0.0013514741297305237
        ], 
        [
          0.04072018837072483, 
          0.011403251306120948, 
          -0.09309480526150316, 
          -0.38983994068611233, 
          0.02203526741868151, 
          0.29287097380263977, 
          -0.04226358405424547, 
          -0.32198530982664086, 
          -0.08161733635499885, 
          -0.32590332127756366
        ], 
        [
          0.06678952128073865, 
          0.03133102790624242, 
          -0.01581178912567216, 
          -0.06285737874192684, 
          0.17220492882183372, 
          -0.00480330042731297, 
          0.29422779181758285, 
          0.029419679563999105, 
          0.04315512608781357, 
          -0.17691125466518212
        ], 
        [
          -0.1750954540332041, 
          -0.05470789244528605, 
          0.09518719463833322, 
          -0.05066367648612498, 
          -0.11480520358919713, 
          0.06576329715877414, 
          -0.0045533639326399734, 
          -0.019800251052766466, 
          -0.012347661442082046, 
          -0.10162794512103193
        ], 
        [
          0.14888361854460425, 
          -0.08194623680175694, 
          -0.04055010976890608, 
          -0.07152631240654736, 
          0.07016102133626417, 
          0.05196074330053438, 
          0.03522422844676665, 
          0.29080107103236524, 
          0.04278328936576616, 
          0.07996556667002652
        ], 
        [
          0.044967705392389014, 
          -0.058311919926637694, 
          0.10614573062317671, 
          0.0732141976097164, 
          0.06755193294804573, 
          0.12158473697743075, 
          0.2247013394246777, 
          -0.0031420141067869966, 
          0.07858230912627158, 
          0.255478592058534
        ], 
        [
          -0.11558895506036576, 
          -0.0815353330855118, 
          -0.11740285830896734, 
          -0.12157716537778161, 
          -0.17204071725118872, 
          -0.2718636898894684, 
          -0.06403489971490375, 
          0.05507657223802508, 
          0.06120159824395382, 
          0.17052991682537863
        ], 
        [
          -0.01070709648210132, 
          -0.013455792897841103, 
          -0.09896103241376199, 
          0.16254138327159762, 
          0.015175856354531461, 
          0.1029312900334118, 
          -0.10274901731874983, 
          0.17949656425853897, 
          -0.07917603984627022, 
          -0.34628459408774886
        ], 
        [
          -7.118858466808517e-86, 
          2.6538294621940697e-83, 
          -2.758266798197265e-85, 
          -4.630612190624848e-75, 
          -5.680273068742799e-80, 
          6.691408802566891e-78, 
          3.768795140154155e-86, 
          -2.9975513723509096e-86, 
          -3.0100225217318445e-85, 
          2.786055410040764e-82
        ], 
        [
          0.11919648445069375, 
          0.10705149688577294, 
          3.418506605606766e-10, 
          -0.10937752617102238, 
          1.3319395200980748e-82, 
          -1.1312036869706922e-24, 
          0.14178937512649253, 
          -0.07898863412531473, 
          -1.0313908674927903e-84, 
          -0.03444218347974968
        ], 
        [
          4.001923277096702e-80, 
          -5.794716118232336e-14, 
          5.0358750500148725e-85, 
          8.669802657432439e-87, 
          -3.780299800852187e-84, 
          -1.0831125860285835e-85, 
          1.4601799833353353e-79, 
          -6.463629489455162e-85, 
          -2.7853305375946452e-83, 
          -2.7325092719247145e-86
        ], 
        [
          5.222587574231348e-86, 
          -6.237264334375632e-85, 
          4.513372094355216e-87, 
          -4.02257162000429e-86, 
          -9.037888356425882e-85, 
          -1.127387126256972e-84, 
          4.3502167154664904e-86, 
          1.621072856868639e-83, 
          2.3430875654714048e-86, 
          5.352383098402537e-85
        ], 
        [
          -0.10572685365955448, 
          -0.05197709538175693, 
          0.010061857509929368, 
          -0.17359553614797477, 
          -0.06400416993546854, 
          -0.1405279336400579, 
          0.12247554877212576, 
          -0.10420309860698476, 
          0.05809631100206336, 
          -0.13066086365539856
        ], 
        [
          0.10872277637169184, 
          0.13502898808277858, 
          0.08793991882937761, 
          -0.09090680351452242, 
          0.09551598466569296, 
          0.1106565504820899, 
          0.05356664144157817, 
          -0.06220772546243953, 
          -0.00608662981552422, 
          -0.02302499118920463
        ], 
        [
          0.11173917252890869, 
          0.13513656680403366, 
          0.026651211039382228, 
          0.002530804150797083, 
          -0.05716277264756198, 
          -0.04358017805926098, 
          0.008344327004254984, 
          0.02919622075306258, 
          0.08759295094714828, 
          0.2832072010451705
        ], 
        [
          0.04874169226651258, 
          0.11182364222984144, 
          -0.019581641584484676, 
          0.17876640036564997, 
          -0.04097209919111087, 
          0.08909776659597585, 
          -0.10163127161103505, 
          -0.05627504103736134, 
          -0.16751299257560398, 
          -0.03372541659285014
        ], 
        [
          -0.10113884123207886, 
          0.08655950561700307, 
          0.0018981894777951123, 
          -0.03258997116214376, 
          -0.033589281645689875, 
          0.06334157311342735, 
          0.1440251873707969, 
          -0.045357260158047114, 
          -0.10788992928975717, 
          -0.12160958522692594
        ], 
        [
          -0.0684256777301435, 
          -0.08297243498327192, 
          0.03826066001503777, 
          0.16345262066796434, 
          -0.16470323552044994, 
          0.17038318691606863, 
          -0.22156278760603526, 
          -0.07818301338388553, 
          -0.024305647192265065, 
          -0.2197735217098849
        ], 
        [
          0.049079540790619845, 
          0.14513426097350643, 
          0.12406039390224974, 
          -0.1238417440314236, 
          0.037729984963412164, 
          0.003046982652590863, 
          -0.07520887463630371, 
          -0.03592105302025022, 
          0.027505221101839825, 
          -0.14474893573747546
        ], 
        [
          -0.10715693304895942, 
          0.041011214189282705, 
          -0.02915727447876331, 
          0.11356077669692423, 
          -0.05428369615836332, 
          -0.12259420052363651, 
          -0.02757900048301925, 
          0.03519031807047693, 
          -0.07318757057282053, 
          0.06690030644385367
        ], 
        [
          5.875847742046416e-05, 
          0.03549129768466129, 
          -0.05637204733974337, 
          -0.03093592284289095, 
          0.030265310316416015, 
          -0.07156080740497116, 
          0.1091381656583061, 
          -0.002514910281222189, 
          -0.047733062448745325, 
          0.03247492814390808
        ], 
        [
          0.01612053556299073, 
          0.007095899978420485, 
          0.03250765911391075, 
          -0.040562064338854995, 
          0.07031635649365624, 
          0.03980375097273391, 
          0.06268620670665856, 
          -0.024807051962248167, 
          0.06344150853838158, 
          0.12085330786065397
        ], 
        [
          0.0020190815110697475, 
          0.1558501981545899, 
          0.11050415101662328, 
          -0.14432118998720447, 
          0.18232498714468712, 
          0.16370487753002094, 
          1.3567484223923992e-20, 
          -0.10763698339782501, 
          0.1404555598592568, 
          0.003049953660526503
        ], 
        [
          1.1977297341093315e-84, 
          -8.418296674734732e-86, 
          2.19363810577643e-78, 
          -1.0974947419791218e-80, 
          1.0481210001360826e-82, 
          -9.540555970130169e-86, 
          5.105933880677767e-87, 
          9.772483394745594e-87, 
          -3.889025187105494e-85, 
          -6.0563644004443664e-86
        ], 
        [
          0.023770742225100665, 
          0.023543060479524418, 
          0.005805699795989681, 
          0.013093697184888656, 
          0.019908549671785243, 
          -0.01572933919768104, 
          -0.019108623319152234, 
          0.010480885371381138, 
          0.007366199316953195, 
          0.027213553071106022
        ], 
        [
          -0.04113698767370614, 
          -0.036232460308217904, 
          -0.03576672975710387, 
          0.04471851438584486, 
          -0.04227562868431927, 
          -0.028397486660363597, 
          2.77429488337984e-86, 
          0.03557199488434367, 
          -0.04656617767728524, 
          -3.8273180347084886e-87
        ], 
        [
          3.619246753999188e-86, 
          2.560847128767874e-81, 
          1.5913341564191876e-84, 
          -9.827094493320037e-86, 
          2.785568749711604e-86, 
          -4.69989567206143e-78, 
          6.732455290657357e-86, 
          -9.839757285737213e-87, 
          -4.2294349637881725e-86, 
          -7.308410411131125e-86
        ], 
        [
          -5.939871091574347e-83, 
          1.0589795780024469e-79, 
          1.968442693315367e-85, 
          -3.492871539592114e-86, 
          -3.4809050850769834e-77, 
          2.288414700294363e-84, 
          4.261938246858327e-85, 
          4.0716421191128024e-86, 
          4.834028409714662e-86, 
          -1.0189519369540883e-83
        ], 
        [
          0.20316882779125872, 
          -0.050157422247915535, 
          -0.14499242970112633, 
          0.2088290470684349, 
          -0.039306517757464327, 
          -0.05431360750174468, 
          0.35117847430908633, 
          -0.1171583277024682, 
          0.1971423909508444, 
          -0.2902066815669431
        ], 
        [
          -0.08132640111722658, 
          -0.1474021811200314, 
          -0.021557966113011105, 
          0.08523362966621467, 
          -0.0487403313680539, 
          -0.06298283165876678, 
          -0.11127764317596414, 
          0.004539510404222701, 
          -0.07353743944262704, 
          -0.002911500639992721
        ], 
        [
          0.18043538027903153, 
          0.02462215547508204, 
          -0.05978311723564153, 
          -0.010390746473308954, 
          -0.042027378308348934, 
          -0.1720904905551656, 
          0.08134086862913611, 
          -0.007054787103631787, 
          0.17573530855887695, 
          -0.14340152012002166
        ], 
        [
          -3.1213711155251704e-87, 
          -0.03099439805704148, 
          -0.018581719431222454, 
          0.026775399041920805, 
          -0.023704058014300713, 
          -0.032856597837234186, 
          7.251500661300009e-86, 
          0.018269397698626698, 
          -0.027378234556694046, 
          -1.4054002496546604e-85
        ], 
        [
          0.10150305134760795, 
          0.07537771106943114, 
          0.075798810836124, 
          0.007194490617223678, 
          0.07439636598645925, 
          0.024985833842582877, 
          0.11687834145040162, 
          0.012929555188714017, 
          0.0821394292629327, 
          0.12277443563819312
        ], 
        [
          -0.13765498086645012, 
          -0.11453872507540712, 
          -0.010408434024966905, 
          0.12025356986885521, 
          -0.1092190783172782, 
          -0.1377422676418547, 
          -6.543164225332276e-84, 
          0.09163083881915082, 
          -0.10430794464766191, 
          -0.10160326619981623
        ], 
        [
          0.048619545615117846, 
          9.26000767206971e-09, 
          0.03472985324698898, 
          -0.04435917202802761, 
          0.03959677894718901, 
          0.04915883392285239, 
          4.178936208459697e-84, 
          -0.03319048528400885, 
          0.04493161354882596, 
          3.1471140617896592e-86
        ], 
        [
          -0.004104187537306002, 
          -0.0037586466192211405, 
          -0.0014915642437410375, 
          0.003019253473587869, 
          -0.001987975289775302, 
          -6.283303244761723e-79, 
          -0.006773926931139662, 
          0.0014240858926294162, 
          -0.0029930966564962248, 
          -0.005708206349415962
        ], 
        [
          -5.57636327140177e-87, 
          -3.7791708648601864e-83, 
          3.770121180528944e-86, 
          1.960472170864378e-79, 
          -1.1535889836303538e-85, 
          5.638326654457137e-80, 
          -6.477681807408985e-84, 
          -3.4741015312475723e-84, 
          2.0939347602052545e-87, 
          1.1986391682282692e-85
        ], 
        [
          4.777912925394e-83, 
          6.680562912445615e-83, 
          -2.2790772376610488e-83, 
          1.5373512208132273e-86, 
          6.145572718825081e-83, 
          -5.826380321685596e-86, 
          1.9411110032859912e-85, 
          5.489282997673476e-84, 
          -7.715364214144303e-87, 
          -3.6045248780549406e-87
        ], 
        [
          -1.1922840871847606e-85, 
          3.8084934900066816e-84, 
          -1.0470222312486103e-87, 
          -2.174288303052225e-79, 
          1.6274447501245292e-79, 
          -1.5475714552905358e-86, 
          -8.970622337426373e-87, 
          5.937727565879331e-83, 
          -2.662674609387748e-86, 
          3.968195608324351e-84
        ], 
        [
          -7.154703336745911e-14, 
          1.464518770623097e-82, 
          1.0992700319622939e-14, 
          -6.894494322028124e-86, 
          7.786559740529089e-84, 
          8.024674694058683e-87, 
          1.4268182116518548e-86, 
          -6.481192406999963e-86, 
          4.916653706929117e-85, 
          -4.006669881204575e-75
        ], 
        [
          0.12379893000313082, 
          0.034466511542962604, 
          -0.10038094890753582, 
          -0.14990894102531577, 
          -0.0845476384897853, 
          -0.02521353435292563, 
          -0.10228179973836973, 
          0.15849921012194973, 
          0.1827493368972282, 
          0.13116122646882822
        ], 
        [
          0.05878158138949876, 
          -0.004620655336205468, 
          -0.08588177180828468, 
          -0.00505454066391237, 
          0.1334496671431029, 
          -0.06662211533432168, 
          -0.05358159958541326, 
          -0.004768274967775069, 
          0.08521278235219491, 
          0.08951309381618819
        ], 
        [
          0.14010770267310563, 
          -0.15688714453080096, 
          0.028629964059074208, 
          0.017973986730243897, 
          0.07060119362044683, 
          0.24275934821451256, 
          -0.27131739166049634, 
          -0.13691628119194585, 
          -0.09772516597617015, 
          0.057616338720788966
        ], 
        [
          0.016518246079973365, 
          0.06508565746473517, 
          0.14202942200600757, 
          -0.20273055718002855, 
          0.1841083608744411, 
          0.021925805253375917, 
          0.3497106084940741, 
          -0.16260229183675098, 
          0.20099918382677026, 
          -0.15076903887876864
        ], 
        [
          0.11661833370108028, 
          0.09861638670992197, 
          -0.0460441577949845, 
          -0.0467926126816242, 
          0.08416944520844111, 
          0.13462953851230208, 
          0.2135646984690739, 
          0.011039767066821372, 
          0.03258303496135719, 
          0.014574927396426017
        ], 
        [
          -0.17625820076086807, 
          -0.09274601726020865, 
          -0.27876616263023274, 
          -0.07694450681920889, 
          0.016926410265930416, 
          -0.16029758101586206, 
          -0.051822874439055165, 
          0.14578485062612964, 
          -0.032772136929818306, 
          0.04878398966216798
        ], 
        [
          0.17270860255628076, 
          -0.08347233500224771, 
          0.0404713863309659, 
          -0.0043492734255244515, 
          0.011301805761680689, 
          0.1164637726899986, 
          0.05304816375064301, 
          0.07049206759527699, 
          0.12880170999858176, 
          0.12265596580646734
        ], 
        [
          -0.17122386497911818, 
          -0.2991351257040903, 
          0.0005190583397715349, 
          0.18303324809483135, 
          -0.10376937064730435, 
          -0.09036968869070594, 
          -0.2212200666353942, 
          0.15520815242583924, 
          0.028749767122916704, 
          -0.012254831365267504
        ], 
        [
          1.6672332460415164e-80, 
          -1.08224645121476e-85, 
          -7.486271266333906e-85, 
          2.3200305547876734e-83, 
          1.793872837815123e-86, 
          -8.070824753942137e-76, 
          -4.63026343143712e-81, 
          1.0053599353854331e-86, 
          2.6112175587469655e-86, 
          1.4592995303174461e-80
        ], 
        [
          6.539349098254585e-87, 
          3.1156278905047755e-86, 
          5.42818237811979e-83, 
          -2.3236929040824805e-83, 
          7.032101400655039e-87, 
          1.0724791064596777e-84, 
          1.388967868616615e-86, 
          1.0704589914338842e-83, 
          -2.0672124576286504e-85, 
          2.192343471539486e-86
        ], 
        [
          2.722975140209354e-85, 
          1.254418257429976e-83, 
          6.74411120415404e-86, 
          -1.0590469221365036e-84, 
          -2.6917829514880542e-86, 
          -1.8259148567756716e-86, 
          1.1193021937299512e-80, 
          6.477602441187216e-85, 
          2.6220265526631984e-87, 
          6.702482070649599e-86
        ], 
        [
          -1.190548933733069e-83, 
          -8.233537999661246e-87, 
          7.0649837270024685e-84, 
          1.688955674393396e-84, 
          8.06811605967426e-87, 
          -2.7972919797006715e-88, 
          -2.4038260692762093e-87, 
          -3.4878149065577984e-85, 
          -1.1607913320095674e-81, 
          -7.662598401186564e-84
        ], 
        [
          0.20095706752074366, 
          -0.0867567184799953, 
          -0.007903026664180478, 
          -0.12097871895293881, 
          -0.07765820180371606, 
          -0.027723087073524524, 
          -0.033466275002004435, 
          -0.15190976024162783, 
          0.13393477227757508, 
          0.27691298770465617
        ], 
        [
          0.07561044047612663, 
          -0.18641628294482804, 
          0.15372070772826588, 
          -0.011524452002802757, 
          -0.09553496827644345, 
          0.3298884907305579, 
          0.009573487246210363, 
          -0.13802276263190133, 
          0.1225274296211281, 
          -0.1625201148800822
        ], 
        [
          -0.15253216885893744, 
          -0.059432229172552684, 
          0.13171773069422454, 
          -0.009664419343257673, 
          0.037293780446902194, 
          0.21939630720649864, 
          0.029424823172968014, 
          0.03744325400795466, 
          -0.09902603450460291, 
          -0.1670542750686822
        ], 
        [
          0.3974046727832731, 
          -0.26962990889334004, 
          0.027421889688451016, 
          -0.11329531723813559, 
          -0.30570197216017325, 
          0.025384982785147305, 
          0.04719087279055008, 
          -0.08345570746280809, 
          -0.03314729812347213, 
          0.04592131749648015
        ], 
        [
          0.22478646787230824, 
          0.04918181541880515, 
          -0.06601243262089874, 
          -0.15244719628252942, 
          -0.15485020698060212, 
          -0.08193472467189375, 
          -0.11600659978282485, 
          0.05709595296550847, 
          0.3163078646602771, 
          0.19458027360737853
        ], 
        [
          0.025095004410498067, 
          -0.009731993687333839, 
          0.07353118889427242, 
          0.004130019005275515, 
          0.19448361107739523, 
          0.07525474164235686, 
          -0.1584272310158188, 
          -0.09198763207558952, 
          0.19239342008433621, 
          0.1358008731702199
        ], 
        [
          0.08401352427140682, 
          -0.07260619061785441, 
          -0.1834900795351718, 
          0.04233487841667718, 
          -0.0049601980605550825, 
          0.1371744356839572, 
          -0.310206080945849, 
          -0.14477705841568098, 
          -0.19436304386219336, 
          -0.06240750182915344
        ], 
        [
          -0.06155535229553129, 
          -0.11313700554275016, 
          -0.0005358270551050781, 
          -0.1579852497989488, 
          0.10626741367566252, 
          -0.05813339155238523, 
          0.3290585202067255, 
          0.023326326672903675, 
          -0.006230506206715786, 
          -0.20629070467317248
        ], 
        [
          -8.245634561075614e-81, 
          -1.2433471497073934e-79, 
          -4.520482628779041e-85, 
          8.928645439560277e-86, 
          1.1849648748583234e-83, 
          -6.188279473772189e-79, 
          -1.6267053204025193e-84, 
          4.579645383545873e-86, 
          -1.5639956534792598e-86, 
          1.7816325898033463e-85
        ], 
        [
          0.024948405310046554, 
          0.022479686279501022, 
          -2.0909696018540725e-27, 
          -0.01829572921590225, 
          3.1320860177219043e-87, 
          1.109053081214314e-46, 
          0.02502638487358602, 
          -0.01392607203672152, 
          1.2625717795188246e-86, 
          0.02667929783255398
        ], 
        [
          2.945935634343924e-17, 
          0.00639827630822792, 
          0.0044690366896943425, 
          -0.0056438884559583125, 
          0.005399328123221539, 
          0.006679561604156286, 
          7.591350808864436e-86, 
          -0.00448107113019857, 
          0.005995576626591581, 
          -2.3331976289183002e-86
        ], 
        [
          2.701105347224134e-86, 
          -1.1232337481644116e-86, 
          8.994570095553923e-80, 
          -1.2492100487808385e-82, 
          4.196383199184434e-84, 
          -2.1566730444750698e-82, 
          5.795075168312736e-76, 
          1.024174189641343e-81, 
          1.826663605546488e-86, 
          2.3695027955903936e-85
        ], 
        [
          1.422549554417001e-87, 
          3.299669754386476e-06, 
          3.2779197281202885e-86, 
          8.585490644540125e-87, 
          3.5260459591480464e-84, 
          -3.235575673112589e-85, 
          -1.12044715586103e-76, 
          -3.44654914418375e-82, 
          -6.638478080378237e-78, 
          -1.1318335232602505e-85
        ], 
        [
          -0.05288656824100694, 
          -0.05396218101684582, 
          -8.088248819722268e-67, 
          0.04874708888632238, 
          -3.100844843042301e-81, 
          -1.7068742423300787e-55, 
          -0.07233463542679103, 
          0.037760664915225194, 
          -3.674713113634826e-86, 
          -0.06598334586365306
        ], 
        [
          1.0110579852862565e-86, 
          -3.321692408020933e-82, 
          -3.2853222201448974e-83, 
          -1.38604190863382e-83, 
          -4.6181855366258675e-77, 
          3.229693320904541e-86, 
          6.237738673922152e-86, 
          3.084116138536578e-85, 
          -7.353746343978635e-86, 
          -2.8349317554499115e-86
        ], 
        [
          2.226510011928477e-16, 
          0.00639842417947686, 
          0.00446950305465196, 
          -0.005643899717303692, 
          0.005395359317120457, 
          0.006679683202340297, 
          1.8975347595497484e-80, 
          -0.0044726385920913015, 
          0.005995557453921049, 
          1.0925517899358089e-85
        ], 
        [
          -0.13603425387443638, 
          3.69503099506543e-28, 
          -1.9126551083829553e-82, 
          -5.016436114566109e-87, 
          -0.0162045616156515, 
          -0.0016183129396046948, 
          -0.08041147875132569, 
          0.0891701703768228, 
          -0.11252969787509515, 
          -0.09924906776045783
        ], 
        [
          0.023681314571893434, 
          0.03857411877855983, 
          8.619795674965815e-19, 
          -0.03546086903510908, 
          -1.3038120621152433e-85, 
          1.4581682881691542e-44, 
          0.03625502507633868, 
          -0.027986222019002825, 
          3.163925803296552e-86, 
          0.045337758211502426
        ], 
        [
          -5.483502364263103e-86, 
          -6.822725820906267e-84, 
          2.255536308331157e-87, 
          7.092470467702739e-75, 
          -1.727135004266279e-78, 
          9.596101533211236e-87, 
          1.3448006741886275e-84, 
          2.0246372433165153e-86, 
          -1.2172367467810302e-86, 
          -5.0422916018894995e-84
        ], 
        [
          2.73947345002792e-79, 
          3.311231133739682e-86, 
          -9.399293415661524e-87, 
          -1.7333875257655367e-84, 
          7.31947205002569e-86, 
          1.3334979587488696e-84, 
          -2.25124677290092e-86, 
          -6.506226831665585e-82, 
          -3.818750092366582e-86, 
          -2.717422734566575e-85
        ], 
        [
          0.01142569188319054, 
          -4.758420577651948e-26, 
          1.0456310267856332e-65, 
          -9.941084813208305e-77, 
          -0.012799060709168341, 
          -0.00194637671386551, 
          0.011579531182496196, 
          -0.010012819069688164, 
          0.01150616346143944, 
          0.011621951815495097
        ], 
        [
          -0.05149411691153802, 
          -0.07474413817876567, 
          -1.1815100026302328e-35, 
          0.06620841429723809, 
          -2.3872972380306147e-86, 
          -7.299999415371211e-68, 
          -0.09513975906145189, 
          0.050060718780393074, 
          6.866564637832876e-87, 
          -0.08275261236375156
        ], 
        [
          5.18472218843227e-83, 
          1.78618062171289e-85, 
          8.921428616947702e-87, 
          -3.028715107313245e-80, 
          2.133472636648385e-85, 
          9.347504782403622e-83, 
          1.8506728210375843e-85, 
          -2.2116704051402245e-86, 
          2.552777419232122e-85, 
          4.1478366571619303e-85
        ], 
        [
          7.071955540848633e-85, 
          -9.055205095363339e-83, 
          2.336918693727752e-86, 
          -6.903365294590204e-81, 
          -4.2017827681302325e-87, 
          5.331494584380667e-86, 
          -8.922822385235046e-87, 
          1.928275955947536e-86, 
          -1.6370227809644637e-85, 
          -7.672112940928496e-86
        ], 
        [
          -3.750711519586348e-87, 
          -2.681234400858953e-83, 
          5.97699119979682e-84, 
          -1.1263720045829772e-86, 
          -1.5886306479964569e-86, 
          5.660094213701084e-85, 
          -8.38944423538291e-86, 
          2.207093115717174e-87, 
          4.737413032200022e-87, 
          3.9568495376367245e-85
        ], 
        [
          -0.04277269580201672, 
          -0.0517219431764013, 
          -1.804318845898406e-43, 
          0.045845005716480564, 
          1.560727535931347e-82, 
          -1.3429741432083617e-63, 
          -0.05781392752231681, 
          0.036578434226751076, 
          -1.776067949064888e-86, 
          -0.04714085049705411
        ], 
        [
          -6.9719852336313875e-09, 
          2.4943437071146635e-51, 
          0.0003732096872441369, 
          -5.184553053860254e-06, 
          0.0007797811839061426, 
          0.002043871760467676, 
          2.242619846125603e-75, 
          8.154738477571773e-05, 
          6.308778341291595e-38, 
          1.210789842187731e-84
        ], 
        [
          -4.248757802327058e-83, 
          -6.868381763013408e-86, 
          -1.907303586351482e-86, 
          2.106322500122435e-76, 
          -4.346222435201554e-87, 
          1.5715550159804514e-86, 
          1.740176007922875e-87, 
          -4.247371520097147e-86, 
          -3.623133500592183e-86, 
          6.622744832836946e-87
        ], 
        [
          5.394555276212715e-87, 
          2.4542431905698655e-82, 
          5.370407848964509e-87, 
          1.0881209323574197e-81, 
          2.3587016969087987e-78, 
          1.0005738926420594e-86, 
          7.90540476046106e-76, 
          2.7945127669646308e-86, 
          3.0296907918890525e-85, 
          -3.787093030583787e-86
        ], 
        [
          0.11361881472227907, 
          0.10635998116263566, 
          2.1948753557730841e-10, 
          -0.10562936225534503, 
          2.604119754968635e-76, 
          1.3081587828267872e-25, 
          0.136845613161711, 
          -0.0774320255614813, 
          -7.898559205902132e-86, 
          -0.03444218318230332
        ], 
        [
          -4.1960791460400444e-88, 
          3.2034890050698346e-86, 
          -6.885981075782278e-86, 
          8.719212557619196e-88, 
          -6.852481224085333e-87, 
          -2.815070520806333e-12, 
          -1.0558743581619298e-77, 
          2.5477427352411068e-82, 
          -2.637543215221839e-75, 
          -6.107175445145653e-84
        ], 
        [
          -3.3016773897573223e-85, 
          1.1675284878166213e-87, 
          3.661523903500904e-86, 
          -2.115449720134486e-86, 
          6.041941867830036e-87, 
          -6.73121107418922e-84, 
          4.3130309914282037e-79, 
          3.7601417127191997e-82, 
          1.5023050921006943e-86, 
          -3.7969108928700835e-86
        ], 
        [
          5.420706011831992e-85, 
          2.607516929249111e-86, 
          1.7582296452882547e-85, 
          -1.3179496144164163e-82, 
          -4.4445441049893726e-76, 
          -3.4440815436528777e-85, 
          -9.229420980427714e-87, 
          -1.5122914766946039e-86, 
          -3.5847836798335734e-30, 
          2.328462823846884e-75
        ], 
        [
          0.18937732901643722, 
          0.17965403069719402, 
          0.135023118657987, 
          -0.16643470986785253, 
          7.71394985106486e-86, 
          1.1456137827721581e-34, 
          0.23291339481834133, 
          -0.1324343302250536, 
          2.8736774954281023e-80, 
          -7.6605298679812405e-87
        ], 
        [
          4.871556383396147e-88, 
          -1.560587195056086e-79, 
          2.506730886993908e-84, 
          2.145089286242993e-30, 
          1.0198279441029818e-81, 
          3.309107812568935e-85, 
          2.1925715410183718e-86, 
          2.0154180712678942e-84, 
          -6.425945759889988e-81, 
          -1.21278361568123e-86
        ], 
        [
          2.630457845118995e-83, 
          -1.229270495682221e-84, 
          2.0358522745530703e-83, 
          1.7154517714504278e-85, 
          2.5515534284285193e-86, 
          3.6854047838358755e-84, 
          -7.613920110262835e-78, 
          4.939258777955542e-86, 
          9.84154575780919e-87, 
          1.1038615196604362e-85
        ], 
        [
          -0.04075146127248015, 
          0.1237803511063349, 
          0.055801659022831705, 
          0.18141513633588405, 
          -0.10411712933021829, 
          0.1037505530394353, 
          0.013454888256917045, 
          -0.21728527764178823, 
          -0.29759220848474693, 
          0.03125297167541978
        ], 
        [
          -0.09301336537756513, 
          -0.25637255858409597, 
          -0.07107087508651841, 
          -0.020719119792637287, 
          -0.08235109083192214, 
          -0.02874533263813109, 
          0.031653840531719955, 
          -0.03638609454215949, 
          -0.034484225993944656, 
          0.005217123355219119
        ], 
        [
          0.0527129743353845, 
          0.10967473548862111, 
          0.01731312474002246, 
          -0.10180903988048405, 
          0.13412102102284734, 
          -0.013266863425007568, 
          -0.12266782027220449, 
          -0.03119145795783045, 
          0.04796705087074112, 
          -5.14890508695718e-05
        ], 
        [
          -0.06513209237823248, 
          -0.030021603809182867, 
          -0.021328370633327393, 
          0.03225071135974155, 
          -0.03047639653852041, 
          -0.01691785277055168, 
          -0.0242895539389695, 
          0.026196223690251787, 
          -0.030765244216410224, 
          1.2588543157377355e-76
        ], 
        [
          0.0161198162281625, 
          0.03304137196839948, 
          0.05308472148319429, 
          0.06185284818795393, 
          -0.1605802128457572, 
          0.1011083858096182, 
          0.21761383380091517, 
          -0.018034723127048322, 
          -0.12339542624883824, 
          -0.010311600999152801
        ], 
        [
          0.05617325552230547, 
          -0.1088689287426493, 
          -0.019702949219211677, 
          0.0005352159886221441, 
          -0.002066706784754403, 
          -0.09462647960786714, 
          0.03268279229458745, 
          0.013748731745678205, 
          0.05721161230290448, 
          -0.09805763898830801
        ], 
        [
          0.05634152850217047, 
          0.07197483423148109, 
          0.004940606936277535, 
          -0.062386486123509305, 
          0.13269083373415272, 
          -0.1280669789236713, 
          -1.5852788790810018e-85, 
          0.0006063449596972275, 
          0.07642122344054021, 
          -0.00026541933019569823
        ], 
        [
          -1.681195637840051e-85, 
          -4.3538388168759844e-80, 
          5.372559157817779e-87, 
          3.0619422296672278e-86, 
          4.166520945763569e-85, 
          -7.521249634239645e-85, 
          3.699864538162809e-82, 
          1.4300438667268105e-81, 
          1.350989430872002e-85, 
          1.2871411812466262e-86
        ], 
        [
          0.05562920696337913, 
          -0.4046747398341561, 
          0.17471572187709675, 
          0.25612235020952673, 
          0.11487335005106779, 
          0.2359370465904431, 
          -0.07385544368504016, 
          -0.0853851134085154, 
          -0.1873551554787999, 
          0.12399691440618764
        ], 
        [
          -0.03135160185417818, 
          -0.08140971715820484, 
          -0.08416925570188628, 
          0.00479129030320502, 
          -0.004298862505890791, 
          -0.08131883758836879, 
          0.0666577497592205, 
          0.02600923528101641, 
          -0.007488138172127902, 
          0.049953346301533245
        ], 
        [
          -0.14839457509766354, 
          0.052267461663548495, 
          -0.03206520322470907, 
          0.07663433634601431, 
          0.015741847483136527, 
          0.18579762843198316, 
          -0.2713934409776899, 
          0.04294952751331273, 
          0.07734430045046542, 
          -0.12898601984888053
        ], 
        [
          0.0435478015028582, 
          0.09488079827483283, 
          0.06574549313390786, 
          -0.08500843264347976, 
          0.0784875013438653, 
          0.09907391548407325, 
          -5.476618360329852e-86, 
          -0.06524717023866507, 
          0.0870976502285907, 
          1.0690431471730285e-85
        ], 
        [
          0.18877495864495022, 
          -0.051604538755984725, 
          0.15438771755619093, 
          -0.02498063734246156, 
          0.09194016391722697, 
          0.01960828685251844, 
          0.17076381530866458, 
          0.06506809854036699, 
          0.1087729291035842, 
          0.10516019114245419
        ], 
        [
          -0.020152550757873682, 
          -0.029159106431344475, 
          -0.0207654158445211, 
          0.0258012307741848, 
          -0.0022774653824768542, 
          -0.012404469104974763, 
          -0.021829121403876346, 
          0.020766381844805403, 
          -0.005933752769770814, 
          -6.400289735055045e-85
        ], 
        [
          0.10482897555091066, 
          0.07300054942715847, 
          0.05299139529086262, 
          -0.06653590608004757, 
          0.06295846898387403, 
          0.0758150803499297, 
          -1.8586560901713374e-84, 
          -0.05262095826544905, 
          0.06729571169380236, 
          -7.906293876528594e-84
        ], 
        [
          1.1545734660837493e-06, 
          0.07230682854142402, 
          0.049608586706067895, 
          -0.06481910102610858, 
          0.05934224665809042, 
          0.07578901242690933, 
          -1.5702534065917034e-79, 
          -0.049189684060872554, 
          0.06590689636951891, 
          6.40537634861059e-86
        ], 
        [
          0.02716520377939557, 
          0.022273007715785068, 
          -0.20260614745213945, 
          0.3010565758992077, 
          0.081239097562182, 
          -0.11165323785176506, 
          0.09072124332662276, 
          0.1344037036929629, 
          -0.20889425361733596, 
          0.16894874961196957
        ], 
        [
          0.01397005392716292, 
          -0.16085762451463334, 
          -0.331182592866757, 
          0.06785797408275066, 
          -0.039115395135443015, 
          -0.2590939981257374, 
          0.14405069305754672, 
          0.16641011120558985, 
          -0.10486333657620903, 
          0.20786807187914375
        ], 
        [
          9.166255467814993e-08, 
          0.05788599307617394, 
          -0.1029470231847388, 
          0.010642799938252775, 
          -0.07120399336321082, 
          0.005211315327953997, 
          0.038870916284430304, 
          0.03394260606114847, 
          0.018177989651281513, 
          0.20521745197112776
        ], 
        [
          -6.3799634165908185e-86, 
          -2.9596499487547908e-86, 
          -1.2193154987275434e-84, 
          -3.014016618497766e-87, 
          1.4583281010261875e-84, 
          3.4980931638838304e-82, 
          1.3018152405055373e-85, 
          1.3444845973243684e-85, 
          -8.24661761316797e-84, 
          1.5432221208528266e-85
        ], 
        [
          0.06164123302954907, 
          -0.35529167760492714, 
          0.013378635457820408, 
          -0.28396438890605336, 
          0.1866463554671544, 
          0.09740274674472799, 
          -0.02469347151154468, 
          -0.21822513706785793, 
          0.12693655128465156, 
          -0.056946285349059385
        ], 
        [
          0.05902313233477583, 
          0.14053510235659572, 
          -0.023048958714515434, 
          0.16512506001836433, 
          0.07050988290558985, 
          -0.012507729709012275, 
          -0.06982648627916317, 
          0.2119303921702057, 
          0.10499094359374053, 
          0.3736698263499649
        ], 
        [
          0.05133395756912497, 
          -0.18394738949830786, 
          -0.06173739437543149, 
          -0.17058134972689445, 
          0.09713634774768176, 
          -0.08122590498533627, 
          0.032456000774546405, 
          0.006270024175020381, 
          -0.03901301112237923, 
          0.006884144785830277
        ], 
        [
          0.02124742968383644, 
          0.05063916444074885, 
          0.052854533337764326, 
          -0.04633214751515428, 
          0.07315941126185665, 
          -0.015292940361245722, 
          -0.08714302164323565, 
          0.013767331424036675, 
          -0.10600364411189425, 
          0.013504575290275883
        ], 
        [
          -0.035200672851623364, 
          -0.03421150387932423, 
          -0.023655553747843082, 
          5.0642722199993964e-85, 
          -0.028312939688271685, 
          -1.184286324823336e-08, 
          -0.029309461901223546, 
          -6.199508587991539e-87, 
          -0.03141772500773899, 
          -0.04118567374779805
        ], 
        [
          -0.044852971651627487, 
          0.07752900354209223, 
          0.04288632707187381, 
          0.056100941965905024, 
          0.020897601362632797, 
          -0.11628191893508963, 
          0.061101751299203165, 
          -0.09142732223024358, 
          0.10472144467767808, 
          0.11419239558236656
        ], 
        [
          -0.09536665666982823, 
          0.20911494886131385, 
          0.030521363736511625, 
          -0.08686915725152275, 
          -0.07265846129505807, 
          0.2888199623985426, 
          -0.04159697121415542, 
          -0.0821777204425289, 
          -0.04364622599585904, 
          -0.13194799356015424
        ], 
        [
          0.1986948775596538, 
          0.016495777756133936, 
          0.07091579842376348, 
          0.13331306355374958, 
          0.11449274081911494, 
          0.221896167186233, 
          -0.07235165686593753, 
          -0.07905179197615185, 
          0.2024507100893896, 
          -0.03242823165975526
        ], 
        [
          5.065698219721521e-80, 
          2.525575017466831e-77, 
          6.560728529558411e-86, 
          6.0793324328536164e-86, 
          8.235663139121515e-87, 
          7.410306858040717e-86, 
          -1.7234767301239488e-86, 
          -1.9120970834721188e-87, 
          1.020344597825002e-86, 
          -4.353707167800143e-86
        ], 
        [
          -0.1521160881527932, 
          -0.02133778232244207, 
          -0.06014174155566709, 
          0.01020638254590141, 
          -0.07290116655630118, 
          -0.1103516412478363, 
          -0.059898734809759005, 
          -0.08092247625878583, 
          -0.15002441484840667, 
          -0.07138531598857245
        ], 
        [
          -0.027852650205036814, 
          -0.07373222620873855, 
          0.03580206939934945, 
          -0.002651587254020863, 
          -0.01563685348079769, 
          0.07542742648404134, 
          0.03391719563192869, 
          -0.05040921512560825, 
          0.03791200848182301, 
          0.14143125061482967
        ], 
        [
          -1.3664439960437869e-17, 
          -0.05040985108532876, 
          -0.022212802718664163, 
          0.028263515817985082, 
          -0.016085905823570775, 
          -0.10110898407535256, 
          -0.04151629539748878, 
          0.02239110802059146, 
          -0.03199417906175752, 
          -0.020740193385035098
        ], 
        [
          2.3973531167911432e-86, 
          -1.0233509389955928e-75, 
          5.344222070967185e-85, 
          -5.712733467380315e-17, 
          -8.33367257916774e-82, 
          -1.7709374381302487e-82, 
          2.2457430132210353e-86, 
          6.2363056848481746e-86, 
          2.7640546406352545e-83, 
          -9.104564389752704e-87
        ], 
        [
          0.1669308784589366, 
          0.08042123244516926, 
          0.05084770798558413, 
          -0.09218736196500708, 
          0.003409847841964575, 
          -3.111600595186716e-47, 
          0.13759876440184446, 
          -0.00011554469674973929, 
          -0.021720763609633854, 
          -0.0695962112734061
        ], 
        [
          -0.016094261546453627, 
          -0.0820175520729464, 
          -0.0018396971006198783, 
          -0.01826094981817494, 
          -0.012074969543445354, 
          0.021443128772098762, 
          0.054307038294619456, 
          0.07049935853492692, 
          -0.02310199670694035, 
          -0.03383383777787479
        ], 
        [
          -0.08857402180710114, 
          -0.06547824673336611, 
          -0.00650763224854778, 
          0.026093650049775208, 
          0.008280465827666603, 
          -0.009290660691132376, 
          -0.03304573917996693, 
          0.0035126714494826262, 
          -0.021508340235447013, 
          0.07706536160750854
        ], 
        [
          -4.094788818668397e-86, 
          1.300469014567839e-85, 
          -5.280232771159955e-87, 
          9.23326861707742e-79, 
          -1.3634688081227813e-86, 
          1.1205193701804863e-86, 
          -1.9556430333403252e-77, 
          1.7568419564909715e-87, 
          4.605195574972028e-86, 
          8.448787215745258e-85
        ], 
        [
          -9.983416350206982e-87, 
          1.2695830202402585e-85, 
          1.6961431557411313e-81, 
          1.0078782461221054e-86, 
          2.816629055698187e-86, 
          1.260177610088851e-86, 
          7.342829854196754e-86, 
          1.21352819368596e-86, 
          3.220271948357806e-85, 
          -1.258684598319768e-84
        ], 
        [
          -2.1660935189746248e-86, 
          5.376502795794423e-86, 
          -3.4719575954613744e-83, 
          1.3240965621056375e-85, 
          -1.582892097489855e-86, 
          -4.858105023529446e-85, 
          -3.367936459980245e-85, 
          2.0173093675377263e-85, 
          9.528372144747339e-88, 
          7.711164287252646e-87
        ], 
        [
          -8.413031834910117e-86, 
          1.9719650643094108e-85, 
          -9.22934732702212e-79, 
          2.015894734255846e-86, 
          -2.498522527087938e-86, 
          1.0937037770721905e-83, 
          8.258031249160015e-87, 
          -8.628553745954078e-82, 
          -6.628238274038313e-86, 
          1.0200440898057457e-85
        ], 
        [
          5.938136782805855e-87, 
          1.2515002879879843e-85, 
          -1.404881607435485e-85, 
          -1.3270144395973008e-84, 
          -5.0183033648051166e-85, 
          1.3963299408593971e-74, 
          3.8577969214743835e-85, 
          -1.9094584198249196e-87, 
          -4.22885152463612e-87, 
          2.0913192283304154e-78
        ], 
        [
          0.16881480267601284, 
          0.08016274131031778, 
          0.06386100439053555, 
          -0.1140807472323939, 
          0.16757395657966534, 
          0.2014589348411589, 
          -0.05180867898688799, 
          -0.042192016532820696, 
          0.14288125692231515, 
          -0.05231727830072038
        ], 
        [
          -0.006199875959577217, 
          0.1813873248954942, 
          0.06046822784745945, 
          0.02156076562221886, 
          0.02702933318790015, 
          0.14885909313067236, 
          0.24956176731913707, 
          0.05802747348697251, 
          0.14454908342925502, 
          0.2632054783604879
        ], 
        [
          -0.0598906051195331, 
          0.25016096841050967, 
          -0.1008739357965613, 
          -0.2734002206067864, 
          0.09971837232074282, 
          0.19384878838383984, 
          0.3281792248031655, 
          -0.005917370509121948, 
          -0.10692529049888193, 
          -0.06825769419396298
        ], 
        [
          -0.4710218814045017, 
          0.27159946095216025, 
          0.12579496295251755, 
          -0.2884159125462887, 
          0.0664045838973981, 
          -0.007003075660785096, 
          0.1938729919542373, 
          0.05147562377094878, 
          0.02527407799424211, 
          -0.0018364223218523515
        ], 
        [
          0.14591883919804194, 
          -0.09374515667220575, 
          0.07396379782065374, 
          -0.08411724713358026, 
          -0.058325667903084626, 
          0.23065177788280097, 
          -0.11429928155039942, 
          -0.11828718217385299, 
          -0.11138643156629995, 
          -0.057664298174761944
        ], 
        [
          -0.006424383055542838, 
          0.1792758144413753, 
          0.03471148103553738, 
          0.026541398074117498, 
          0.16613424122574713, 
          0.1538988774791835, 
          -0.19263494100518702, 
          -0.06271855837754056, 
          0.12781448126030565, 
          -0.1380602695962225
        ], 
        [
          -0.2235720334550737, 
          -0.08610978300335632, 
          0.07296766139599424, 
          0.14382500235832468, 
          -0.042031896978332275, 
          0.1349504204788, 
          -0.2029087404093911, 
          -0.011650322105856058, 
          0.023884578781168567, 
          -0.13212199127623184
        ], 
        [
          -0.14694201853142932, 
          0.19661641809935357, 
          0.001173388321001466, 
          0.1645575329050136, 
          -0.017855540121398547, 
          -0.10998623685123297, 
          0.19840982890689948, 
          -0.17495417728086998, 
          -0.08984269353399987, 
          0.1220646672200359
        ], 
        [
          1.5540201472478506e-86, 
          3.825978519932096e-86, 
          -1.511270084495392e-87, 
          1.626414831552812e-84, 
          -1.4040935981243967e-86, 
          1.9239518794234296e-86, 
          5.84809028767165e-86, 
          -1.0606613926806813e-86, 
          -2.7190514971714145e-84, 
          1.6910417038348296e-86
        ], 
        [
          -0.016157407575681758, 
          0.0032557570815919317, 
          -0.017515339539389472, 
          0.05239711885906563, 
          -0.02148796969083988, 
          0.004827052676186781, 
          0.01984296851652091, 
          0.017288423927270542, 
          -0.013031809113305669, 
          0.02219828753067029
        ], 
        [
          -1.0266438602510877e-87, 
          4.374938614159218e-76, 
          -1.7313761572884988e-84, 
          -4.544796551299402e-85, 
          3.177979943438312e-86, 
          3.245472224373696e-79, 
          2.881194956163247e-86, 
          4.8910171520488246e-86, 
          5.093610638249915e-83, 
          6.455980401309078e-86
        ], 
        [
          -5.8364646082342735e-87, 
          -2.665677175983336e-86, 
          1.5370105809107928e-86, 
          6.773652689807505e-84, 
          8.315944004996157e-86, 
          5.971752554148911e-86, 
          -1.908138451690049e-86, 
          5.256198799142701e-86, 
          1.243633729109881e-86, 
          -4.241646436044192e-82
        ], 
        [
          -0.1901522579010172, 
          0.1380716432673286, 
          0.06788866086682126, 
          -0.015617363255166975, 
          -0.013863056680788867, 
          -0.01726611121243633, 
          -0.041639774346720636, 
          -0.008867688828464889, 
          -0.07835032068472582, 
          0.03573190935760272
        ], 
        [
          0.016833467908918414, 
          0.001170957806856063, 
          -0.23457337755325863, 
          0.15885517990469086, 
          0.0881747285395892, 
          -0.15904258538547056, 
          0.22627183793698832, 
          -0.08690043385345832, 
          0.0003737477794580958, 
          0.11417416245518469
        ], 
        [
          -0.5015195636528181, 
          0.17968736222916556, 
          -0.006038913243883966, 
          0.1211383785974002, 
          0.16383174516594046, 
          0.18382955959889685, 
          0.12492315274407496, 
          0.15873240414146564, 
          -0.12928462047293796, 
          -0.07987624144041872
        ], 
        [
          0.22864505592676215, 
          0.06208762558782248, 
          0.08020349530226256, 
          0.18205048302625595, 
          0.023283640809761953, 
          -0.03241517874309896, 
          0.0023576972553224157, 
          0.18564951775760405, 
          -0.16236475537592338, 
          0.16447901613872087
        ], 
        [
          0.19929117645302327, 
          -0.05109440138865869, 
          0.0598175638355526, 
          -0.06435531438393238, 
          -0.05065475713739973, 
          -0.24906659994341637, 
          -0.21233430234805784, 
          0.12242047010888811, 
          -0.10111114129663185, 
          0.029030145347969147
        ], 
        [
          0.1871390792577717, 
          -0.28371487853988414, 
          0.14422223878485646, 
          -0.07884497020374263, 
          -0.05905568197313938, 
          -0.16457109867656303, 
          -0.39439977181650193, 
          -0.02330956951515474, 
          0.09367032010158319, 
          -0.1801249460113863
        ], 
        [
          0.06490373209235392, 
          -0.005609193310326552, 
          -0.06059375799023503, 
          0.03955539160358926, 
          0.0047220160395050545, 
          0.10979794000406327, 
          -0.026742729826791812, 
          0.050535866192934535, 
          -0.11011173445720114, 
          -0.08381941034371075
        ], 
        [
          0.16476640187226166, 
          -0.050905948119332106, 
          0.042890415002104144, 
          -0.1092235471031882, 
          0.09406848530833997, 
          -0.007856757223011117, 
          -0.13989618253716496, 
          -0.24635969158610385, 
          0.12278982761110342, 
          0.009511407120521783
        ], 
        [
          0.12625516790928884, 
          0.04061976708165828, 
          0.12216688325974469, 
          0.09773971991116531, 
          -0.07378132892850807, 
          0.1447759777521578, 
          0.0016500177719868745, 
          0.10799616123076346, 
          0.08058491909748042, 
          -0.1713620211882479
        ], 
        [
          -0.05935189725690645, 
          -0.1971506069540524, 
          0.07340552714682665, 
          0.041047097141488055, 
          -0.03602467935853168, 
          -0.15044259446732033, 
          0.2081596362026522, 
          -0.25324159346406777, 
          0.07870609357670133, 
          0.0681461501474192
        ], 
        [
          0.06623530280819019, 
          0.06715831594594676, 
          0.009028903213710637, 
          0.10360097955523785, 
          0.1383005569189125, 
          -0.27828749315472656, 
          0.09445098022863724, 
          0.006708885929283148, 
          0.14415692325470322, 
          -0.03676978095752296
        ], 
        [
          0.03335810211391587, 
          -0.3165209135752682, 
          -0.03494843008306206, 
          0.0637198242730587, 
          -0.16772228848822457, 
          0.09364964480009713, 
          0.23167824931329029, 
          0.1189289488556133, 
          -0.1596831399989473, 
          -0.16971917993935096
        ], 
        [
          -0.34164834851239245, 
          0.1040880448543437, 
          0.0280837761946782, 
          0.2268372416042957, 
          -0.18545016527999816, 
          -0.15134422987730492, 
          -0.025172041835300876, 
          0.15810470150282555, 
          -0.1016279925066038, 
          0.030931469239406945
        ], 
        [
          0.19354961738774715, 
          -0.08695198371828812, 
          0.07706794396421195, 
          0.16322708445625386, 
          0.2982502106517593, 
          -0.2523490385267597, 
          -0.06693178590915355, 
          -0.08833954892558621, 
          0.15617741391046797, 
          0.2817675247512357
        ], 
        [
          0.1875355759768554, 
          0.006706691838255323, 
          0.010037299652681984, 
          0.14671022055099836, 
          0.09296264400267791, 
          0.12016199554296687, 
          -0.12572804687117806, 
          0.005130837414164254, 
          0.08068173331647875, 
          -0.057598994393322694
        ], 
        [
          0.1415529928639334, 
          0.12444736787366913, 
          -0.1372477912049975, 
          0.15362137633543452, 
          -0.06520670254738783, 
          0.22158283885976382, 
          0.03745900978226379, 
          0.01638075919637839, 
          0.17572785370676597, 
          -0.14756856217567751
        ], 
        [
          -0.06399086250579228, 
          0.07760509227938414, 
          0.04681856519942691, 
          -0.06150617290188764, 
          -0.0383806788118307, 
          -0.11137883352848241, 
          0.1843540673844273, 
          -0.1368714894809531, 
          -0.091117602962504, 
          0.10634199196661036
        ], 
        [
          0.01777869913941988, 
          -0.06374745594453309, 
          -0.08049367831009, 
          0.00016041021252895775, 
          0.01652463923643563, 
          0.057086474066578054, 
          -0.010152483930444363, 
          0.08180750626606124, 
          -0.025651207118325966, 
          -0.19406873543510145
        ], 
        [
          6.941244991834057e-86, 
          -0.07189085384269453, 
          5.1913410430882214e-86, 
          4.7484919591232516e-79, 
          -3.089459846586103e-85, 
          -0.16023258044299354, 
          -0.1707090536689816, 
          -2.366047627408693e-87, 
          -2.721601283387974e-82, 
          -4.830575409708857e-85
        ], 
        [
          -0.18690667340362854, 
          -0.26628864881792447, 
          -0.14526600825055885, 
          0.1471878580701273, 
          -0.11854884735590135, 
          -0.19900596416106728, 
          -0.018699586044027165, 
          0.18817387004792271, 
          -0.1463621540196207, 
          -0.1743956592222959
        ], 
        [
          -2.0933037177264516e-86, 
          -2.044786904262363e-86, 
          -2.6612975038866088e-83, 
          6.777334189351668e-86, 
          -2.0008506994987388e-83, 
          1.8754450527298106e-87, 
          -2.024861555347373e-86, 
          -9.766155754586849e-87, 
          -1.1511107432480549e-86, 
          -7.63021147772684e-87
        ], 
        [
          1.3937140029596257e-82, 
          1.12423961279291e-75, 
          1.466112375323288e-87, 
          -2.5982928034614124e-79, 
          -1.3133943957725134e-83, 
          -6.343148656768606e-87, 
          2.185165181157959e-85, 
          -1.429698434645467e-82, 
          4.8575999552569914e-83, 
          2.6557745398740604e-79
        ], 
        [
          -0.05837000244199078, 
          0.021679882322178285, 
          -0.22568755908389454, 
          0.018405975578066888, 
          0.02629976474288853, 
          -0.06203940685591912, 
          0.029359975681381066, 
          0.04842732291864666, 
          0.07886714739319407, 
          0.006814385454665133
        ], 
        [
          -0.05209345758525388, 
          0.07921572642442191, 
          0.15395434946768807, 
          0.004875960479876378, 
          0.20122240806844405, 
          0.14377435150293535, 
          -0.31657765845703517, 
          0.0552355483022921, 
          -0.037905855157635227, 
          0.18349463368101013
        ], 
        [
          0.1288117799159096, 
          -0.0509529316806131, 
          -0.02207972759912185, 
          0.11832227902860527, 
          0.0889321115248773, 
          0.07609811739683936, 
          -0.09221379202773677, 
          0.15398766256954072, 
          0.09523379191304092, 
          -0.18491028195361114
        ], 
        [
          0.06735893625427897, 
          -0.030026587129756324, 
          0.01619181114158991, 
          0.16142788196158614, 
          -0.10575009160273174, 
          0.24045272351000266, 
          -0.24725911250636104, 
          0.1621842600039144, 
          0.16678533740326365, 
          0.16446292625273448
        ], 
        [
          -0.294999976377734, 
          -0.0009054195639089827, 
          -0.2479617354627692, 
          0.0761739489352314, 
          -0.11980768843497573, 
          0.0007309775662554775, 
          0.15104184427666592, 
          0.26689041913772366, 
          -0.12018380693954643, 
          -0.2460099256953254
        ], 
        [
          0.06451981444194262, 
          -0.04096423391469729, 
          -0.037312883757002195, 
          0.020770464440097985, 
          -0.005240805710016215, 
          0.034981589282578086, 
          -0.009383878395030349, 
          0.05854079663403517, 
          -0.14268440456307835, 
          0.08842370057262314
        ], 
        [
          -0.25536768775478824, 
          -0.007010377489549519, 
          -0.02116920393968701, 
          -0.0794986684567945, 
          0.10199253125627256, 
          0.28686370583054654, 
          0.04887431084974057, 
          -0.20022865062639184, 
          -0.16263446602956722, 
          -0.21463234903937084
        ], 
        [
          -0.011281624625620714, 
          0.027163083588534573, 
          -0.16530945981717263, 
          0.12092869891545723, 
          -0.10956299817996239, 
          -0.19828410465896915, 
          0.25471968820699925, 
          0.031595624213350555, 
          0.13000618632964892, 
          0.13726931239466886
        ], 
        [
          0.0850356392031894, 
          0.12212362920524833, 
          0.12221553339861685, 
          0.004055009144051496, 
          -0.13067275369440404, 
          -0.024219504769388188, 
          0.0958456216049481, 
          -0.08308626844369746, 
          -0.04352485642799428, 
          0.08881853377644752
        ], 
        [
          0.01638508532965582, 
          -0.004185169766529489, 
          0.06702981681249065, 
          -0.06358483148646321, 
          0.12037818238451461, 
          0.1003352784121102, 
          0.09943223410579488, 
          -0.05113873110681499, 
          0.04554282363306708, 
          -0.0036161385740715833
        ], 
        [
          0.1243419874305913, 
          0.15179120213421218, 
          -0.0627434224188549, 
          -0.2572125789084513, 
          0.09187484606225477, 
          0.10711404505564047, 
          -0.16648419358663616, 
          0.06891270292145721, 
          -0.09874433238525548, 
          -0.04513127540654263
        ], 
        [
          0.18671642403529742, 
          -0.09104807180250174, 
          -0.0875234527551171, 
          0.08866378500172148, 
          -0.12273326749494513, 
          0.09685471584428959, 
          -0.02580087312595078, 
          0.33689796082120377, 
          0.13189863720678086, 
          0.03045107848418184
        ], 
        [
          0.15423946083662118, 
          -0.06053757425412053, 
          -0.08053387234153922, 
          0.08274189499921296, 
          0.076099938944531, 
          -0.13503412787747063, 
          -0.21192596068058286, 
          0.0025400060145548543, 
          0.2036804623687735, 
          0.172900291793111
        ], 
        [
          0.1059739046397448, 
          -0.08061103170023573, 
          -0.03878398573330185, 
          -0.258857884440766, 
          0.04010484460120028, 
          0.04303540731802254, 
          -0.21555697384053804, 
          0.06240832855399146, 
          0.012406870516275644, 
          -0.019417335029271413
        ], 
        [
          -0.13190717775456978, 
          -0.06330087263977326, 
          0.06274001704123919, 
          0.1652042320387216, 
          0.20993234170904834, 
          0.13378672659606133, 
          0.05206807986461229, 
          -0.03777081576281733, 
          -0.21928443309198276, 
          -0.34048875689977415
        ], 
        [
          0.011360075870994949, 
          0.15592664391254912, 
          -0.08071428988522769, 
          0.09993955889677493, 
          0.07935929996648572, 
          -0.009925181025077754, 
          0.2500650622259432, 
          -0.18572983368175053, 
          0.09349561854440816, 
          0.035881757013627114
        ], 
        [
          -0.12708945264490862, 
          0.12033188709760666, 
          -0.04713010676832262, 
          0.1335194956474518, 
          -0.038384251261214045, 
          0.14821609853881282, 
          0.13500603567984928, 
          -0.16130988177938024, 
          0.05150820289018419, 
          -0.009723355028652242
        ], 
        [
          0.10709181659442833, 
          0.20667477152408734, 
          0.13769705259927004, 
          -0.07024938097569855, 
          0.030373243891391653, 
          0.22623853780192993, 
          -0.00872378442294257, 
          -0.13178078788690092, 
          -0.05822036704267054, 
          0.06115168275098506
        ], 
        [
          -0.07108047413451092, 
          -0.046987760927495334, 
          0.006250724342817096, 
          -0.05825127011641082, 
          0.08792575872113044, 
          -0.015414956171810535, 
          -0.07028793319301843, 
          -0.17657687537998362, 
          -0.07922083751615246, 
          0.09869594872766954
        ], 
        [
          0.01195697328509509, 
          0.15476488762801668, 
          -2.2725074577713386e-05, 
          -0.01899869767785304, 
          -0.009275372075780483, 
          -0.051814083665246785, 
          0.17727782326595518, 
          -0.11338928062137339, 
          -0.04642049089988275, 
          0.019114572732305858
        ], 
        [
          0.19593293534446357, 
          0.11696529338963597, 
          -0.02537743948494656, 
          0.31906560972560305, 
          0.04138686944235817, 
          -0.051517205181017094, 
          -0.44600143299332445, 
          0.02669316967231487, 
          0.12063881880531868, 
          -0.048404413651407456
        ], 
        [
          -0.2241139118454115, 
          -0.07979777637454145, 
          0.2022535116837067, 
          -0.43043375649948806, 
          -0.2543610516808896, 
          -0.28403180555609325, 
          -0.19023459648119928, 
          -0.12726543095942144, 
          -0.27542611204673695, 
          0.2603105610650222
        ], 
        [
          0.06133290376072361, 
          -0.12553029910262645, 
          -0.055738881726070805, 
          0.040498650557744764, 
          -0.03272801613216348, 
          0.4140118052478666, 
          -0.2084103382872452, 
          0.009264767092109093, 
          -0.15829476214921057, 
          0.06983822128968782
        ], 
        [
          0.162981564680671, 
          0.06482016904631338, 
          -0.24000032598113116, 
          -0.21662015074188332, 
          0.04987045801846968, 
          0.1337607394947772, 
          -0.05286740103011561, 
          -0.11455318693902498, 
          -0.12592926310996846, 
          0.13265945309968355
        ], 
        [
          0.1736936614404312, 
          -0.03297036995986911, 
          -0.11536712957985878, 
          0.00027000970490884135, 
          0.11681943585326798, 
          0.08192266017376641, 
          -0.17840066061067525, 
          0.09960766665630848, 
          0.05213612656135051, 
          0.021359460066085717
        ], 
        [
          -0.20317007214408375, 
          0.25392617996417105, 
          0.41855227537614315, 
          -0.12353961619713014, 
          -0.4384924154580151, 
          0.17291696178038216, 
          0.04918278675230774, 
          -0.23754260624537155, 
          -0.2606623341951346, 
          -0.06592360211871047
        ], 
        [
          0.1920686925580507, 
          0.23234504044660392, 
          -0.2216744950045292, 
          0.130326745979364, 
          0.11557746110302904, 
          -0.3557118482664128, 
          0.3504669129926863, 
          -0.061706412175049026, 
          0.17238905226747328, 
          -0.006187101580890278
        ], 
        [
          -0.1793618439354732, 
          0.023468413580729618, 
          0.05001267911713721, 
          -0.0878481090053179, 
          -0.3264416581823658, 
          -0.18555329635018242, 
          -0.06087223517520671, 
          -0.1334788697442917, 
          -0.24857104387973192, 
          0.1316152209242044
        ], 
        [
          -0.15694203137711218, 
          -0.4588641866986206, 
          0.14873561571942379, 
          0.17276502382067144, 
          -0.11379099163653475, 
          -0.06814819794296113, 
          0.4112021988957247, 
          0.06659054945193603, 
          -0.010807793256230531, 
          -0.15533357572060685
        ], 
        [
          -0.1048604461619299, 
          0.28132206891535183, 
          -0.20367784960238947, 
          0.19797021909576745, 
          0.1161027489338592, 
          0.44862467520850746, 
          -0.30287707865011204, 
          0.026941089080316692, 
          0.261635522832868, 
          0.22955325336074336
        ], 
        [
          0.16566858913024632, 
          -0.4240595383676321, 
          -0.09291145933144473, 
          -0.020494023671947505, 
          0.1963773963447047, 
          -0.1771710833396078, 
          0.23119064446595936, 
          0.4237580979469326, 
          0.1907181582239606, 
          0.07544106631858119
        ], 
        [
          -0.04788439768775347, 
          0.18600020291951022, 
          -0.0670847707194369, 
          -0.2278112018705676, 
          -0.06329991631505864, 
          0.20148205661472773, 
          -0.2109797908635052, 
          0.21353135304725546, 
          -0.23388990676180002, 
          0.04904577698672913
        ], 
        [
          -0.02640476702903256, 
          -0.0408731171302186, 
          0.09911657121719507, 
          0.10151143006574762, 
          -0.19428954487174643, 
          0.019243510944285606, 
          -0.2752975014016724, 
          0.0727126841174372, 
          -0.2016309113021861, 
          -0.18687641963796048
        ], 
        [
          0.2330086152218646, 
          0.051298208267852814, 
          0.09440185989776696, 
          -0.28347530129382054, 
          0.05550320431404882, 
          0.07712946407354139, 
          -0.026015569252885357, 
          -0.13333622799973618, 
          -0.14458809219843716, 
          -0.1922381579405833
        ], 
        [
          0.09292526291869908, 
          0.032961244158887355, 
          0.13634602396796186, 
          -0.14873971148203213, 
          -0.030784654090781294, 
          0.20023152646159786, 
          -0.1599042568630593, 
          -0.11955899393892547, 
          0.08586001680351767, 
          -0.11284974573039118
        ], 
        [
          0.14240959792769697, 
          -0.2589363446629702, 
          -0.14472703245868718, 
          0.10798969881242487, 
          -0.13014116104937448, 
          -0.38810987450275525, 
          0.2291034807038627, 
          -0.24471405488044312, 
          0.03725156445492351, 
          0.2575734493673261
        ], 
        [
          0.17751439004487213, 
          -0.07982165744581118, 
          0.005216277512255506, 
          0.0027474287772969916, 
          0.042509611508293035, 
          -0.050586621927524666, 
          0.030660376530630834, 
          -0.25162368218660586, 
          0.01576797383816221, 
          -0.4869843772828523
        ], 
        [
          -0.0006750948016651515, 
          0.07673670984295573, 
          -0.09267015179708217, 
          -0.10562542129251543, 
          0.21326952663613744, 
          -0.09622437673196782, 
          0.13333475053053917, 
          0.003983320527885404, 
          0.12372830037372073, 
          -0.08218017622310518
        ], 
        [
          -0.040670255093810954, 
          0.026749579691996254, 
          -0.06153687156844535, 
          0.19125345681561728, 
          -0.05675247382229917, 
          -0.22491647424679959, 
          -0.041467520985634665, 
          -0.16746656012706795, 
          0.09550225466427616, 
          0.21424765080365143
        ], 
        [
          -0.1368084720099588, 
          0.23769603040452436, 
          0.1405400321591568, 
          -0.1782027855974965, 
          -0.1673881867852411, 
          -0.11021138898354106, 
          0.24899877376019006, 
          0.0607852256544958, 
