{
  "output": {
    "weights": [
      [
        0.3059224784374237, 
        -0.2942228615283966
      ], 
      [
        0.9722979068756104, 
        -0.9719459414482117
      ], 
      [
        -1.1474655866622925, 
        1.1724727153778076
      ], 
      [
        0.21149025857448578, 
        -0.7334962487220764
      ], 
      [
        1.2532984018325806, 
        -1.2130218744277954
      ], 
      [
        -1.2090612649917603, 
        1.447877287864685
      ], 
      [
        0.5770310163497925, 
        -0.5788149833679199
      ], 
      [
        1.29300057888031, 
        -1.3160978555679321
      ], 
      [
        -1.5539838075637817, 
        1.5021247863769531
      ], 
      [
        1.4081642627716064, 
        -1.2249996662139893
      ]
    ], 
    "biases": [
      -0.005541874095797539, 
      0.005541908089071512
    ]
  }, 
  "hidden": [
    {
      "weights": [
        [
          0.03572644293308258, 
          0.006624113768339157, 
          0.17502461373806, 
          -0.13354790210723877, 
          0.002668289467692375, 
          -0.034357212483882904, 
          -0.06490267068147659, 
          -0.008156886324286461, 
          -0.018745066598057747, 
          0.0790361613035202
        ], 
        [
          0.09668989479541779, 
          -0.05566460266709328, 
          -0.07966171950101852, 
          0.10512000322341919, 
          -0.044728606939315796, 
          0.039287809282541275, 
          0.0420701801776886, 
          -0.05710969492793083, 
          0.0341821163892746, 
          -0.07801005989313126
        ], 
        [
          -0.052700288593769073, 
          -0.020636843517422676, 
          0.1597774475812912, 
          -0.06405607610940933, 
          -0.13768456876277924, 
          0.06724944710731506, 
          -0.06223190575838089, 
          0.2919616103172302, 
          -0.2018992304801941, 
          0.19186457991600037
        ], 
        [
          -0.0032042190432548523, 
          3.785661562005771e-09, 
          0.012415955774486065, 
          -0.005032854154706001, 
          -0.013187550008296967, 
          0.01418111938983202, 
          -0.006140681449323893, 
          9.686240958720641e-33, 
          7.603958510730533e-33, 
          -0.014088503085076809
        ], 
        [
          0.03097081184387207, 
          -0.21349787712097168, 
          -0.1199568584561348, 
          0.11635028570890427, 
          0.16696591675281525, 
          0.10409649461507797, 
          0.11464770138263702, 
          0.1571037322282791, 
          -0.16116394102573395, 
          0.05373894423246384
        ], 
        [
          0.04093215614557266, 
          -8.079864745500629e-33, 
          -0.15846940875053406, 
          7.649832177771373e-33, 
          0.16852229833602905, 
          -0.1175951212644577, 
          -8.006623365920738e-33, 
          4.576232568529782e-33, 
          -0.18879403173923492, 
          0.17987126111984253
        ], 
        [
          0.04967223107814789, 
          0.17007997632026672, 
          -0.15496595203876495, 
          0.007523186970502138, 
          0.264478474855423, 
          -0.23354153335094452, 
          0.08376257121562958, 
          0.05770774558186531, 
          -0.015509064309298992, 
          -0.0752338245511055
        ], 
        [
          -0.004145612008869648, 
          -2.7705342067255653e-33, 
          0.051745232194662094, 
          4.763763590420277e-33, 
          -0.017066627740859985, 
          0.01830688863992691, 
          -6.981993429450922e-33, 
          1.1479369428823729e-32, 
          0.06846059858798981, 
          -0.0407843142747879
        ], 
        [
          -1.0321675735892737e-32, 
          -8.769205489549527e-33, 
          4.517432871733713e-33, 
          6.75896541690147e-33, 
          6.171819947661154e-33, 
          -8.021936383892106e-33, 
          1.1470985215366489e-32, 
          1.6315863426123274e-33, 
          4.425572763662751e-34, 
          1.0861537679555197e-32
        ], 
        [
          -0.002830620389431715, 
          1.3461175395151349e-33, 
          8.550642151481293e-33, 
          -0.004499371629208326, 
          -5.716146909404587e-33, 
          0.012550586834549904, 
          -0.005454337224364281, 
          -7.892727514217659e-33, 
          0.014445574954152107, 
          -1.2676472304550007e-32
        ], 
        [
          -0.008094589225947857, 
          -0.08204349130392075, 
          -0.20554620027542114, 
          -0.14292030036449432, 
          0.1567838191986084, 
          0.043425288051366806, 
          -0.24374361336231232, 
          5.2315346695987135e-33, 
          0.03225087374448776, 
          0.072430819272995
        ], 
        [
          -0.13544410467147827, 
          0.08395668119192123, 
          -0.008107870817184448, 
          -0.031186791136860847, 
          -0.021040551364421844, 
          0.20473811030387878, 
          -0.08058937638998032, 
          -1.0029317801215757e-34, 
          -0.35759055614471436, 
          0.11669921875
        ], 
        [
          -0.004232126288115978, 
          -0.014945770613849163, 
          0.01772971823811531, 
          -0.007251627743244171, 
          -2.6529294866746495e-33, 
          0.020312132313847542, 
          2.071868302725792e-33, 
          -2.3907303289359534e-33, 
          0.023502107709646225, 
          8.133396023553106e-33
        ], 
        [
          -0.09125680476427078, 
          0.028386825695633888, 
          0.031052030622959137, 
          -0.030730977654457092, 
          0.03517076373100281, 
          0.2704731822013855, 
          -0.11582231521606445, 
          -0.02073930762708187, 
          0.09944414347410202, 
          -0.010844944044947624
        ], 
        [
          -0.021055718883872032, 
          0.20768405497074127, 
          0.12663611769676208, 
          -0.11386022716760635, 
          0.07522531598806381, 
          0.1411299705505371, 
          0.030133401975035667, 
          -1.0954019513935148e-33, 
          -0.07572434097528458, 
          0.07783094793558121
        ], 
        [
          0.024551955983042717, 
          -0.021707305684685707, 
          0.06492698937654495, 
          0.03875052183866501, 
          -6.799416381565173e-33, 
          -0.14840640127658844, 
          0.03763020783662796, 
          4.8453844080116074e-33, 
          -0.2037387639284134, 
          0.09689924120903015
        ], 
        [
          0.028632303699851036, 
          7.70538971421108e-33, 
          -5.090670773435863e-33, 
          0.045102812349796295, 
          -2.6508253517866776e-33, 
          -0.12690617144107819, 
          0.05514173582196236, 
          -6.187432716691982e-33, 
          -0.14600782096385956, 
          1.5495586937730173e-34
        ], 
        [
          0.031397201120853424, 
          -0.10776304453611374, 
          0.02651629038155079, 
          0.06190146878361702, 
          -0.0838317945599556, 
          -0.315161794424057, 
          0.07813413441181183, 
          0.027744702994823456, 
          -0.2519877552986145, 
          0.10577009618282318
        ], 
        [
          0.05387231335043907, 
          1.3427224802903507e-19, 
          0.1797107309103012, 
          0.08473196625709534, 
          -0.038243185728788376, 
          -0.32014521956443787, 
          0.10369206219911575, 
          -0.11279257386922836, 
          -0.33712002635002136, 
          -0.20468135178089142
        ], 
        [
          -4.199161164092855e-33, 
          1.1036640052737654e-31, 
          1.1638144185473265e-32, 
          7.974892365288229e-33, 
          1.0112634636750133e-33, 
          9.1595658576225e-33, 
          -1.7201697601803718e-33, 
          -4.663610737046249e-33, 
          -3.7057785425683975e-34, 
          -4.629195935874019e-34
        ], 
        [
          -0.06387794762849808, 
          0.2088722288608551, 
          0.11952756345272064, 
          0.17066095769405365, 
          -0.161749005317688, 
          -0.11584789305925369, 
          -0.01777179352939129, 
          0.1800094097852707, 
          0.33681216835975647, 
          -0.06392470002174377
        ], 
        [
          -0.0883541852235794, 
          -0.1463584303855896, 
          -0.013428476639091969, 
          -0.015225213952362537, 
          0.26655593514442444, 
          0.00020671088714152575, 
          -0.04921181872487068, 
          -0.14258675277233124, 
          0.040424320846796036, 
          0.27202534675598145
        ], 
        [
          -0.13028442859649658, 
          0.14975431561470032, 
          -0.008951375260949135, 
          -0.1701696217060089, 
          -0.19883719086647034, 
          -0.016803530976176262, 
          -0.14278171956539154, 
          0.28347381949424744, 
          0.21124878525733948, 
          -0.06804630905389786
        ], 
        [
          0.03777862712740898, 
          0.12398994714021683, 
          0.165682852268219, 
          0.056522153317928314, 
          0.12031976878643036, 
          -0.1737687587738037, 
          0.0224966611713171, 
          0.050595372915267944, 
          0.26805710792541504, 
          -0.09994083642959595
        ], 
        [
          0.029412921518087387, 
          0.0954936072230339, 
          -0.11375463753938675, 
          0.0462840273976326, 
          1.1724053720735173e-32, 
          -3.8935653263156926e-33, 
          0.09997190535068512, 
          9.047169495900689e-33, 
          -0.14985166490077972, 
          -4.325754558836723e-33
        ], 
        [
          6.589212461370216e-34, 
          -2.5403799433452464e-33, 
          7.583372665911758e-33, 
          5.807997099241963e-33, 
          -4.0444448016895334e-33, 
          -3.51790671915166e-33, 
          7.369404776071269e-33, 
          -5.737020015655344e-33, 
          1.1547316675721104e-32, 
          7.083155003914749e-33
        ], 
        [
          0.04208526760339737, 
          0.13703323900699615, 
          -0.16205348074436188, 
          0.06618784368038177, 
          7.735997383054585e-33, 
          9.936218648630632e-33, 
          0.0810333862900734, 
          0.18334148824214935, 
          -0.1512800008058548, 
          -6.781864781539458e-33
        ], 
        [
          -0.019457006826996803, 
          -0.06309278309345245, 
          0.07510490715503693, 
          -0.03047112375497818, 
          6.127612543862605e-33, 
          7.455617001128514e-33, 
          -0.03747164085507393, 
          1.078323285805914e-32, 
          0.09891880303621292, 
          4.6735715823015295e-33
        ], 
        [
          0.028722314164042473, 
          0.0925375446677208, 
          -0.11041978001594543, 
          0.044950053095817566, 
          -5.197328518673754e-33, 
          -0.10215000063180923, 
          -1.1495502354104796e-32, 
          -1.1293467935977061e-32, 
          -0.1454140841960907, 
          3.8639740927436646e-33
        ], 
        [
          -0.004214941523969173, 
          -0.014967828057706356, 
          0.01773202046751976, 
          -0.007231168914586306, 
          4.320354264320648e-33, 
          0.020409202203154564, 
          -4.491263061406547e-33, 
          5.5213348020367015e-33, 
          0.02345123142004013, 
          6.981849431392946e-33
        ], 
        [
          0.0036918208934366703, 
          0.011397524736821651, 
          -0.013149046339094639, 
          0.005599359516054392, 
          -9.098805289312465e-33, 
          -0.015134279616177082, 
          -2.0960133240336665e-33, 
          -1.0406264309377909e-32, 
          -0.01813957467675209, 
          5.1038245552215646e-33
        ], 
        [
          0.06978153437376022, 
          -0.12419214844703674, 
          -0.07340876013040543, 
          0.16238580644130707, 
          0.29494014382362366, 
          -0.04722355678677559, 
          0.07440104335546494, 
          -0.09083256125450134, 
          -0.1911713033914566, 
          -0.10109607875347137
        ], 
        [
          -0.027395261451601982, 
          -0.08745232224464417, 
          0.21348069608211517, 
          -0.07725302875041962, 
          0.13754448294639587, 
          0.1494901478290558, 
          -0.043975748121738434, 
          -0.010821263305842876, 
          0.2560936212539673, 
          -0.2399078905582428
        ], 
        [
          -0.010689513757824898, 
          -8.563507937151043e-33, 
          -0.12861697375774384, 
          0.049910787492990494, 
          -0.11577662080526352, 
          0.246418297290802, 
          -0.014211324043571949, 
          0.10588164627552032, 
          -0.08580615371465683, 
          4.369924126410855e-33
        ], 
        [
          -0.02104930579662323, 
          -6.8986985145352e-29, 
          -0.040208544582128525, 
          -0.03302767500281334, 
          2.3437401259328248e-33, 
          0.12104693055152893, 
          -0.04029666259884834, 
          -1.046892477043246e-32, 
          0.16101445257663727, 
          8.165854361315187e-33
        ], 
        [
          0.08881153166294098, 
          -0.00311887520365417, 
          -0.012459001503884792, 
          0.11987679451704025, 
          3.001065434998468e-23, 
          -0.4578568637371063, 
          0.24186165630817413, 
          -0.41329312324523926, 
          -0.5835937857627869, 
          0.4411904215812683
        ], 
        [
          -0.03078668937087059, 
          0.011228795163333416, 
          -0.04030505567789078, 
          -0.08254533261060715, 
          0.008026625029742718, 
          -0.16847707331180573, 
          0.10960496217012405, 
          -0.1450873613357544, 
          0.3593277633190155, 
          -0.0211158599704504
        ], 
        [
          -0.008465484715998173, 
          -0.051095783710479736, 
          0.060421574860811234, 
          5.305637098790581e-33, 
          0.23857778310775757, 
          0.07194017618894577, 
          0.0074225361458957195, 
          -0.1369570940732956, 
          0.16762621700763702, 
          -0.28092798590660095
        ], 
        [
          0.060173168778419495, 
          0.05021288990974426, 
          -0.07058358192443848, 
          0.04538571834564209, 
          0.24827940762043, 
          9.184794905127024e-33, 
          0.055270422250032425, 
          9.650786579731903e-33, 
          0.06741347163915634, 
          0.08011242747306824
        ], 
        [
          -0.024068502709269524, 
          -0.06801172345876694, 
          0.09313179552555084, 
          -3.047384822998149e-22, 
          -0.02408631145954132, 
          0.10675542801618576, 
          -0.036558665335178375, 
          -0.011126120574772358, 
          0.12438216805458069, 
          -0.1057712733745575
        ], 
        [
          3.2606806144031e-11, 
          6.4027575678237e-33, 
          9.334192890276844e-33, 
          -8.593258964486386e-33, 
          -5.482215819409274e-33, 
          -8.55959868375059e-33, 
          -1.0293692358187444e-32, 
          -4.035295414878305e-33, 
          5.357506154362599e-33, 
          -5.14931324786251e-33
        ], 
        [
          -0.016719795763492584, 
          4.868989895779554e-34, 
          0.015766898170113564, 
          -0.0012811061460524797, 
          -0.06893197447061539, 
          -0.1581880748271942, 
          -0.021460728719830513, 
          7.371503033487487e-33, 
          0.11407078802585602, 
          0.027208013460040092
        ], 
        [
          0.12982982397079468, 
          0.08574534952640533, 
          -0.23498396575450897, 
          0.15326368808746338, 
          -0.07265936583280563, 
          0.02078571543097496, 
          0.2638423442840576, 
          -0.11421068012714386, 
          -0.10623570531606674, 
          0.06080963462591171
        ], 
        [
          0.026506809517741203, 
          -7.494768309850589e-33, 
          0.07242918759584427, 
          0.04178018495440483, 
          -0.02203582413494587, 
          -0.28327178955078125, 
          0.051076874136924744, 
          3.379199487780584e-33, 
          -0.13528060913085938, 
          -2.8925745812409122e-33
        ], 
        [
          0.2260671854019165, 
          -0.40098515152931213, 
          -0.5777744054794312, 
          -0.24678848683834076, 
          -0.26911088824272156, 
          0.1930539608001709, 
          -0.1297246515750885, 
          0.06763140857219696, 
          0.11505529284477234, 
          0.0893494039773941
        ], 
        [
          -0.052942533046007156, 
          -0.0016299939015880227, 
          -0.23287557065486908, 
          -0.14895418286323547, 
          0.05809907615184784, 
          -0.3750304579734802, 
          -0.13031665980815887, 
          0.3651334345340729, 
          -0.20888210833072662, 
          -0.34179791808128357
        ], 
        [
          -0.20823338627815247, 
          0.30675414204597473, 
          0.20133700966835022, 
          -0.4578389525413513, 
          0.026278072968125343, 
          0.26675817370414734, 
          0.024362407624721527, 
          -0.09425925463438034, 
          -0.0617356076836586, 
          0.25768691301345825
        ], 
        [
          0.009910235181450844, 
          -0.15781942009925842, 
          -0.14814330637454987, 
          -0.037922170013189316, 
          0.39162832498550415, 
          0.09512930363416672, 
          -0.10497299581766129, 
          -0.031466737389564514, 
          0.02124885842204094, 
          -0.2605173885822296
        ], 
        [
          -0.07647237181663513, 
          -0.10271552950143814, 
          -0.02217973954975605, 
          0.10222843289375305, 
          0.06414195150136948, 
          -0.2218724489212036, 
          -0.19386792182922363, 
          -0.2212001532316208, 
          0.2648714780807495, 
          0.35645791888237
        ], 
        [
          -0.03193170949816704, 
          -0.13558803498744965, 
          0.26304593682289124, 
          -0.16343633830547333, 
          0.231325164437294, 
          -0.10969346761703491, 
          -0.012682498432695866, 
          -0.10681156814098358, 
          -0.08608118444681168, 
          -0.43931305408477783
        ], 
        [
          0.15975558757781982, 
          -0.05327962711453438, 
          -0.14249248802661896, 
          0.26361584663391113, 
          -0.009097594767808914, 
          -0.32219889760017395, 
          0.18569688498973846, 
          0.3931625187397003, 
          0.3594065308570862, 
          0.15160462260246277
        ], 
        [
          0.05590812861919403, 
          -0.007032937370240688, 
          0.17906881868839264, 
          0.12442252784967422, 
          0.14357724785804749, 
          -0.23943747580051422, 
          0.050459545105695724, 
          -0.28168201446533203, 
          -0.13308307528495789, 
          0.1483469307422638
        ], 
        [
          0.09402114897966385, 
          -0.23726393282413483, 
          -0.2014477401971817, 
          0.07528968155384064, 
          -0.22023193538188934, 
          0.16697588562965393, 
          0.08943341672420502, 
          0.36268195509910583, 
          0.41962096095085144, 
          0.30652618408203125
        ], 
        [
          -0.014517810195684433, 
          0.1852712333202362, 
          0.10141856968402863, 
          0.06398226320743561, 
          -0.0033696205355226994, 
          -0.0066003636457026005, 
          -0.0704757571220398, 
          0.11564548313617706, 
          0.038143567740917206, 
          0.33234062790870667
        ], 
        [
          -0.001577226910740137, 
          -0.03481476753950119, 
          0.00824215542525053, 
          0.19428718090057373, 
          -0.31692612171173096, 
          0.23100025951862335, 
          -0.005975108128041029, 
          0.05923908203840256, 
          -0.1359347254037857, 
          0.03552841395139694
        ], 
        [
          -0.049258023500442505, 
          0.16798833012580872, 
          0.03358767554163933, 
          -0.04887445271015167, 
          0.010457172989845276, 
          0.14945918321609497, 
          -0.15401263535022736, 
          0.2841992974281311, 
          0.11823659390211105, 
          -0.08224958181381226
        ], 
        [
          0.01219951082020998, 
          -0.06917118281126022, 
          -0.10112111270427704, 
          0.037808164954185486, 
          0.038764189928770065, 
          0.05187995731830597, 
          0.04631811007857323, 
          0.04155021905899048, 
          0.04367588460445404, 
          0.05354052409529686
        ], 
        [
          0.02176475338637829, 
          3.781676263874658e-33, 
          -0.08418483287096024, 
          -1.1108245291117994e-33, 
          -7.241792374662032e-33, 
          -1.873962808505321e-33, 
          7.357914318791981e-33, 
          0.09470159560441971, 
          -0.11091019213199615, 
          0.09556566923856735
        ], 
        [
          0.08804672956466675, 
          -0.10398678481578827, 
          -0.1171339750289917, 
          0.10210702568292618, 
          0.2308170646429062, 
          -0.302077054977417, 
          0.16999293863773346, 
          -0.1396191269159317, 
          -0.2858959436416626, 
          0.2463599443435669
        ], 
        [
          3.721987599475779e-33, 
          -7.245471671980106e-33, 
          -1.0452350300085866e-32, 
          9.630742931682444e-33, 
          -1.1111181822943142e-32, 
          -5.137761444471789e-33, 
          -4.3834768415918666e-33, 
          -3.155871724171673e-34, 
          -2.8351672942375903e-33, 
          2.5793093775086035e-33
        ], 
        [
          3.3760667953356426e-33, 
          -4.930253998115023e-33, 
          3.1487886360239996e-33, 
          6.616853292674841e-33, 
          1.1743123912525357e-32, 
          1.1770101507876728e-32, 
          -1.0878459655419253e-32, 
          -1.1693268258371107e-32, 
          4.64456552451102e-33, 
          -7.491246234901938e-33
        ], 
        [
          0.06325063854455948, 
          -0.16870255768299103, 
          0.1995287835597992, 
          -0.030573224648833275, 
          0.2536804974079132, 
          -0.10639449954032898, 
          -0.07788611203432083, 
          -0.09448087960481644, 
          -0.0117271076887846, 
          -0.08875886350870132
        ], 
        [
          0.09560218453407288, 
          -0.11769814789295197, 
          -0.1677481234073639, 
          -0.09754655510187149, 
          0.24955329298973083, 
          0.31119897961616516, 
          -0.19299721717834473, 
          -0.2573820650577545, 
          -0.10790566354990005, 
          0.08751441538333893
        ], 
        [
          -0.019818317145109177, 
          0.012212825007736683, 
          -0.03478897362947464, 
          0.005046508740633726, 
          -0.1997859925031662, 
          0.16222532093524933, 
          0.1145259439945221, 
          -0.01634923368692398, 
          -0.04145855829119682, 
          0.03386026993393898
        ], 
        [
          0.12503111362457275, 
          0.03599485754966736, 
          0.41852957010269165, 
          0.04519030824303627, 
          -0.3239758014678955, 
          -0.14522787928581238, 
          0.33212149143218994, 
          -0.1029774397611618, 
          0.07019186019897461, 
          0.07542122900485992
        ], 
        [
          0.09007766842842102, 
          -0.28556233644485474, 
          -0.04538398236036301, 
          0.174208864569664, 
          -0.44678622484207153, 
          0.04676042124629021, 
          0.3513706624507904, 
          -0.058687128126621246, 
          -0.02946266531944275, 
          0.1528741866350174
        ], 
        [
          -0.015168173238635063, 
          -0.029177187010645866, 
          0.17595991492271423, 
          -0.04104065150022507, 
          0.010113631375133991, 
          0.2520589530467987, 
          0.1959112137556076, 
          0.24987880885601044, 
          -0.08448166400194168, 
          0.2845819294452667
        ], 
        [
          0.0819949209690094, 
          0.5645937323570251, 
          -0.007825975306332111, 
          -0.1676328033208847, 
          0.058921635150909424, 
          0.026398327201604843, 
          -0.03796139359474182, 
          -0.12242497503757477, 
          0.04008978605270386, 
          -0.16555984318256378
        ], 
        [
          0.09622202813625336, 
          0.15973249077796936, 
          0.29212960600852966, 
          -0.005676636006683111, 
          0.2729897201061249, 
          -0.024400020018219948, 
          0.022670766338706017, 
          0.02395818941295147, 
          -0.21881553530693054, 
          -0.09947244077920914
        ], 
        [
          -0.037750523537397385, 
          0.1982940286397934, 
          0.022349242120981216, 
          -0.07286316901445389, 
          0.21267291903495789, 
          0.2159680873155594, 
          -0.08318870514631271, 
          -0.07042371481657028, 
          -0.1751573383808136, 
          -0.38513654470443726
        ], 
        [
          0.006968688685446978, 
          0.047098468989133835, 
          0.03939535468816757, 
          0.010956848040223122, 
          0.0443749874830246, 
          -0.03073088265955448, 
          0.013347619213163853, 
          -1.0256354984185481e-32, 
          -0.010017785243690014, 
          -0.04717221111059189
        ], 
        [
          -0.10681581497192383, 
          -0.01276323851197958, 
          -0.043613675981760025, 
          0.031453412026166916, 
          0.3462686538696289, 
          0.11780227720737457, 
          0.11907584220170975, 
          -0.07136262208223343, 
          0.1294184923171997, 
          0.1270294487476349
        ], 
        [
          -0.13885198533535004, 
          0.10729191452264786, 
          0.1312284767627716, 
          -0.0255989171564579, 
          0.33936935663223267, 
          0.16520372033119202, 
          -0.02465975657105446, 
          0.15871377289295197, 
          0.1676606386899948, 
          0.1860513836145401
        ], 
        [
          -0.12307349592447281, 
          0.029735775664448738, 
          -0.2873668372631073, 
          0.04727016016840935, 
          -0.12699458003044128, 
          -0.0773567259311676, 
          0.01149364560842514, 
          0.0561322383582592, 
          0.0832451730966568, 
          -0.4462158679962158
        ], 
        [
          -0.13822773098945618, 
          -0.13500964641571045, 
          0.27797022461891174, 
          0.130118727684021, 
          0.09885711967945099, 
          -0.21478314697742462, 
          0.051361288875341415, 
          -0.030987344682216644, 
          0.2141602635383606, 
          0.250996857881546
        ], 
        [
          0.15028192102909088, 
          -0.1249656155705452, 
          0.14490386843681335, 
          -0.13437053561210632, 
          0.2581564486026764, 
          -0.1428254097700119, 
          -0.1283891499042511, 
          0.5058096051216125, 
          0.1287066489458084, 
          -0.22963955998420715
        ], 
        [
          0.08135684579610825, 
          -0.3342505693435669, 
          -0.1668616682291031, 
          0.053050823509693146, 
          -0.0430162213742733, 
          -0.2856798470020294, 
          0.16971072554588318, 
          -0.20511960983276367, 
          0.30954819917678833, 
          -0.1107659637928009
        ], 
        [
          -0.03346148505806923, 
          0.08575192093849182, 
          0.002886157715693116, 
          0.07837740331888199, 
          -0.14280378818511963, 
          -0.14605647325515747, 
          0.05518336966633797, 
          -0.012541180476546288, 
          0.03082415834069252, 
          -0.2013954520225525
        ], 
        [
          0.027867386117577553, 
          0.026711858808994293, 
          -0.02426772378385067, 
          0.07153255492448807, 
          0.01795177161693573, 
          -0.07170877605676651, 
          0.023874612525105476, 
          0.07294049113988876, 
          -0.2106526494026184, 
          0.03409775719046593
        ], 
        [
          -0.016939153894782066, 
          -0.0997866615653038, 
          -0.007248074281960726, 
          -0.021466657519340515, 
          0.06362240016460419, 
          0.04142267256975174, 
          0.015304851345717907, 
          -0.0044518448412418365, 
          0.1109943836927414, 
          0.2714807391166687
        ], 
        [
          -0.09707183390855789, 
          0.08127178996801376, 
          0.12743709981441498, 
          -0.2274736613035202, 
          -0.08386147767305374, 
          0.47392579913139343, 
          -0.18743160367012024, 
          0.09224117547273636, 
          0.2752434015274048, 
          0.08313405513763428
        ], 
        [
          -0.09805028885602951, 
          -0.07467860728502274, 
          -0.4077414870262146, 
          -0.263887494802475, 
          0.043323956429958344, 
          0.47110018134117126, 
          -0.20831751823425293, 
          0.22387069463729858, 
          -0.7104825973510742, 
          0.17285111546516418
        ], 
        [
          0.02362457662820816, 
          0.10811641812324524, 
          0.5142053365707397, 
          -0.05653355270624161, 
          -0.03199891373515129, 
          -0.005241872742772102, 
          0.13154657185077667, 
          -0.017283186316490173, 
          -0.48589062690734863, 
          0.22227482497692108
        ], 
        [
          0.0011223005130887032, 
          -0.11972621828317642, 
          0.15179692208766937, 
          -0.04899805039167404, 
          -0.1280858963727951, 
          0.02298494055867195, 
          0.04522338882088661, 
          0.5293585658073425, 
          0.2351711094379425, 
          -0.39005568623542786
        ], 
        [
          0.0632709339261055, 
          -0.04087014123797417, 
          -0.31061986088752747, 
          -0.10990408807992935, 
          -0.3728552460670471, 
          0.5305646061897278, 
          0.1605425328016281, 
          -0.16967637836933136, 
          -0.3682800531387329, 
          -0.09825818240642548
        ], 
        [
          -0.10046466439962387, 
          -0.05721481889486313, 
          0.08168131858110428, 
          -0.2618301212787628, 
          0.14924860000610352, 
          0.0059315417893230915, 
          -0.21054452657699585, 
          0.35621705651283264, 
          0.37975013256073, 
          0.1139923706650734
        ], 
        [
          -0.012124987319111824, 
          -0.06842852383852005, 
          0.2321506291627884, 
          0.03255234658718109, 
          -0.4328310787677765, 
          -0.3124646544456482, 
          -0.15005016326904297, 
          0.6305155754089355, 
          0.3492577373981476, 
          0.009784364141523838
        ], 
        [
          0.00999168585985899, 
          0.08350639790296555, 
          0.25552287697792053, 
          0.22987724840641022, 
          0.017360318452119827, 
          -0.14956334233283997, 
          0.27910470962524414, 
          0.03762189298868179, 
          -0.00655826460570097, 
          -0.2792733311653137
        ], 
        [
          -0.054989881813526154, 
          -0.025749938562512398, 
          0.22411148250102997, 
          -0.2461366057395935, 
          0.07956226915121078, 
          -0.01109028235077858, 
          0.021488528698682785, 
          -0.11410641670227051, 
          -0.45269691944122314, 
          0.45085057616233826
        ], 
        [
          0.02313280664384365, 
          0.06892748177051544, 
          0.0005202291649766266, 
          0.13004179298877716, 
          0.15277066826820374, 
          -0.2687896192073822, 
          -0.18873187899589539, 
          0.297250896692276, 
          0.31442609429359436, 
          0.03269299864768982
        ], 
        [
          -0.051306743174791336, 
          -0.057710327208042145, 
          0.07460996508598328, 
          0.08522723615169525, 
          -0.32709023356437683, 
          0.7875615358352661, 
          -0.2652631103992462, 
          -0.019911322742700577, 
          -0.5824953317642212, 
          0.037756647914648056
        ], 
        [
          0.22215290367603302, 
          0.3010796010494232, 
          -0.20635785162448883, 
          0.21495361626148224, 
          -0.0784422978758812, 
          -0.11693507432937622, 
          -0.1017841249704361, 
          -0.29596590995788574, 
          0.16668707132339478, 
          -0.5655030012130737
        ], 
        [
          0.10877521336078644, 
          -0.18798750638961792, 
          0.23634211719036102, 
          0.0014892361359670758, 
          -0.21711379289627075, 
          -0.14628475904464722, 
          -0.2376181185245514, 
          -0.21124720573425293, 
          -0.287190318107605, 
          -0.1677025854587555
        ], 
        [
          -0.05472879484295845, 
          0.3329582214355469, 
          -0.02589390240609646, 
          0.021733829751610756, 
          -0.0998106449842453, 
          0.04868999496102333, 
          0.048235803842544556, 
          0.22017908096313477, 
          -0.3834514915943146, 
          0.12065459042787552
        ], 
        [
          -0.04752746596932411, 
          0.056581176817417145, 
          -0.05967603251338005, 
          -0.045080941170454025, 
          0.12270230799913406, 
          0.36479949951171875, 
          -0.3013341724872589, 
          -0.21620558202266693, 
          0.14103126525878906, 
          -0.0006106312503106892
        ], 
        [
          -0.0038455186877399683, 
          0.02692003920674324, 
          -0.08593422919511795, 
          -0.06859590858221054, 
          0.10686670243740082, 
          0.11067657917737961, 
          -0.06882781535387039, 
          0.052467215806245804, 
          0.017009513452649117, 
          0.17778512835502625
        ], 
        [
          0.04833759739995003, 
          0.15642884373664856, 
          0.03875119239091873, 
          0.2438458353281021, 
          -0.2876339256763458, 
          -0.11302727460861206, 
          -0.11192850768566132, 
          -0.0957038626074791, 
          -0.012954755686223507, 
          -0.23309984803199768
        ], 
        [
          -0.239864319562912, 
          -0.2503249943256378, 
          -0.4449785649776459, 
          -0.05535315349698067, 
          -0.438531756401062, 
          -0.33755287528038025, 
          -0.03484911844134331, 
          0.011454612948000431, 
          0.28796273469924927, 
          0.22312670946121216
        ], 
        [
          0.019673362374305725, 
          0.08585380017757416, 
          0.031539756804704666, 
          -0.007858696393668652, 
          0.3236428201198578, 
          0.14409835636615753, 
          -0.06233067438006401, 
          -0.5362370610237122, 
          -0.004172004293650389, 
          -0.17788761854171753
        ], 
        [
          -0.1467425376176834, 
          0.03628835827112198, 
          0.20427893102169037, 
          -0.052413806319236755, 
          0.0342710018157959, 
          0.1504804491996765, 
          -0.10453713685274124, 
          0.3887108862400055, 
          -0.0020036734640598297, 
          0.004274573177099228
        ], 
        [
          -0.011356966570019722, 
          -0.14496080577373505, 
          0.26693370938301086, 
          0.0429113432765007, 
          -0.012569490820169449, 
          -0.14770105481147766, 
          0.07341355085372925, 
          0.03334416449069977, 
          -0.19303250312805176, 
          -0.3869563043117523
        ]
      ], 
      "biases": [
        -0.011134929023683071, 
        0.06678129732608795, 
        0.45217597484588623, 
        -0.16979749500751495, 
        -0.002934396965429187, 
        -0.05105382576584816, 
        -0.09813017398118973, 
        -0.06737224012613297, 
        -0.010597829706966877, 
        0.16802974045276642
      ]
    }
  ]
}