{
  "output": {
    "weights": [
      [
        -0.9318572499472848, 
        0.9823644902947544
      ], 
      [
        -1.170595322727394, 
        1.1543173656621313
      ], 
      [
        -1.2763541507351217, 
        1.1696444856451842
      ], 
      [
        0.7735771778579026, 
        -0.9005047915765322
      ], 
      [
        -1.04553713005841, 
        1.1025780711375377
      ], 
      [
        -1.0981905868677702, 
        1.2205020355233902
      ], 
      [
        -1.133996386311989, 
        1.2981696364102204
      ], 
      [
        1.0418987682022491, 
        -1.2934649994152692
      ], 
      [
        -1.0564463570538012, 
        1.2822668540475477
      ], 
      [
        -1.3513891666968987, 
        1.2870367516466912
      ]
    ], 
    "biases": [
      0.5209178125755546, 
      -0.5209178125755549
    ]
  }, 
  "hidden": [
    {
      "weights": [
        [
          0.056282830177518645, 
          0.1307099330237447, 
          -0.09462973158333293, 
          -0.12157242149427301, 
          -0.21691336527933158, 
          -0.04938041340252917, 
          -0.015259602168641029, 
          -0.12306357923040669, 
          0.11985450753612563, 
          -0.08055226977339147
        ], 
        [
          -0.034668055667231974, 
          0.09652299539976973, 
          0.07402749475046883, 
          0.0007587621463879927, 
          -0.09514939820988194, 
          0.12046397656687893, 
          0.05707292478686761, 
          0.00989948482884998, 
          0.012561899552292767, 
          -0.08051181584712068
        ], 
        [
          -0.005297959573644851, 
          -0.12812350228393174, 
          -0.11375511003154008, 
          0.16757661846643734, 
          -0.060348807095579125, 
          -0.14206691269960575, 
          -0.09896130246830406, 
          0.07224181477589514, 
          -0.10111944728641921, 
          -0.027297193649059144
        ], 
        [
          -1.7251960692091937e-43, 
          1.647165674288011e-137, 
          -0.07384758596588747, 
          0.06526329495921677, 
          -6.713210036403963e-101, 
          -0.09163654793925942, 
          1.7490924167417967e-118, 
          1.0843237605558228e-104, 
          -0.10750729298378145, 
          -0.026593052726194864
        ], 
        [
          -0.11722725855346341, 
          -0.036689542955732714, 
          0.06589482441033531, 
          -0.03784380110009633, 
          -0.02122412592634619, 
          -0.07602779989689676, 
          -0.06901753468010356, 
          0.19621556939369633, 
          -0.15787199299128604, 
          -0.0896295904486902
        ], 
        [
          -4.7072060952427314e-125, 
          -6.169302556461777e-158, 
          0.03845123386653889, 
          -0.009606046929608314, 
          -2.1722794101733078e-127, 
          0.04080240132307423, 
          1.1785098843568385e-118, 
          3.066073090965089e-141, 
          0.023012889140156423, 
          0.0479169309253183
        ], 
        [
          0.018638087524945904, 
          2.9740290295033557e-170, 
          3.158302500769856e-156, 
          -1.29460592535457e-12, 
          -5.871943595535366e-135, 
          0.023057179749353673, 
          1.5308599541610756e-129, 
          -0.02355306436527114, 
          0.023445254661562248, 
          0.02676471730259814
        ], 
        [
          0.036314348481045776, 
          0.006934139251392739, 
          -2.0695182890589266e-132, 
          -0.01538265288067743, 
          0.01574783025255317, 
          0.04479962449745184, 
          0.007715656642233706, 
          -0.04569585572594047, 
          0.03713226541681915, 
          0.051924439085561866
        ], 
        [
          -0.1580279585157376, 
          0.17900423881669358, 
          -0.16731068450541844, 
          -0.22805660458662186, 
          0.08228465511614307, 
          -0.04853398013170943, 
          -0.03921008355810229, 
          -0.29621621392229713, 
          0.014190010665348963, 
          -0.10984926051088074
        ], 
        [
          0.15258651660059536, 
          -0.049987721601124954, 
          -0.20733749536824359, 
          0.034381317847184845, 
          0.1348956392048827, 
          0.03895995215199624, 
          0.20960806292005124, 
          -0.12729604882885762, 
          -0.15536214650154986, 
          -0.14532895087189127
        ], 
        [
          -0.00269086279470906, 
          -0.008976151097598655, 
          -0.018085601413819024, 
          0.0063167298249148605, 
          -0.008856125385859708, 
          -0.009503417228775011, 
          -0.013822695817507622, 
          0.010737583407216382, 
          5.33912052716298e-66, 
          -2.5192837060508137e-06
        ], 
        [
          0.1376675404273522, 
          0.19027259492719384, 
          -0.00988056155185959, 
          0.120314911834407, 
          0.12176160661430287, 
          0.05813371812668374, 
          0.1967351292032602, 
          -0.10358873072802455, 
          -0.1718379828097809, 
          -0.17007496345071918
        ], 
        [
          -0.10745512631377206, 
          -0.16993407406174607, 
          0.09031371652082584, 
          0.04868675799003763, 
          -0.08535808385996371, 
          0.14368452515560315, 
          -0.0783696011686541, 
          0.11884700158149092, 
          0.007875801942250878, 
          0.06948770066210092
        ], 
        [
          -0.08876253319868024, 
          0.07038952959504051, 
          -0.026486727768433756, 
          0.08561265365054938, 
          -0.21105623011889044, 
          -0.07324660107390539, 
          -0.26770696106529857, 
          0.11623915361883154, 
          0.08467428107338161, 
          -0.22440903402563692
        ], 
        [
          -0.06389931330980893, 
          0.05553530971691338, 
          -0.05528069424300029, 
          0.04717868260438742, 
          -0.022590689292963206, 
          -0.05338128906635325, 
          -0.06213425035893125, 
          0.0648319474671915, 
          0.013246910540423084, 
          -0.07366071137745153
        ], 
        [
          0.0548304944685597, 
          -0.21108338693603665, 
          -0.5060733743106434, 
          0.223291171386294, 
          -0.01720748579670375, 
          -0.22549366061849332, 
          -0.18395686279709936, 
          -0.13024069584666537, 
          -0.022260028003598716, 
          -0.3255677421464815
        ], 
        [
          -0.07445123532745819, 
          -0.13185721160402236, 
          -0.19177385731176444, 
          0.03702206126496574, 
          -0.19364949480410856, 
          -0.19122368903142717, 
          -0.049597554797683574, 
          0.1402193128125089, 
          -0.10002910875105316, 
          -0.07714528202938173
        ], 
        [
          1.7731556733878224e-180, 
          8.789634769651181e-181, 
          1.8196623574155597e-177, 
          9.419718414759622e-183, 
          1.2345049415591062e-12, 
          -3.292512589994408e-182, 
          1.2399727939219335e-175, 
          1.2973806237794106e-182, 
          -3.845493313421416e-08, 
          -6.07242086752597e-12
        ], 
        [
          0.1973688167380004, 
          0.13010932701425604, 
          -0.31361254816877054, 
          0.14181225761966695, 
          0.2526793802839076, 
          0.1871091594963263, 
          -0.09527713064839641, 
          -0.08237460771538635, 
          -0.0363730400453229, 
          -0.048478151073564416
        ], 
        [
          -0.1382212912255332, 
          -0.0740261738686546, 
          -0.02928499336795324, 
          0.18445481360642277, 
          -0.05112387379517134, 
          -0.14095504451511034, 
          0.1802507116722097, 
          -0.3003121252093568, 
          -0.13823326746971126, 
          0.10651474475830931
        ], 
        [
          1.973974759731347e-181, 
          -1.1675015233338232e-179, 
          -3.867296166940123e-182, 
          9.749913135939991e-182, 
          3.2872361490203467e-183, 
          -6.560190987565493e-182, 
          -1.5672219232954958e-181, 
          2.131217740612282e-182, 
          -3.3830508661369815e-180, 
          -3.865657413250048e-183
        ], 
        [
          -0.13877140262685297, 
          0.20713834082102153, 
          0.007129913797557299, 
          -0.06561284791045689, 
          -0.08855678606200748, 
          0.09279052812147986, 
          0.20009583226698888, 
          0.00048825249409191804, 
          -0.19185519590418992, 
          0.07360048891810055
        ], 
        [
          -0.08001114338957856, 
          0.13061636053476244, 
          0.0037634579668517757, 
          0.007815643979240542, 
          -0.16861941461085367, 
          0.12202892020221329, 
          -0.046581538671703955, 
          0.11401307237390174, 
          -0.24219354057715317, 
          0.0011099185368377497
        ], 
        [
          0.14545734240620675, 
          -0.02703401160548372, 
          -0.14521271061552474, 
          0.09024435540126975, 
          0.17886015028800167, 
          -0.03366253319542536, 
          -0.129392479761676, 
          0.0037298815278922464, 
          -1.740112572199735e-59, 
          -0.12930855385760476
        ], 
        [
          1.2655147269816877e-145, 
          -0.0502544738429531, 
          -0.0670365887835029, 
          0.03805856324269347, 
          0.01191972215836216, 
          -0.0504014308063818, 
          -0.053397379582618636, 
          0.05122336178067308, 
          1.1090216484098673e-37, 
          -0.05752947654367222
        ], 
        [
          -0.0014411409694348306, 
          -0.06023562220437694, 
          0.038969986993267924, 
          0.046079545857163416, 
          0.04096430908107235, 
          -0.062005660411974, 
          0.04244258348768582, 
          0.06408565308794135, 
          -1.2191060358656179e-117, 
          -0.04426872859693501
        ], 
        [
          0.03569802895653248, 
          0.02835305762721513, 
          0.0002456594882320587, 
          -0.019989342152743717, 
          -1.3221879478639871e-09, 
          0.02878047544901434, 
          0.0019329376072594957, 
          -0.02978414660437766, 
          6.380669681426642e-106, 
          0.024597367966094297
        ], 
        [
          1.3733165624789014e-22, 
          -0.10743916353720938, 
          -0.04934793820674583, 
          0.07685727223339113, 
          -0.07103470344795806, 
          -0.11283410967685906, 
          -0.018528568484655682, 
          0.11023293666979116, 
          1.5357068057145042e-76, 
          3.230081641528008e-140
        ], 
        [
          -0.002690865921125708, 
          -0.008974197926989804, 
          -0.017998122826146785, 
          0.006292099880801745, 
          -0.008857758582713676, 
          -0.009536860421409107, 
          -0.013822609051875087, 
          0.010756734528118504, 
          5.726367986176384e-66, 
          -2.5194954935730003e-06
        ], 
        [
          -1.3214478181263389e-176, 
          -0.08724181098613544, 
          -0.0763203734883326, 
          0.0655266490847118, 
          -3.600332833227376e-27, 
          -0.08862827040190945, 
          -0.09633891416258006, 
          0.1267329043989704, 
          -1.4387520394235535e-15, 
          -0.004199694604192451
        ], 
        [
          0.09446133437484448, 
          -0.21621737271226538, 
          -0.12875828669515757, 
          0.17858075231084347, 
          -0.11818683314271318, 
          -0.3234689638786065, 
          -0.14684318350196912, 
          0.07350298011811345, 
          0.1589939076745455, 
          -0.062458987415610026
        ], 
        [
          0.16195425522118442, 
          0.2653178668468708, 
          -0.11078369481774127, 
          -0.16433667510939867, 
          0.10159000088640015, 
          -0.004572685555971527, 
          0.12117005758545046, 
          -0.05749524243774676, 
          0.1953418521608762, 
          0.03633879413170873
        ], 
        [
          -0.015459550350142971, 
          0.10290390433832866, 
          0.1432209529067198, 
          0.012352945026173925, 
          -0.07709650321021191, 
          -0.1629004012567826, 
          0.006173605589225411, 
          -0.3550339963497247, 
          -0.026885980106720424, 
          0.10523841134745732
        ], 
        [
          0.07103623561765177, 
          -0.05647208581384502, 
          -0.10256627782970425, 
          -0.03675907303816208, 
          0.06266790839870008, 
          0.012394831615301296, 
          0.015520743463101122, 
          -0.0973942968303184, 
          -0.06394129121206615, 
          0.04729190582675171
        ], 
        [
          -0.08092502703565038, 
          -0.13023820744673392, 
          -0.15653853769622153, 
          0.012514632544816735, 
          0.073612517951826, 
          -0.27516172821850826, 
          -0.18224509487532675, 
          0.20066735565633115, 
          0.18134610776555998, 
          0.249591007951466
        ], 
        [
          -0.20535032533173828, 
          -0.04847663010481983, 
          0.24971700077506073, 
          0.10021644493187354, 
          0.21475817443466896, 
          0.08758164160206239, 
          -0.4472326033739485, 
          0.008296838926595591, 
          0.06694295416169153, 
          0.03639997204097081
        ], 
        [
          0.13957086931726928, 
          0.23198053787213754, 
          0.3163023250224199, 
          -0.11276603625792929, 
          0.09488655910032989, 
          -0.027147811652753664, 
          -0.020066282587944503, 
          -0.024825351212095458, 
          -0.08556109916219548, 
          -0.18556593996481116
        ], 
        [
          0.022720750216078864, 
          0.061075844646703153, 
          0.1371230092605527, 
          -0.12111312846906673, 
          0.15725439557171186, 
          0.12642177010666003, 
          0.06818445811304383, 
          -0.06969736459093756, 
          -0.035865989785542805, 
          0.05327880344417067
        ], 
        [
          -0.03892308439356719, 
          0.07041134477852376, 
          -2.0648829808596863e-110, 
          0.01090043658704653, 
          -0.05509511199732426, 
          0.15342623151683019, 
          0.010728933340727968, 
          -0.06037796689374663, 
          0.08792410400682653, 
          -0.017171137433453342
        ], 
        [
          1.4458195204620632e-182, 
          -5.7094552141799245e-182, 
          1.7593046682723244e-34, 
          3.798120616755298e-180, 
          -1.5084192573179608e-179, 
          8.107023900695195e-175, 
          3.021679866879516e-32, 
          6.191306910145179e-171, 
          5.8228500526314065e-182, 
          -2.779798139616803e-179
        ], 
        [
          -0.06369637304463678, 
          0.13654955652126782, 
          -0.05150375305108223, 
          -0.2506560401453191, 
          -0.07748430879420573, 
          0.0014377621657026048, 
          0.022830731754013935, 
          0.07700123361617135, 
          0.16488929652166806, 
          0.08724808981819102
        ], 
        [
          -0.01001703180186784, 
          -0.14630508533119824, 
          -0.02709673309817231, 
          0.0479973608227392, 
          0.08001068298721567, 
          -0.2341057487925786, 
          -0.1671566151083628, 
          0.31371157944511957, 
          -0.19644329052267354, 
          0.06450484797461055
        ], 
        [
          -0.043656226765478874, 
          -0.003715400787800629, 
          -0.0012191515640949586, 
          -0.024813781904913276, 
          0.02660620037065443, 
          -0.024632879803812683, 
          -0.00995782689585623, 
          0.05912126193949537, 
          -0.06856975116958033, 
          -0.09779749298052334
        ], 
        [
          -0.177964576526373, 
          -0.04547171116901082, 
          -0.06443938906086209, 
          0.22153566238545483, 
          -0.2467432219132257, 
          0.12509160332255131, 
          0.2868106450629735, 
          -0.3486190378291574, 
          -0.0465092525933821, 
          -0.2484710572198523
        ], 
        [
          -0.1570706873352562, 
          -0.12819282556810396, 
          -0.10589461323440386, 
          0.08960557165867039, 
          -0.26115858623169036, 
          0.07229332894551092, 
          -0.14409337148354598, 
          0.19172595091025174, 
          0.11613119422324449, 
          0.0073202666249864235
        ], 
        [
          -0.23796036046212113, 
          -0.12302777054753312, 
          -0.08802946012527203, 
          -0.08916949678312096, 
          -0.06107265887528469, 
          -0.06800688157862077, 
          0.036024042926314455, 
          0.0038306874259996424, 
          0.0864750790667418, 
          0.022761865448854664
        ], 
        [
          0.028921920164080767, 
          -0.02969997875770811, 
          0.06434333018710058, 
          -0.14208096563413633, 
          -0.05819625983368129, 
          -0.09629515706081532, 
          0.025086411777866843, 
          0.03988118230284078, 
          0.05282517203375217, 
          0.11138717431853334
        ], 
        [
          0.018645770071933, 
          -0.07154149667706727, 
          -0.08576321293102636, 
          -0.06700558672878848, 
          -0.12242669657295482, 
          0.1727658354769447, 
          0.15696338826621944, 
          -0.02444798001382353, 
          -0.16029963327130972, 
          0.22483324986141226
        ], 
        [
          -0.03857101974534164, 
          -0.003646464901144368, 
          -6.333544706004472e-05, 
          0.008707974679038574, 
          -0.0395317895613483, 
          -0.006142722072544932, 
          -0.044002907180021145, 
          0.045657985170635594, 
          3.3840582486490683e-21, 
          -0.04631713219174826
        ], 
        [
          -4.494863020444966e-76, 
          -0.04829475983990374, 
          -0.0008466483868964676, 
          0.11755587284823361, 
          -0.0604598247882772, 
          -0.17171306846150403, 
          -0.09616979319654526, 
          -1.909087458938336e-07, 
          -0.11592304931510167, 
          1.781384719884701e-73
        ], 
        [
          0.034813670171107904, 
          -0.11686604825042626, 
          -0.0644109367025838, 
          -0.07882757185999158, 
          0.07495310156346767, 
          0.09629549701986388, 
          0.11624237989949764, 
          0.1463641585553141, 
          -0.01736979139555937, 
          0.1459754402691823
        ], 
        [
          -0.0010285110808587272, 
          0.010139609590384156, 
          -0.006638088588425183, 
          0.0009471169147018202, 
          0.0708277751944153, 
          -0.0790152022980518, 
          -0.0053575915772037285, 
          0.029475941134602262, 
          0.01301699950945038, 
          0.02229809004303713
        ], 
        [
          7.202901104258801e-178, 
          2.151461109524787e-182, 
          -5.5433791441022935e-177, 
          1.0923487997060126e-182, 
          3.130829072247381e-12, 
          2.058058499393754e-182, 
          7.38363974900083e-182, 
          1.1799400527418833e-10, 
          2.758053795920574e-182, 
          8.732618495653042e-132
        ], 
        [
          0.020731020128033666, 
          -0.0880738338788893, 
          -0.04215765265428059, 
          -0.007711417808716215, 
          -0.09005569879486737, 
          -0.12017733956887691, 
          -0.14443976018076057, 
          -0.15052899675491416, 
          -0.034896304639983756, 
          0.019986721673952657
        ], 
        [
          0.0863270485188223, 
          -0.13582253774213301, 
          -0.1838981903622497, 
          0.04778815989362368, 
          0.0467896076473755, 
          -0.0247805326857093, 
          -0.09265566451295616, 
          0.07214533801257912, 
          0.006071752958746012, 
          -0.02077894327123731
        ], 
        [
          0.1163783864911409, 
          0.10425224749708378, 
          -0.033371169953264175, 
          -0.09864531663293456, 
          0.11075998587138382, 
          0.027251438721245035, 
          0.011999963878189423, 
          -0.01432870875715175, 
          0.03335484449237546, 
          0.0132914914674292
        ], 
        [
          -0.007464838450913976, 
          -0.008550617745552897, 
          -0.007624864681139439, 
          0.00712128862884145, 
          3.1311747057986218e-180, 
          -0.007510128176112555, 
          -0.0074091604422057205, 
          0.007436134465072208, 
          2.9956616494472562e-173, 
          -0.01195834111517698
        ], 
        [
          -0.0769958798156895, 
          -0.13295722483653344, 
          -0.053555934149645205, 
          0.19378483474097796, 
          -0.09012614185904183, 
          -0.13363903908374067, 
          -0.15515038779089935, 
          2.3207571634568847e-140, 
          -0.17544040791708707, 
          5.027126524990595e-39
        ], 
        [
          -0.04882021701396711, 
          0.039548221950015346, 
          0.03020191625120276, 
          -0.0020385947107605263, 
          -0.036976953519862965, 
          -0.15690319902476435, 
          -0.03867774992082266, 
          0.0009426938871854223, 
          -0.026580127033213576, 
          -0.08083794539839921
        ], 
        [
          1.765259759951441e-182, 
          8.449763974347019e-173, 
          7.212824030628022e-183, 
          7.546559941966958e-18, 
          -1.0034482224569058e-181, 
          6.836446967791437e-183, 
          -3.024763871336049e-182, 
          -2.1920244286706187e-182, 
          -4.808749990395946e-182, 
          -5.5369587714314854e-182
        ], 
        [
          2.1873751909424288e-183, 
          1.1699567905370977e-173, 
          2.0048301644209675e-180, 
          5.204502404544787e-179, 
          -1.0891734940545909e-182, 
          7.948681349643656e-06, 
          -1.605315830504936e-178, 
          3.607768067901933e-181, 
          -7.660267595292947e-182, 
          -1.2068417945812293e-181
        ], 
        [
          -0.004256422134262186, 
          -0.006171768062435557, 
          -0.10194987353631492, 
          0.06001749130347657, 
          0.10770638907734639, 
          -0.06701280937039601, 
          -0.10097433820554733, 
          0.13382060777708743, 
          -0.19669352088908984, 
          0.0014566667440285978
        ], 
        [
          -0.013213926381516552, 
          0.05371561303699544, 
          -0.09843315386332128, 
          0.037942876995716045, 
          0.13908471975112638, 
          -0.01704437288539146, 
          0.05035813433774434, 
          0.05286911828446637, 
          -0.18724595687238013, 
          -0.0535925829500833
        ], 
        [
          -3.405404208826993e-14, 
          -0.006124602810108636, 
          -3.4611674732073796e-06, 
          0.0030878669170669726, 
          -0.0012479377213095882, 
          -0.006239114018718742, 
          1.3119669923472219e-179, 
          0.006470992907647354, 
          -0.0014522286092163595, 
          1.4607410816112924e-125
        ], 
        [
          2.107800744736704e-06, 
          2.7378255071724186e-12, 
          -3.3280068158206496e-06, 
          -2.2711997891030076e-06, 
          -2.205284213893855e-173, 
          -2.698541187109883e-06, 
          -3.295628966624728e-06, 
          3.035357806649087e-06, 
          -1.0805407692802743e-182, 
          3.9618067499802124e-25
        ], 
        [
          0.009971658588463283, 
          0.008716192628196999, 
          -0.05799143183499737, 
          0.11651569297249757, 
          -0.1699250804061502, 
          -0.17222145022505128, 
          0.02678855910551235, 
          -8.034954033796109e-175, 
          -0.0762946385944077, 
          -0.03835876501688202
        ], 
        [
          -0.08346865563266977, 
          0.046728765871879366, 
          -0.007785823159667599, 
          0.09185944557918765, 
          -0.09617671723789604, 
          0.04692078761522077, 
          -0.10353103745603111, 
          0.13153490302259477, 
          -0.11445872541555804, 
          0.00590950593013498
        ], 
        [
          -1.1613121431435744e-05, 
          -0.00460609242254053, 
          -5.010110913708655e-06, 
          0.0023846764611593772, 
          -0.0022343803552002345, 
          -0.004710556390253678, 
          3.09193800680888e-176, 
          0.004918963257164528, 
          -0.003331209636002462, 
          3.9880020984103766e-111
        ], 
        [
          1.5047652776681137e-182, 
          -1.0243670655931692e-181, 
          -2.4091050173433384e-182, 
          1.8277008912551117e-182, 
          3.856920868513557e-14, 
          1.100919530814906e-180, 
          1.0517494723445283e-181, 
          -4.343310342483828e-183, 
          -3.259913686610436e-181, 
          2.425689173034912e-181
        ], 
        [
          -0.06562329746308217, 
          -0.0227167435375743, 
          0.03364765293645344, 
          0.002116146669038954, 
          0.04424519422942599, 
          -0.1047616424396267, 
          -0.0011495212114826941, 
          0.11325802212816775, 
          -0.13495080039010027, 
          -0.10154523163938686
        ], 
        [
          -0.04832712677418642, 
          -1.7858888606997099e-75, 
          1.622034067440472e-182, 
          0.026185363167183836, 
          -0.011633738962237471, 
          -7.521400824475593e-162, 
          -0.013059745536064706, 
          0.012603789829614062, 
          -0.021002354716255795, 
          -0.006388565129924933
        ], 
        [
          0.026147374393126754, 
          0.032780714011918004, 
          1.948905984907982e-160, 
          -0.022730923315527642, 
          0.03039944643253422, 
          0.03314800530627794, 
          1.397836266831302e-17, 
          -0.033898914986943696, 
          3.2909394915856047e-139, 
          0.03897776302545525
        ], 
        [
          -4.561893818472956e-177, 
          -2.8364309564640724e-182, 
          -2.4910797854951275e-178, 
          6.185822796800004e-182, 
          -9.336583755132896e-183, 
          -1.2208489707054504e-182, 
          1.1837315429293858e-182, 
          -8.978278719351477e-183, 
          2.681940248873645e-181, 
          5.732211580618743e-182
        ], 
        [
          0.06334236987549041, 
          -0.007041166491198162, 
          -0.04644960898920774, 
          0.0053735072362731595, 
          1.6281565389632617e-10, 
          0.08159402668844129, 
          -0.03559764016745315, 
          0.021506382905149248, 
          0.03754824253438799, 
          0.042136453663433285
        ], 
        [
          -0.056527066790040756, 
          -0.07342065573349034, 
          -0.08371882951096288, 
          0.05359404999540513, 
          -0.06859756294685727, 
          0.009599699570464625, 
          -0.07949274638401045, 
          0.07564147665168201, 
          1.6722169096076047e-155, 
          -0.08630669723606908
        ], 
        [
          0.050029048848290694, 
          0.04039253807062348, 
          7.486082367444604e-72, 
          -0.035321435826146566, 
          0.061397337722784155, 
          0.004556834706377283, 
          4.438892713961232e-145, 
          -0.007935488996427759, 
          0.05738896294000123, 
          0.01357199694372078
        ], 
        [
          -0.0008638173171980117, 
          -0.004228678431580131, 
          9.7018538009033e-73, 
          0.0020430112342793585, 
          1.0354963704043824e-163, 
          -0.0019396785020814522, 
          6.588501230137438e-181, 
          0.0046932116758778685, 
          -0.004690913347445288, 
          -0.0014631169167215244
        ], 
        [
          0.11043999531255291, 
          -0.003811318843967549, 
          -0.09213095487784505, 
          -0.24031483500285125, 
          0.022505959892784345, 
          0.08769674645189206, 
          0.22478861700684633, 
          0.06252328773460625, 
          0.13474923023345817, 
          0.06456520876642842
        ], 
        [
          0.025228625816904705, 
          -0.13095694564867355, 
          0.09229514128940638, 
          0.02102495398920927, 
          0.03964487363834288, 
          0.05433403717151853, 
          0.19804350971410073, 
          -0.08131689246354194, 
          -0.030386580456635223, 
          -0.08210658989850264
        ], 
        [
          0.02792629136190536, 
          0.07704362933536404, 
          0.20760178768193877, 
          0.03381770998308086, 
          -0.1506292797078079, 
          0.09392388935525821, 
          0.2629860275064764, 
          -0.12031028603850571, 
          0.08529979415839387, 
          -0.11300040122336583
        ], 
        [
          -0.0710173988986729, 
          0.03155563828083481, 
          0.07407772299528377, 
          -0.03513587964073191, 
          0.016793201150012822, 
          -0.11636826445669696, 
          0.010638643590299278, 
          0.07761942241960916, 
          -0.19481189151558673, 
          0.0001902457197861019
        ], 
        [
          0.11746270713471918, 
          -0.2478245611881541, 
          -0.16577074922324583, 
          0.12621790374905514, 
          -0.0014576033967637271, 
          -0.12322669972059123, 
          0.12185891824541495, 
          0.01365345602749802, 
          0.1470920862599874, 
          0.15307761472852643
        ], 
        [
          -0.13054023431249945, 
          0.05128787160582519, 
          0.1620725948964704, 
          0.01932959585424379, 
          0.029977290003472445, 
          0.20880323305858947, 
          -0.09747650353816398, 
          0.17843253259433614, 
          -0.20705623472804827, 
          0.15752344521833242
        ], 
        [
          0.08212532586987788, 
          -0.10080250009189905, 
          -0.12412345483781538, 
          0.1525156651760691, 
          0.023653735648404808, 
          0.14106961573180823, 
          -0.19829048233812394, 
          0.15977013018793734, 
          0.14942852732790948, 
          0.12027203578158588
        ], 
        [
          -0.057945758365771476, 
          0.16610007594507997, 
          -0.1306424117865499, 
          0.17798565236676234, 
          -0.1433241992547383, 
          0.08266846941015937, 
          -0.014365977460317663, 
          0.17610481912218068, 
          -0.10235023966009421, 
          -0.07711639784164759
        ], 
        [
          -2.6851913468062073e-183, 
          7.004498618104099e-174, 
          1.5916266744261278e-182, 
          2.0820664831535113e-173, 
          -4.2194628740919976e-182, 
          -2.5146346167024833e-97, 
          -5.33084504809201e-183, 
          -1.0294690681412257e-181, 
          6.497888310283821e-181, 
          1.0484296881230541e-182
        ], 
        [
          0.04055432404982293, 
          3.3685316965802585e-08, 
          0.00043293572259614363, 
          -0.03852289433233865, 
          3.384574274409814e-05, 
          0.051697109423166104, 
          5.3505183359028277e-182, 
          -0.054162488225076695, 
          0.053531915528707265, 
          0.06083396390282002
        ], 
        [
          -3.504375718720224e-182, 
          2.6720382746687865e-179, 
          1.5748967615886265e-181, 
          -1.434083012529235e-172, 
          3.8154679654249516e-176, 
          7.469764644656352e-175, 
          2.8158383460448277e-182, 
          8.26608663805551e-183, 
          1.4445191245984523e-181, 
          3.4802605404993315e-178
        ], 
        [
          4.1532285546399384e-176, 
          3.407785000567757e-176, 
          -8.5886801642129e-13, 
          2.0507011618703414e-172, 
          -3.1146011926365786e-178, 
          2.807141281588139e-178, 
          -3.107181930166236e-182, 
          -1.7918514356158591e-180, 
          -1.3907160134977167e-181, 
          -5.6860666729078756e-24
        ], 
        [
          0.06357512615746214, 
          0.11521908963659389, 
          -0.19587904925439129, 
          -0.09260084508631339, 
          -0.1479366458296477, 
          -0.08644132089376279, 
          0.032204803262022345, 
          0.02264481677546613, 
          -0.05709957997824133, 
          0.07509960202806672
        ], 
        [
          0.08479689854765741, 
          0.11927973449755111, 
          0.06773868160229068, 
          -0.08943863762707961, 
          0.018538416756514634, 
          0.1095276806927987, 
          -0.08689775086328269, 
          0.042626363289919936, 
          -0.05278172366635627, 
          0.04839223995520036
        ], 
        [
          -0.01629672932952113, 
          -0.0477735964121838, 
          -0.15913379503866923, 
          0.04439693792441331, 
          0.16039400131554868, 
          -0.13762912260361135, 
          0.006551762085438663, 
          -0.0617209453172381, 
          -0.005992711336075818, 
          0.024598782741656545
        ], 
        [
          -0.022566294015984055, 
          0.15551125286901274, 
          0.05514653589708227, 
          -0.04017956634786432, 
          0.21875593764021734, 
          -0.11885002074803745, 
          0.037248641504794, 
          0.03233745124880118, 
          0.04240525754456057, 
          -0.2339002762559638
        ], 
        [
          0.076280725099523, 
          -0.018627959841512543, 
          -0.09643466339059104, 
          -0.09422663717661749, 
          -0.13038711527542338, 
          0.20784097431991386, 
          0.04199440642159681, 
          0.03866850237772452, 
          0.08001995817900473, 
          -0.05770705494765406
        ], 
        [
          -0.040011067982982484, 
          -0.05810064182829686, 
          -0.02018403298987265, 
          0.021687013152087313, 
          -0.01984680019219316, 
          -0.014261381252448186, 
          0.02836698691250115, 
          -0.04533510401043392, 
          -0.06786614656297014, 
          0.08735660601485659
        ], 
        [
          0.11487117631105054, 
          0.22364339484449694, 
          0.17330184313228675, 
          -0.01516527636670993, 
          -0.04367908696087439, 
          -0.010026153382582585, 
          -0.04401380439404516, 
          0.1609406575355022, 
          -0.13896089302182763, 
          0.05230445912054353
        ], 
        [
          0.04969103137474857, 
          -0.0824407041504465, 
          -0.033868072389574004, 
          -0.009256412134534184, 
          0.15167597878159014, 
          -0.17284927473063474, 
          0.007703255337356661, 
          -0.05698784010247994, 
          0.22892102396238476, 
          0.01289684628513713
        ], 
        [
          -0.017984873822522524, 
          0.22854052716042966, 
          -0.06417964455191681, 
          -0.02067866754086607, 
          -0.025169026621283758, 
          0.2038866476538186, 
          -0.024991022772606637, 
          -0.03427876236268953, 
          -0.10136825698523425, 
          0.10580078402318485
        ], 
        [
          -0.01138841399400433, 
          0.00300328195128939, 
          0.07337094697961224, 
          -0.03193955596073313, 
          0.04268827410657138, 
          -6.115348448603244e-05, 
          0.029520490783612206, 
          -0.0025069606564500574, 
          -0.010715982863435017, 
          0.002362805001429532
        ], 
        [
          -0.02020246612689367, 
          0.01269613439532373, 
          0.10794250143284097, 
          -0.06321920184955648, 
          0.09131196491885742, 
          0.122459522519701, 
          -0.01991080458717672, 
          0.014042842521148811, 
          0.09852474049281877, 
          0.15744252300742156
        ], 
        [
          -0.016797999472258577, 
          1.266894848194556e-120, 
          -0.02279172948786057, 
          0.01587603118287987, 
          -0.01710774781159581, 
          -2.5214467186715106e-80, 
          2.2945014473448508e-156, 
          0.0226844065059346, 
          -0.022557460679049804, 
          -1.9474718271174487e-182
        ], 
        [
          0.022243581377906583, 
          0.025804096092342733, 
          -0.03497794902905304, 
          0.04978842797764306, 
          0.014715483868004592, 
          -0.07443025608934964, 
          0.03189555616442232, 
          0.08755708416027796, 
          -0.044850115791271274, 
          -0.03893240047536603
        ], 
        [
          0.0020421754540901308, 
          0.013024852315747435, 
          -0.0018486838024407886, 
          0.003056869090084839, 
          -0.0024033155866816517, 
          -0.002063101769805414, 
          -0.009941185755768753, 
          0.028138811767370337, 
          -0.02803578294535888, 
          -0.0015838881917391674
        ], 
        [
          -4.601042740332199e-113, 
          0.00340569777419645, 
          0.055206252291663586, 
          -0.004005990632615391, 
          0.00391791523742897, 
          0.003965263399289981, 
          -3.7534638915272706e-141, 
          -0.003981569480699772, 
          0.003890124893609914, 
          -1.0556261035638984e-182
        ], 
        [
          -6.267938969890667e-182, 
          -3.394264990169015e-176, 
          -2.1952449652942926e-184, 
          0.013062956939083529, 
          -0.01599336669930019, 
          -0.01704100702372882, 
          4.327495400567965e-163, 
          0.017288037062398533, 
          -0.01722837065495687, 
          -0.01920774998466878
        ], 
        [
          -0.25299112400632345, 
          0.22377233364386848, 
          -0.032871649722407484, 
          0.039253767262093564, 
          -0.14518635367965746, 
          0.338522022720744, 
          0.0594031700138111, 
          0.09990569047931691, 
          -0.2745431063350331, 
          0.10663260183925945
        ], 
        [
          0.0021854227849297564, 
          0.02383345447854903, 
          0.027871239814190645, 
          -0.0013531663005585024, 
          -0.0564319099399616, 
          0.03591061544828007, 
          -0.057857028038403646, 
          -0.0815288886271221, 
          0.0737709950347284, 
          -0.06715588336106568
        ], 
        [
          0.046316527130586246, 
          -0.15883624800772636, 
          -0.130768549834116, 
          0.050602685055773186, 
          -0.16337709923316246, 
          0.015241884869293969, 
          -0.028337305052241073, 
          0.1620436120040189, 
          0.07658624885144769, 
          0.07564061186752916
        ], 
        [
          -0.031852453739739314, 
          0.03153739425905847, 
          0.0037114235824424833, 
          0.024033018079574482, 
          0.05027621852269903, 
          0.005638139704366826, 
          2.0188938470469436e-128, 
          0.05722839642715093, 
          0.032904848224116656, 
          0.0214275441486113
        ], 
        [
          0.1306534978083204, 
          0.0419653691505392, 
          0.10527040606384706, 
          -0.05877230289282186, 
          0.1272169509201634, 
          0.10003555812500046, 
          0.1883217468292402, 
          0.03832671527670497, 
          0.04632136642716226, 
          -0.011180788500370662
        ], 
        [
          -0.04365443094787437, 
          -0.05472639504777202, 
          -0.043851051679708195, 
          0.032550247735325416, 
          -0.03556243705361587, 
          0.010524297205441346, 
          -0.0581235975991631, 
          0.02851598174907307, 
          0.01974443865473107, 
          0.015978452320947235
        ], 
        [
          0.004549264849765978, 
          0.031878944461785845, 
          0.0442345811873902, 
          -0.032801848566550475, 
          0.04553176767989406, 
          0.0121477892050528, 
          0.03923743661664571, 
          -0.030877576646784755, 
          0.009391091581813496, 
          0.01760855789702492
        ], 
        [
          -0.022034512047147414, 
          -0.006533333412205576, 
          0.01821415016929563, 
          -0.011725482566557473, 
          -0.009079809137816763, 
          0.017176001322686447, 
          -0.028660348676058163, 
          0.010141972985767186, 
          0.017435355160282547, 
          0.019978426780821207
        ], 
        [
          -1.7603315624850451e-180, 
          -3.1796998750692325e-177, 
          -5.674430018562743e-181, 
          -1.934809069621741e-176, 
          1.1195500774327409e-182, 
          3.310570151156985e-174, 
          6.424660308320431e-181, 
          -5.892430418584455e-10, 
          6.596459107096868e-174, 
          2.0242618687237636e-182
        ], 
        [
          1.3319115287266533e-181, 
          -1.836045768568347e-182, 
          3.0924656900673064e-22, 
          3.310430566341041e-185, 
          9.458831925582465e-179, 
          -5.9968253703572e-183, 
          4.014892950207976e-179, 
          8.334526816756867e-182, 
          -2.6405831570931585e-182, 
          -1.5153632315554984e-182
        ], 
        [
          3.6843117860259473e-31, 
          -1.829319184035937e-179, 
          2.0020865189427212e-182, 
          -1.066538519398007e-175, 
          3.503428859833551e-182, 
          8.222100410217215e-177, 
          3.62414429683785e-181, 
          7.239882311411374e-181, 
          -2.078016390756024e-08, 
          -4.934584578826438e-182
        ], 
        [
          2.624125567984347e-179, 
          1.1500112682424318e-179, 
          2.7953460243731997e-179, 
          -1.534739335594431e-182, 
          2.9902093066608184e-179, 
          1.992797618920013e-182, 
          7.911399807287942e-182, 
          -1.1514901014653548e-179, 
          1.0198365471775136e-182, 
          2.1067947305424603e-08
        ], 
        [
          0.011329160705291885, 
          -0.0412044911788669, 
          0.0005903101314843247, 
          0.08342059695592113, 
          0.1756239087638304, 
          -0.15091177779409454, 
          0.07894315824355085, 
          0.14477573396938875, 
          0.09521843832511892, 
          0.08409988108966383
        ], 
        [
          0.010047302849607058, 
          0.04534516850702312, 
          0.11008969851002305, 
          0.022198359276361396, 
          -0.12069502432694988, 
          -0.0543869934885213, 
          -0.017501561949660953, 
          0.08296644160218751, 
          0.15003541953502006, 
          0.09598286934908182
        ], 
        [
          0.1521818756675098, 
          -0.02375324029133812, 
          0.031214989107636256, 
          0.08612492202095663, 
          -0.028642337250313062, 
          -0.2216959198629466, 
          0.16981524153986813, 
          0.07158912728524344, 
          -0.029107040444741893, 
          0.15974184320369855
        ], 
        [
          -0.01701603663916467, 
          0.047635323157478336, 
          -0.026875287671086892, 
          -0.06142822005070977, 
          0.223123832884813, 
          0.19049692542260493, 
          0.05604044019241312, 
          -0.12269558808173689, 
          -0.002464035704572867, 
          0.2880141347571162
        ], 
        [
          -0.05400346115627571, 
          0.3753642831598274, 
          0.1440074291627575, 
          0.000530881508375769, 
          0.08942515303190558, 
          -0.013007838854945252, 
          0.13679297213309755, 
          -0.2186072455531671, 
          -0.08741973521032669, 
          -0.08634043698962116
        ], 
        [
          -0.05790038004879472, 
          -0.03048880902442532, 
          0.030639176165343396, 
          0.06903982603722154, 
          0.037695779282437156, 
          -0.12139215318195283, 
          -0.10291391623539607, 
          0.06560310078161957, 
          -0.01701138076546551, 
          -0.00470549307799622
        ], 
        [
          -0.01590270215196457, 
          0.055469188413034116, 
          0.045668111955656523, 
          -0.04328540340615862, 
          0.0040116810587666725, 
          0.028261417112446188, 
          0.09060425120737584, 
          0.11933167473057811, 
          -0.05452969829861464, 
          0.10890984987410447
        ], 
        [
          -0.051259578419160734, 
          -0.21771265682878563, 
          -0.1804844565446794, 
          0.17682319893510076, 
          -0.008263153757874677, 
          -0.05586877201045216, 
          -0.10583493952490765, 
          0.029499854157917307, 
          0.051216580848550824, 
          -0.029508692467521323
        ], 
        [
          1.860402264273971e-182, 
          -3.3682686598029163e-180, 
          -3.2144579819338015e-180, 
          2.6390684904572367e-181, 
          1.7388954445216222e-182, 
          -6.649535553611078e-183, 
          6.253057084613598e-182, 
          6.906237771242533e-175, 
          4.096424554850201e-181, 
          -2.0551333679442486e-181
        ], 
        [
          -1.3187155666445755e-182, 
          4.9787025121530774e-182, 
          -1.943044286352616e-180, 
          1.807625437345526e-183, 
          4.7834817221088914e-182, 
          7.158794800540588e-182, 
          -3.2249827654425784e-181, 
          7.227722737800903e-181, 
          -3.4643186562566186e-182, 
          1.8519466879619233e-180
        ], 
        [
          1.2563211539771903e-175, 
          -5.4928225292380483e-182, 
          -5.439485504468709e-181, 
          6.031658182464143e-180, 
          7.984531505806503e-183, 
          3.374034728752114e-171, 
          -1.5351743234870162e-177, 
          -9.544084932209209e-184, 
          -1.3811425049670636e-182, 
          -8.057227346356321e-177
        ], 
        [
          -1.3367799199483037e-182, 
          -4.439251238740417e-183, 
          -3.2928193487117394e-179, 
          -9.631118093470581e-180, 
          -8.115852414825109e-183, 
          -4.0813450886277935e-181, 
          -4.657122094329533e-182, 
          -9.786284657387422e-180, 
          1.1755935230229283e-182, 
          5.116423036859651e-183
        ], 
        [
          0.13588236222414776, 
          -0.11895012979227179, 
          -0.0014577607425890408, 
          -0.2733035329200924, 
          0.1859950624362135, 
          0.05521304691373448, 
          0.02295388730684911, 
          -0.007373709231651672, 
          0.05808653470213452, 
          0.2420059294912614
        ], 
        [
          0.11660075031430502, 
          -0.021173150738002848, 
          -0.06049818431464611, 
          0.030410055748279576, 
          0.15707923055225337, 
          -0.0393368680520914, 
          0.005802480109195414, 
          -0.09658869795441645, 
          -0.10816416893256817, 
          -0.09299874977433666
        ], 
        [
          -0.11506542760797459, 
          0.1028658504942849, 
          0.18503233771048452, 
          0.0003865902334317852, 
          -0.08836284704425569, 
          -0.03849621163174994, 
          -0.2511579291768661, 
          -0.03243304293450438, 
          0.2818763904793846, 
          0.1397440647228075
        ], 
        [
          0.0036802248745386097, 
          -0.07239326573349056, 
          0.05586043386458699, 
          -0.015360584457140404, 
          0.004450906494387809, 
          -0.36870032298077393, 
          -0.07052363913908152, 
          0.024967487113103568, 
          -0.08986846091878825, 
          -0.0642529053544534
        ], 
        [
          0.062271617130987375, 
          -0.26285225069789514, 
          -0.058335123655178976, 
          -0.04079910628687777, 
          0.16439802011162774, 
          0.020859729184880046, 
          0.17913852492274404, 
          0.14371788186793039, 
          0.17826088118399477, 
          0.2550327377806199
        ], 
        [
          0.044408174841742955, 
          0.10471003203343947, 
          0.16399047217670293, 
          -0.05066064629682169, 
          -0.06941954116441214, 
          0.07976623145095206, 
          0.14087418307976857, 
          0.10736308002737027, 
          0.20192165289880237, 
          0.10792892132893246
        ], 
        [
          0.17617944281340533, 
          -0.18119291028581852, 
          -0.03624757064484552, 
          0.19743510680397977, 
          -0.13316400342242973, 
          -0.1944687406392736, 
          0.05524782295512735, 
          -0.031412174648636555, 
          0.10471202993981961, 
          0.09838918237937874
        ], 
        [
          -0.2084355491765217, 
          0.06918352162378963, 
          -0.016819904692348654, 
          0.054099113188553385, 
          -0.007060579231753127, 
          0.09726746875620493, 
          -0.1979848082629076, 
          0.07434861007959032, 
          -0.06276616743105433, 
          0.020905927667435303
        ], 
        [
          -2.7331763948925945e-183, 
          -1.967612007055828e-182, 
          2.9835040725080705e-170, 
          1.0167067650833361e-173, 
          -3.481912873518887e-180, 
          5.1347955268959706e-179, 
          2.125058097120768e-182, 
          1.0237182517439855e-181, 
          1.0863940477114536e-177, 
          2.0584346483562646e-182
        ], 
        [
          0.049799730754896396, 
          -0.033056393780716266, 
          -0.04443080975249542, 
          -0.040069473726695455, 
          -0.049209155028831233, 
          0.03757480282687136, 
          -0.0780926748351576, 
          -0.11578931856220281, 
          0.05829706406283531, 
          0.06615948873027105
        ], 
        [
          -0.050824064340846936, 
          -0.035667573736313955, 
          0.026394991391563597, 
          0.01216561544530381, 
          -0.034664522987315316, 
          0.006383134659454331, 
          -0.05939516322636204, 
          0.010476802148453214, 
          -0.007699419514368937, 
          -0.018124267183341113
        ], 
        [
          1.1800019274505571e-173, 
          9.205870063845828e-180, 
          1.3566381078093755e-182, 
          5.252031882126005e-183, 
          1.3183780863455417e-182, 
          -6.57260081229537e-182, 
          7.57422743382844e-183, 
          -8.962662185461145e-182, 
          1.0196765281790057e-151, 
          3.2430955062278228e-183
        ], 
        [
          3.736932620087912e-165, 
          1.308136398329448e-182, 
          1.3617269600323963e-182, 
          7.443386686444475e-184, 
          1.2445013153224968e-182, 
          -1.5343883383707796e-182, 
          1.1296910144169628e-181, 
          -1.6928077708588818e-182, 
          3.8710877905798915e-176, 
          -2.462180489629957e-182
        ], 
        [
          0.0029747851237018367, 
          -0.03135683802894597, 
          -0.019306594133702813, 
          -0.00265949398354477, 
          -0.029528236704334986, 
          0.011069436572301208, 
          -0.03275766490607159, 
          -0.033479544508659004, 
          0.003404082386779288, 
          0.003446368942148327
        ], 
        [
          0.018577583814452826, 
          -0.0016029312229633981, 
          -0.0019346778520735089, 
          -0.016891698187796855, 
          0.019593874355080747, 
          8.935101847178936e-138, 
          -0.002024280167392238, 
          0.0003233099088768945, 
          0.020559436646244426, 
          0.02730854055967937
        ], 
        [
          -0.02345914660738598, 
          -0.0030361181235266837, 
          0.03246535789716293, 
          -0.013858865453112034, 
          -0.0032344117273869146, 
          0.006383136150959283, 
          -0.03452152878065894, 
          -0.019112518372358937, 
          -0.0017528848902566689, 
          -0.002625546642282242
        ], 
        [
          0.04123371104140418, 
          -0.09420706223765679, 
          -2.2945758144307823e-81, 
          0.0875900912887661, 
          -0.056956939075130976, 
          -0.04310683174956722, 
          -0.1828882729059252, 
          0.12705798537178847, 
          0.04177257178800816, 
          -0.004235645642862065
        ], 
        [
          -0.036570191888390974, 
          -1.3761250174163758e-26, 
          -4.208135297397268e-21, 
          0.034356712059378, 
          1.684548291582963e-58, 
          -0.04162853257513109, 
          9.400656748799523e-177, 
          0.04238655867585125, 
          -0.042239613025282216, 
          -0.048126558221509894
        ], 
        [
          -0.006082492126696541, 
          0.023267868485323674, 
          0.0002243258653557309, 
          0.005462311873391908, 
          0.018999747320620722, 
          0.030695187013087027, 
          0.037084625285955936, 
          -0.02078705282913154, 
          -0.012764307115589107, 
          0.042310012237955885
        ], 
        [
          -2.765389802620073e-180, 
          1.2749725641565193e-177, 
          -5.4808928095960126e-182, 
          -4.892547126883068e-183, 
          3.7684948121627764e-182, 
          7.138038063512324e-182, 
          9.039508930745081e-175, 
          -1.253067491581694e-182, 
          -2.2584468460342414e-181, 
          8.581614274140754e-183
        ], 
        [
          -0.023394137911320785, 
          -0.044544314797831656, 
          -0.0015347610054492057, 
          0.055089995221152745, 
          -0.06201991044139862, 
          -0.04907161064727485, 
          -0.049371950215279466, 
          0.08002795010321866, 
          -0.030033412744525048, 
          -0.007948056337320309
        ], 
        [
          -0.03686106909675173, 
          -2.0291603433601663e-05, 
          -1.2912719423966116e-36, 
          0.03370397627812614, 
          4.647815247605511e-05, 
          -0.04262478225327484, 
          5.588243804219947e-05, 
          0.04507734886016823, 
          -0.04346016918106747, 
          -0.04845402988675469
        ], 
        [
          -2.4130398597614414e-182, 
          -1.9548659662474538e-183, 
          -9.152671242251921e-178, 
          -5.199287058896542e-172, 
          -1.3820271697419693e-182, 
          1.0025379751492042e-181, 
          -1.7421643472568324e-06, 
          4.474626211953369e-183, 
          -1.4640794582446418e-05, 
          1.982554196683175e-182
        ], 
        [
          0.0008591423703890146, 
          0.0016442248138578087, 
          -5.523265980157429e-147, 
          -0.0005912597821411957, 
          0.0013735479413877491, 
          -6.27998650652607e-93, 
          0.0020894062371152617, 
          -0.0018314169800060544, 
          9.156376623420644e-33, 
          0.002561001794661438
        ], 
        [
          2.9973441917822937e-179, 
          5.04606733562501e-182, 
          1.2210964114684783e-182, 
          -8.789996644114621e-177, 
          1.1153571220643315e-181, 
          4.4634652097162984e-179, 
          9.252557550604308e-182, 
          -1.1976445660889049e-182, 
          -1.956727388621673e-181, 
          -2.0678323165942188e-181
        ], 
        [
          -0.063710614961452, 
          -2.237502222082292e-80, 
          -2.017137241937328e-68, 
          0.05495714709243984, 
          -3.5970180739807983e-104, 
          -0.07961227231284375, 
          4.84810143906018e-182, 
          0.08122821718720999, 
          -0.08092669477773537, 
          -0.09150147039588148
        ], 
        [
          0.011638942971464453, 
          0.014866208302187512, 
          0.015933250418618136, 
          -0.009876313937835878, 
          0.013551039446527646, 
          7.370186335172451e-101, 
          0.016069256239709704, 
          -0.015263252149090125, 
          -2.1636405595704636e-139, 
          0.01773148246843851
        ], 
        [
          4.669991603901589e-180, 
          4.1082726759880014e-180, 
          4.6306498498547874e-182, 
          1.6591848865982098e-23, 
          4.703563020761532e-179, 
          4.337774104463775e-182, 
          -5.3932346921376706e-179, 
          9.21219798435674e-183, 
          4.359689707894176e-183, 
          9.16974788194129e-182
        ], 
        [
          2.8181919085005827e-182, 
          1.736325965147159e-183, 
          -2.437566376647088e-180, 
          -3.109813215483658e-182, 
          -1.4948347042108016e-182, 
          2.024978721432627e-182, 
          -6.913981800170977e-176, 
          -5.611450058527221e-10, 
          -8.617027580954883e-185, 
          -5.961260281521597e-182
        ], 
        [
          0.040555315598913524, 
          3.36864401510539e-08, 
          0.00037302585809046677, 
          -0.03796712127769861, 
          3.385013241819639e-05, 
          0.05136975878967952, 
          -6.145985984738388e-07, 
          -0.053617166684373344, 
          0.05354288788564804, 
          0.06081116540920533
        ], 
        [
          -2.7467131278450418e-05, 
          -8.807084149601763e-179, 
          -7.627343575138824e-42, 
          -8.785308655435748e-178, 
          -1.2363403374402087e-175, 
          2.9723341609842016e-73, 
          6.201645325530129e-172, 
          -2.1526844443331127e-182, 
          2.2965633757442664e-182, 
          9.41298111649895e-183
        ], 
        [
          2.099034974930428e-183, 
          2.838156789611073e-182, 
          -1.019253142139066e-182, 
          4.649080648070405e-180, 
          -3.159865181327868e-172, 
          -1.3944149879426022e-182, 
          -6.571410005002188e-179, 
          -8.126201382940126e-32, 
          -6.87154300845298e-183, 
          -2.4915812171381126e-10
        ], 
        [
          1.1774371629651757e-182, 
          3.766875066536749e-182, 
          -4.769420420213879e-182, 
          1.8319818542467762e-153, 
          -7.613621164394208e-182, 
          -2.1476937923022684e-12, 
          1.2111428321245452e-173, 
          -1.9397576095935296e-178, 
          8.263589926082792e-172, 
          -1.5871140532790294e-179
        ], 
        [
          0.00860139972354949, 
          -2.3173877820518184e-22, 
          -8.486502925709089e-14, 
          -0.0079371484919434, 
          1.4193390775651432e-28, 
          0.010974397171376726, 
          3.4422065997363005e-176, 
          -0.011442502789853023, 
          0.011458933898041325, 
          0.013194860405299299
        ], 
        [
          0.015674490512012404, 
          0.041488991784551996, 
          0.03268240454121287, 
          -0.03185879797406406, 
          0.03879803759328296, 
          0.031102453407124225, 
          0.04345587565008946, 
          -0.01632938731682922, 
          0.016285241448589373, 
          0.04669373722264863
        ], 
        [
          2.0273667371493477e-182, 
          2.5835237448863246e-180, 
          1.0794548608101039e-179, 
          -5.934771820368875e-181, 
          1.8065828849259886e-182, 
          -1.0389812974691957e-179, 
          5.700199366895204e-181, 
          1.47201569675237e-181, 
          1.2432888396451053e-176, 
          -1.3881854957432663e-182
        ], 
        [
          0.031998894378193, 
          0.04737151909042941, 
          -0.169818861340518, 
          -0.19673021510407165, 
          0.057086854905373116, 
          0.13875131529762133, 
          -0.04472498016036605, 
          0.03278655205553913, 
          -0.07059833591746653, 
          -0.1875664845263992
        ], 
        [
          -0.16444281198244043, 
          -0.10512677831738579, 
          0.09933472713797889, 
          0.013601807942799724, 
          0.04031751362389904, 
          -0.07622232260559794, 
          0.07611520583094651, 
          0.001084487441464498, 
          0.08445158981507024, 
          0.04826504807505156
        ], 
        [
          0.009632593786954812, 
          0.1129621193754111, 
          0.028183533367152066, 
          0.0830049401127234, 
          -0.06804975101094148, 
          -0.12265461826843338, 
          0.12216695067644151, 
          -0.05929757737655013, 
          -0.10508540677183682, 
          0.0028961593656947173
        ], 
        [
          0.004840146091619059, 
          -0.03913014366859374, 
          -0.0396495259779368, 
          0.026885416165829356, 
          -0.030072331668392106, 
          -0.08840683354251605, 
          0.017152798497457527, 
          0.060467272344822194, 
          0.05615254896713252, 
          -0.08647429993301248
        ], 
        [
          0.06917235716300979, 
          -0.07250932752876034, 
          0.14974687390517202, 
          -0.20539065830626127, 
          0.1667229706347156, 
          -0.1296729543310791, 
          0.018968244996698566, 
          0.042518833767825094, 
          0.01708117473240242, 
          -0.28263220865323013
        ], 
        [
          -0.12049886388872656, 
          -0.2075628059137719, 
          0.018541555180584868, 
          0.043996087504412244, 
          -0.053624180468337626, 
          -0.10271888993658737, 
          -0.09114330250540306, 
          0.06269041774451349, 
          0.15485177673116057, 
          -0.010453797215235833
        ], 
        [
          0.11798423371569919, 
          0.15331018269807006, 
          0.17599800401034463, 
          -0.0973985216840011, 
          -0.09383146410384718, 
          0.01525770289600177, 
          0.1490568619020121, 
          -0.17353480800050491, 
          0.09407218350523235, 
          -0.02586983268492833
        ], 
        [
          1.5217785612061687e-169, 
          -0.0001497520979818894, 
          -0.00020552459922140346, 
          1.828659107131662e-05, 
          8.737039384427799e-181, 
          -5.2111327059132904e-160, 
          -5.145003310742136e-178, 
          0.0001801149182312363, 
          -2.1943694047986716e-182, 
          -6.591361400156174e-181
        ], 
        [
          0.03125086314588259, 
          0.17691667806021422, 
          0.20271414452611078, 
          0.19835971505984967, 
          0.061502223555864564, 
          -0.2091793679766058, 
          0.296891141752422, 
          -0.04415085500956434, 
          -0.2465794846915917, 
          -0.0016936747374531344
        ], 
        [
          -0.051799135683836685, 
          -0.07403644630162894, 
          -0.15043867749943912, 
          0.019937779970186205, 
          0.024496747358566506, 
          -0.16301424729986524, 
          0.0362425614375369, 
          0.03864265926198701, 
          -0.026352012048486567, 
          0.037362414329146894
        ], 
        [
          0.061165334362686945, 
          -0.046396214137901196, 
          -0.019298028702494745, 
          0.055070832462373376, 
          -0.024191090307569715, 
          -0.22228670571145, 
          0.05716163435294373, 
          0.03877565009256162, 
          -0.038839624079663536, 
          -0.2510436769057687
        ], 
        [
          0.055041292488647905, 
          0.060506879916597874, 
          0.0634442106092269, 
          -0.04956938505927564, 
          -0.030071279669934625, 
          -0.03734143483591931, 
          0.06933360772139159, 
          -0.04387281117579389, 
          0.061996920392218796, 
          2.0781154895137808e-175
        ], 
        [
          -0.14807433984657767, 
          -0.09372925215814772, 
          0.08299115916529476, 
          -0.13599242933791422, 
          0.1267340552369869, 
          -0.13834370660768436, 
          0.18545424734388022, 
          0.07842152141490996, 
          0.09429808830984282, 
          0.1861426293280871
        ], 
        [
          -0.056265185747567406, 
          -0.03300622937297221, 
          -0.04303479230589576, 
          0.06729706109327563, 
          -0.0001758759359666638, 
          -0.07680639385398223, 
          1.1479068539971249e-181, 
          0.09314905858292245, 
          -0.09286721131307202, 
          -0.08488892763598306
        ], 
        [
          0.00988575600338546, 
          6.925050840419945e-13, 
          0.013868800066931492, 
          -0.008304526470777686, 
          -9.355412148594317e-06, 
          0.012995102530563341, 
          0.0169310920151425, 
          -0.013338503672853809, 
          0.016135579957662925, 
          8.071068654773256e-88
        ], 
        [
          0.035180593209065636, 
          0.04355186674337593, 
          0.04626206368999554, 
          -0.030461803338758656, 
          8.879748254579672e-177, 
          4.613881631659926e-41, 
          0.0465010729069336, 
          -0.04458610142067428, 
          0.04441406430051611, 
          -8.434400115764141e-180
        ], 
        [
          -0.009665150138141013, 
          -0.05070095301470125, 
          0.20300994810037262, 
          0.13550270643221024, 
          -0.2968683424625703, 
          0.1035076562125877, 
          -0.08600164954321178, 
          0.23062441879726597, 
          0.20515270069769534, 
          -0.05998943779819288
        ], 
        [
          -0.15657957783160856, 
          -0.11218366156584224, 
          -0.027676045503061464, 
          0.11976688140039908, 
          -0.07303400418023083, 
          -0.0009900015208625895, 
          0.02239978953363956, 
          0.21935697912993243, 
          0.17255629096395453, 
          0.1254167800273707
        ], 
        [
          0.11744191870051388, 
          -0.05374333520164224, 
          -0.15051120877371585, 
          0.02050994349462923, 
          -0.092328608458019, 
          0.0747183281880308, 
          0.006205655825538917, 
          0.13756869284690787, 
          -0.010149189615704619, 
          -0.01628314508186612
        ], 
        [
          0.04595983194458935, 
          0.028443778462471505, 
          0.053440678393318494, 
          -0.04643635502536494, 
          5.237204743143422e-15, 
          0.01902774559326381, 
          0.06615846785037417, 
          -0.04384121735428954, 
          -0.011920522038139461, 
          0.0737468840300107
        ], 
        [
          -0.10067700819148095, 
          -0.1394342854134441, 
          0.32600473232955873, 
          0.3486198173140005, 
          -0.02198291753828824, 
          0.031240207838073193, 
          0.024104090012257388, 
          -0.44896562722536343, 
          0.01770139930507662, 
          0.3173157354994681
        ], 
        [
          0.08112367289307401, 
          -0.011768397949712356, 
          0.08163891057471145, 
          -0.05053654069164746, 
          0.08754705536463142, 
          0.13680044135245467, 
          0.05200337433093178, 
          0.28448792564867464, 
          -0.05934294469778321, 
          0.35437235941982437
        ], 
        [
          0.022623049399911103, 
          -0.2644448141972849, 
          -0.03314876761695578, 
          0.03263462282941186, 
          -0.18888264442382433, 
          0.3578002653306423, 
          -0.06367429727366086, 
          0.011233544887889472, 
          -0.1470520286418087, 
          0.203595283176112
        ], 
        [
          0.009038635721256157, 
          0.0528684193268603, 
          -0.2899650068189072, 
          -0.027039751038634888, 
          -0.004311348721585842, 
          0.08233820677122812, 
          -0.13080801454881508, 
          0.0894466107658197, 
          0.10233773029912407, 
          0.08733219907782729
        ], 
        [
          -0.019351235987165902, 
          -0.022684457667454378, 
          -0.023882256470104037, 
          4.3545660394949627e-181, 
          -0.021457989760796572, 
          -0.022922317852311427, 
          -0.024438254560407813, 
          7.694142623022883e-35, 
          -9.151411966790438e-151, 
          1.2180101314187421e-59
        ], 
        [
          0.29363240259810064, 
          -0.01885397295528183, 
          0.09269315110482489, 
          -0.05525971358058635, 
          0.09827165779458855, 
          0.12113090943826894, 
          -0.04786764457223011, 
          -0.05917319980806003, 
          0.03544642405802045, 
          0.0478143455249638
        ], 
        [
          -0.09166214153927335, 
          0.04122340482148637, 
          0.0934503154433517, 
          0.03758788014496038, 
          0.08158188978027453, 
          0.011329611475647306, 
          0.04480059929896939, 
          -0.13680110417350871, 
          0.22613729103743105, 
          -0.099004250095732
        ], 
        [
          0.036042195018888834, 
          -0.06838720431077179, 
          0.07136537104752773, 
          -0.04165736587365991, 
          0.07849206500540588, 
          0.02739241709065529, 
          -0.035014073921070685, 
          0.029691989667995845, 
          0.08984989541234811, 
          0.058103976731387376
        ], 
        [
          1.4057748322813336e-176, 
          5.873512622062171e-183, 
          3.0534449360486853e-181, 
          -5.546962345615475e-182, 
          1.2145065984752337e-182, 
          8.710844522004318e-183, 
          1.962316115137636e-180, 
          1.2430906659717537e-180, 
          8.281061365354224e-183, 
          -4.214769812990175e-182
        ], 
        [
          -0.00562461993212432, 
          -0.20659500721683757, 
          -0.056434633585877095, 
          -0.006187956256279076, 
          -0.16857994017037203, 
          0.023802003869479855, 
          -0.01228052588315814, 
          0.06815124077212156, 
          0.02926828452138492, 
          0.024997911274806064
        ], 
        [
          0.10109350685793585, 
          -0.06273498854067085, 
          -0.03707909948381669, 
          -0.04472399349367193, 
          0.13773680657676307, 
          0.06071616522122958, 
          -0.02357778983228894, 
          0.07222415265762987, 
          -0.02307353386890029, 
          0.13355358491305994
        ], 
        [
          -0.00581284059892568, 
          0.035764939124965284, 
          0.10075423248094569, 
          0.006724817130917947, 
          0.058333033617073704, 
          -0.012349893558989761, 
          -1.5722409767661337e-113, 
          0.01781858242526906, 
          -0.06023015588148088, 
          -0.06987577608572562
        ], 
        [
          2.0466659634723994e-181, 
          7.493201941180675e-182, 
          3.559467405185472e-181, 
          8.2239879066263325e-171, 
          -1.0928792542893173e-175, 
          -6.323845032106144e-183, 
          -7.308943217957276e-183, 
          -5.929381314271856e-180, 
          -4.296702148633993e-180, 
          -2.9457490676856786e-179
        ], 
        [
          0.009766468250024491, 
          0.042200464427495935, 
          0.018367391771433126, 
          -0.0164969871062429, 
          0.022262505015063896, 
          0.023289963262007427, 
          0.003913880493279633, 
          -0.12475762090700986, 
          -0.03670927992870592, 
          0.06834918013566382
        ], 
        [
          0.030428016022899112, 
          -0.03468477814671998, 
          -0.08211529830683534, 
          -0.0011382170063613571, 
          0.0758465036337841, 
          -0.10868393331337146, 
          -0.027392668634987263, 
          -0.08885102276753769, 
          -0.055248861523317844, 
          0.09583587178403433
        ], 
        [
          0.005240219637078908, 
          -0.0035832840498689323, 
          -4.6923724427694044e-104, 
          0.0006454373242591396, 
          0.01677226544750206, 
          -0.005707491188440977, 
          0.040249067569866105, 
          -0.0031547279047710102, 
          -0.0038762907294468112, 
          0.0018139403561562401
        ], 
        [
          -1.5818409164658774e-181, 
          -1.7293924560794727e-180, 
          -9.868458086924263e-183, 
          1.1251132679635497e-177, 
          -4.966394309330715e-181, 
          -8.252650360073932e-181, 
          2.403079509143846e-19, 
          1.8300390311603062e-182, 
          -3.074894863419792e-181, 
          5.7582043354492185e-183
        ], 
        [
          6.185780751047256e-178, 
          1.174702308727119e-182, 
          1.556518893092363e-182, 
          1.0040482209410882e-182, 
          -1.887560866818312e-180, 
          1.8539055798109325e-182, 
          -3.150513262983851e-183, 
          8.407895193120669e-179, 
          5.9559101654780515e-182, 
          1.9571197810042995e-182
        ], 
        [
          2.020615337866496e-182, 
          5.8729113666509075e-182, 
          -2.446320857691618e-39, 
          3.633722830770832e-175, 
          -1.3259960982216913e-182, 
          -1.502782847457367e-182, 
          5.8862388641160415e-174, 
          -5.1434550990886594e-183, 
          6.691096692034055e-182, 
          -3.8643564316786525e-181
        ], 
        [
          1.915859914093055e-05, 
          -8.552231874739973e-182, 
          3.3277545709745874e-178, 
          -1.5335687331145267e-183, 
          -5.0284184524263324e-183, 
          2.6248328095521886e-182, 
          9.877011796321653e-183, 
          -8.431100874159148e-183, 
          -1.5744133484961735e-181, 
          -4.019560323859701e-180
        ], 
        [
          5.4632597993113955e-183, 
          -5.634739595418564e-182, 
          1.8298348496534288e-179, 
          -7.214060678056172e-182, 
          -4.267383279033318e-183, 
          -5.706459194313379e-181, 
          2.0442287096860283e-181, 
          -9.471906381784906e-182, 
          4.458611940674722e-32, 
          -2.8581751591577164e-22
        ], 
        [
          0.10904576674711991, 
          -0.08927538306328535, 
          0.16269214546480892, 
          -0.009345923846004377, 
          0.014303494653234283, 
          0.03231140554133502, 
          0.12666901529187397, 
          0.05842925079791792, 
          0.046302104228019614, 
          0.19273800260183677
        ], 
        [
          -0.004885383783217782, 
          -0.019482858477691545, 
          0.18347946521055936, 
          -0.06560046009945592, 
          0.11670868181740753, 
          0.14325427166433663, 
          -0.0019392397130006107, 
          0.07414152731633342, 
          0.12153966810196044, 
          0.28144979616223215
        ], 
        [
          -0.0373949813885321, 
          0.07852482091132405, 
          0.181524022879435, 
          -0.09711859411411729, 
          0.20978326839246186, 
          -0.07017803480658143, 
          0.0378713828693487, 
          -0.10081299117770193, 
          0.22437003257224516, 
          -0.26007281108406866
        ], 
        [
          0.007182564816352525, 
          0.039471763577015664, 
          -0.04149110616610873, 
          -0.19081638460147674, 
          0.08139283813540323, 
          0.21846924014204583, 
          -0.12036782858823265, 
          0.11809903807684294, 
          0.2574548300549746, 
          -0.21095685335126518
        ], 
        [
          -0.09561122731227828, 
          0.048298849133851844, 
          -0.11303127573559603, 
          -0.12105577903521483, 
          0.17865045297886403, 
          -0.13883326595476655, 
          0.0021360536975516924, 
          -0.028425472730832124, 
          -0.20770045256710462, 
          -0.1569073474906559
        ], 
        [
          0.06466444717629642, 
          -0.0793318719922465, 
          0.16219061764236542, 
          -0.09481520103867588, 
          -0.15871337064632465, 
          -0.23644592745921011, 
          0.12238349845806737, 
          0.12069705135802461, 
          -0.10839779808061836, 
          0.07925973077937667
        ], 
        [
          -0.05244005215372148, 
          -0.17084056129752498, 
          -0.015687137319818203, 
          -0.01956869356298659, 
          -0.05613559538430398, 
          0.10252063395426317, 
          -0.10381525157178159, 
          0.14858098393658964, 
          -0.11587102299284571, 
          0.3296865659018911
        ], 
        [
          -0.04573132844363011, 
          -0.1703377267394757, 
          0.03659109002458135, 
          0.013366589857512831, 
          -0.1288375693345964, 
          0.023815240284430692, 
          -0.13678695887781833, 
          -0.03030452824665307, 
          0.09493287016893077, 
          -0.07251220403557534
        ], 
        [
          -4.3031217933189054e-175, 
          -7.63704295737563e-173, 
          6.413407349140664e-179, 
          -1.956105242973723e-19, 
          -1.9742245982525397e-181, 
          -2.141565118354743e-180, 
          -1.1076135176606576e-181, 
          -1.2809749816100246e-17, 
          2.3951974995192555e-27, 
          -1.167605759917625e-182
        ], 
        [
          0.045577451967338145, 
          -0.005430282529885894, 
          0.007457931975158144, 
          -0.025506882304033283, 
          0.04316256008845587, 
          0.04806432062879592, 
          0.01703256505633966, 
          -0.01238901996345791, 
          0.0004727274462853071, 
          -0.0012589777430734878
        ], 
        [
          -1.6163310541985313e-182, 
          -2.0847891274896543e-182, 
          2.238213154945495e-182, 
          -4.503943363636584e-181, 
          9.929389308461032e-183, 
          -1.3984304008553866e-183, 
          2.873484977869788e-182, 
          1.4175332494526604e-182, 
          7.72904598969108e-182, 
          2.1764771149228682e-184
        ], 
        [
          -9.417656382437092e-182, 
          3.3425263513843254e-181, 
          4.211260047713552e-182, 
          -8.596672251069561e-181, 
          1.3262675923094752e-176, 
          1.2182808502237283e-05, 
          -2.754685065078355e-182, 
          -1.9445643254806575e-172, 
          -1.9414470176968584e-182, 
          -6.6348827548932185e-177
        ], 
        [
          0.029820178267836634, 
          0.06879819295381549, 
          0.009810596852632431, 
          0.022645402429031958, 
          -0.10293611197302596, 
          -0.0956699536422393, 
          -0.1558640829979727, 
          -0.39314828889590264, 
          0.15540566648223825, 
          -0.08544207189282307
        ], 
        [
          -0.09273782272132756, 
          0.03601605103674112, 
          0.1486015131349852, 
          -0.03957837458631138, 
          0.1816561283248893, 
          0.0033345122617170694, 
          -0.06154957749370733, 
          -0.1267556158725802, 
          -0.0101838203543825, 
          -0.09930567096276574
        ], 
        [
          -0.07310613712394302, 
          0.16064894634637047, 
          0.09782783178025886, 
          -0.008099378555013219, 
          -0.13991012680483872, 
          0.1537878065433313, 
          0.20452710395770174, 
          0.08994210165092711, 
          0.022062459685118357, 
          -0.02780576129618373
        ], 
        [
          0.13384469779944982, 
          0.2636589621179767, 
          -0.25871061454459476, 
          0.1755087330819613, 
          0.20455518265984413, 
          0.02658359202274344, 
          0.28866654108468986, 
          -0.07996197487597823, 
          -0.3327359557231087, 
          -0.48871140024187487
        ], 
        [
          -0.11665804808984173, 
          0.06339632862505397, 
          -0.19680748512826157, 
          -0.0696176893904754, 
          -0.06840523331269104, 
          -0.12375034769023878, 
          0.029335375961280923, 
          0.16148945404436651, 
          -0.07955387810647337, 
          0.10381742089042627
        ], 
        [
          0.1867677002046375, 
          0.17003476271006074, 
          -0.11567213986069017, 
          0.08506338900193035, 
          0.030307902710295376, 
          -0.12127711933915503, 
          0.21151051534639925, 
          0.08588991633177492, 
          -0.2325510718965213, 
          -0.1331561958622761
        ], 
        [
          -0.1047011896917895, 
          0.04970472859319552, 
          -0.22015276094376415, 
          0.10414692988295318, 
          -0.11274537294830171, 
          -0.09495046479343747, 
          0.013738320529310004, 
          0.19514098279899286, 
          0.054085280531419186, 
          -0.1903145868098786
        ], 
        [
          0.034268784994574676, 
          0.05468607641536658, 
          -0.02050337493622166, 
          0.01797778513161801, 
          0.04547346610701908, 
          0.043991029889071755, 
          -0.009134959095230755, 
          -0.3098762177960282, 
          -0.12336905354497561, 
          -0.09425070752018194
        ], 
        [
          -0.0330686967317484, 
          -0.06940286007452516, 
          -0.07395301631387677, 
          -0.17090266186490297, 
          -0.0776654470082029, 
          -0.03769454110307253, 
          0.0752121241619623, 
          0.009566240070447549, 
          0.06757267285632987, 
          0.06218019792336501
        ], 
        [
          -0.2276908230180254, 
          0.08046277771400352, 
          0.22766372371732888, 
          0.08798777073505601, 
          0.05384801630361289, 
          -0.045125698448675935, 
          -0.2691485002851066, 
          -0.17950465165838161, 
          -0.08814762525468335, 
          0.17813805734140836
        ], 
        [
          0.11329460537925222, 
          -0.19836358769695847, 
          0.05350548907173156, 
          -0.25799370194804894, 
          -0.2685768007207031, 
          0.03830312638451394, 
          0.004225214309075826, 
          0.018723345425627713, 
          0.019443151500596608, 
          0.11177433874907833
        ], 
        [
          -0.20840323053533896, 
          0.216994300702694, 
          0.15353870041443474, 
          0.10704576016558252, 
          -0.1071028250290867, 
          0.060332966250073075, 
          -0.16187531953599182, 
          0.21127933366059046, 
          -0.1822062028713328, 
          -0.02127067528972945
        ], 
        [
          -0.12043991650419261, 
          -0.19486345702777927, 
          0.05652636440001443, 
          0.0668036425826269, 
          -0.003934053575953425, 
          -0.0035678790019694254, 
          -0.1400517083664953, 
          0.3527253763079548, 
          0.1420521108607496, 
          -0.1553605757859331
        ], 
        [
          -0.03274047032854101, 
          0.15669547781124055, 
          0.04672430045880595, 
          0.2356967405205666, 
          0.24987993408557665, 
          -0.006042705989976689, 
          0.09430221458839828, 
          0.07126582684785762, 
          -0.18997225734438306, 
          -0.03533442303565218
        ], 
        [
          0.13892865459096784, 
          0.015119829558302132, 
          0.11135059204069238, 
          -0.048404189439473576, 
          -0.06203730530340184, 
          0.1564984106253423, 
          0.08621341899380776, 
          0.1972587636225712, 
          0.01810219215701118, 
          0.031775516823006264
        ], 
        [
          -0.008827435779352657, 
          0.1813074771626777, 
          0.01738531693363729, 
          0.13629876793271192, 
          0.07552044893230758, 
          0.0870038933728892, 
          0.13688596439096926, 
          0.134430114695417, 
          0.02436215939972515, 
          0.05348136061174504
        ], 
        [
          -0.08058576694643309, 
          -0.0340331274073536, 
          -0.004439607160652286, 
          -0.08146098667259845, 
          0.14861775449612924, 
          -0.007653238068248018, 
          -0.14107437346810203, 
          -0.1095219639844248, 
          -0.02102140930627928, 
          -0.07330415846327307
        ], 
        [
          -0.046268228914060294, 
          -2.061831308944283e-72, 
          -0.0874422031940616, 
          0.00284029069735492, 
          -0.10148137716292065, 
          0.02218268338142117, 
          -0.04644258064950715, 
          0.11156347700916304, 
          0.005886563812281746, 
          -0.09644770366860526
        ], 
        [
          0.019574337799047516, 
          0.008236814070129014, 
          0.05285039357749143, 
          -0.03784263215038031, 
          7.187711549810798e-150, 
          0.04765012598132252, 
          0.0544720499273278, 
          -1.1967599620297043e-182, 
          -0.008560055935460623, 
          0.04604007112663607
        ], 
        [
          -0.1435369514001915, 
          0.025671741379532122, 
          0.01489089150868566, 
          0.08121677113492215, 
          -0.13050566289167337, 
          -0.22057709501437908, 
          -0.1789258477560714, 
          0.16008076846832348, 
          0.058809929623782946, 
          -0.20907004933225296
        ], 
        [
          -0.03217515328857841, 
          1.7060998472771522e-144, 
          -1.0349598202647742e-119, 
          0.028606605881180858, 
          6.0169818921192894e-93, 
          -0.038244418655082, 
          -0.040293082844922126, 
          0.0388665669563679, 
          -0.0063485528797165205, 
          -0.04336831245303197
        ], 
        [
          4.897761227935503e-182, 
          -1.871456557490929e-182, 
          -1.4933046914813008e-182, 
          5.161349976391287e-181, 
          4.5541278650480635e-176, 
          1.22160838944927e-175, 
          4.460319986071739e-181, 
          7.879279918256197e-182, 
          4.538029336737971e-173, 
          -1.0607564757901912e-182
        ], 
        [
          -0.06077185022195117, 
          -0.11303297102458304, 
          -0.026728671484933963, 
          -0.06015712254036311, 
          -0.17682646585201386, 
          -0.17296510161552273, 
          0.10544158154035846, 
          0.009313322762347502, 
          -0.08488556952675716, 
          -0.00868971765297886
        ], 
        [
          0.2359207517812576, 
          -0.06493748719876496, 
          0.09037790459378693, 
          0.06671327302768205, 
          -0.04532601687574756, 
          -0.07725216717084298, 
          -0.04070248988236888, 
          0.16919429860796795, 
          -0.019604808710276353, 
          -0.018738585164772417
        ], 
        [
          0.09546791327896965, 
          0.10550667269138693, 
          0.005168844532484384, 
          0.076184273420524, 
          0.10187412409738847, 
          -0.059892263311695955, 
          0.32731711286068726, 
          0.27492403639358676, 
          -0.07020060655894063, 
          0.07170085559652947
        ], 
        [
          0.005193688912181233, 
          -0.0507824638979884, 
          0.16935958511142318, 
          0.07236421617357323, 
          0.18770517076742155, 
          0.16766714747826356, 
          -0.1820113938846041, 
          0.19371029612294619, 
          -0.3286430294137146, 
          0.2312858807076303
        ], 
        [
          -0.0584139181484176, 
          -0.013280441698879068, 
          -0.26241140192623236, 
          0.06089863884710794, 
          0.08227398922212431, 
          -0.3658070699408482, 
          -0.005963289534063395, 
          0.11956170086110221, 
          0.1723067963379143, 
          -0.398227101071564
        ], 
        [
          -0.020994477863728774, 
          -0.12251507765299524, 
          -0.2482893513519434, 
          0.030853937413899028, 
          -0.11768812616292879, 
          -0.014836158462876062, 
          -0.11483704334200988, 
          -0.08624873530513417, 
          -0.074071097580204, 
          0.14753768978544185
        ], 
        [
          -0.13221943116209653, 
          0.03979454564943773, 
          -0.19793384760324323, 
          -0.11433110172198899, 
          -0.13841712708286233, 
          -0.011937304880177938, 
          0.05777416178670196, 
          -0.044331536548790754, 
          0.3442959661219277, 
          0.0002925639333243761
        ], 
        [
          0.13249944500720606, 
          -0.00891433571117096, 
          -0.07878201727182807, 
          -0.11797459511862467, 
          0.07498173488733233, 
          0.008254482248685186, 
          -0.08071072478752372, 
          0.12351862793136063, 
          -0.20765000864649852, 
          0.2707783613933592
        ], 
        [
          0.12288901188708158, 
          -0.04467171683286279, 
          -0.26354136121353966, 
          -0.15639555806154426, 
          0.07577971193941173, 
          0.05879875925886551, 
          -0.022531873289750638, 
          0.0062458274564508596, 
          -0.08376719103886288, 
          0.19322906328441694
        ], 
        [
          -0.04731727867558753, 
          0.002154185506422837, 
          -0.006241047729883776, 
          0.012417100004490055, 
          -0.02270859450529427, 
          -0.06383250873310979, 
          0.03957211626932906, 
          0.05810307773729601, 
          -0.003457827182053333, 
          -0.11007300840036091
        ], 
        [
          0.015360364501990673, 
          0.21639476637053273, 
          0.05681655288842046, 
          0.1805125823635701, 
          0.0181789678240047, 
          -0.2600988602487824, 
          0.22867121430109658, 
          -0.1154879153498098, 
          -0.14104022595782148, 
          -0.2180092617891379
        ], 
        [
          0.07833857176662556, 
          -0.20679221618735122, 
          0.04181597806891091, 
          0.11506960435910668, 
          -0.0016827455774104914, 
          -0.08361242880940861, 
          0.07957545357609476, 
          -0.05723611850169031, 
          -0.01825203634118522, 
          0.0011646667711089449
        ], 
        [
          0.016446881374872227, 
          0.02994560316287264, 
          0.17726781084132157, 
          0.012996390586733901, 
          0.05808260953529915, 
          -0.03646563396785611, 
          0.1996812755112765, 
          0.40425946049865125, 
          -0.08758842119741587, 
          0.22632309595053704
        ], 
        [
          -0.012313657312199652, 
          0.08292918582562737, 
          0.13773962029152317, 
          -0.009339454330570362, 
          -0.13200937416933667, 
          0.005825482252993444, 
          0.09013342756913473, 
          0.07971433378204912, 
          -0.27769902802232777, 
          0.09044478679740536
        ], 
        [
          -0.13311392652390341, 
          0.3062815669473557, 
          -0.05070925271839626, 
          0.03605502943332144, 
          -0.11092938904358406, 
          0.14334876251914175, 
          -0.019854383921816907, 
          0.15327046458820254, 
          -0.22748002683365529, 
          -0.24742102502267957
        ], 
        [
          -0.031213536649015425, 
          0.24383471063152112, 
          -0.20984631183491972, 
          -0.18831955679619714, 
          0.05846097273789881, 
          0.22849643934843009, 
          -0.16275760197769715, 
          -0.12007873738310848, 
          0.15077341885244644, 
          -0.26897572078681486
        ], 
        [
          -0.19307837482889842, 
          -0.1550271839070138, 
          0.16231929415415383, 
          -0.09207962513377313, 
          -0.22862531258479535, 
          0.18786066317010133, 
          -0.08779108052987214, 
          0.1723172372359112, 
          0.07137404681236222, 
          -0.000923271049624272
        ], 
        [
          0.0287679753489193, 
          -0.07732181647757451, 
          0.03213186800853613, 
          0.02873561161600929, 
          -0.020556652746718897, 
          -0.013338764612475433, 
          0.03357763030439752, 
          -0.0518846003953311, 
          -0.01926858276137648, 
          -0.03637771486206185
        ], 
        [
          -0.06769582642698292, 
          -0.030725957642183662, 
          0.16616163723682648, 
          -0.09878130469945787, 
          -0.07225100975169552, 
          -0.11358261564604163, 
          -0.050354821529244455, 
          0.03395475370449104, 
          0.013201196053388538, 
          0.11888763881962446
        ], 
        [
          0.11083061717221859, 
          0.09749199772257744, 
          0.00956879131273027, 
          -0.1788850216131749, 
          0.22423393709212894, 
          0.12428630426691768, 
          0.21313413720435323, 
          -0.12522689348977045, 
          -0.07074444723592767, 
          0.23368183623298636
        ], 
        [
          0.10304435416618979, 
          -0.38041503804429816, 
          0.029235041565778563, 
          0.3035891552019343, 
          -0.03544663979225809, 
          -0.4156689637883855, 
          0.16204897897836387, 
          -0.10711711115692632, 
          0.3064791939470006, 
          0.021495510100400794
        ], 
        [
          0.13690424614788285, 
          -0.0862739537265578, 
          -0.23340094121056024, 
          0.20080409499129606, 
          0.24194363513495126, 
          -0.3433952406048985, 
          -0.24554068604094556, 
          -0.02330297355485779, 
          0.16995492998288428, 
          -0.13834779439127076
        ], 
        [
          -0.10094804908727392, 
          0.1570318941273117, 
          -0.07819922400689706, 
          -0.07853645032439244, 
          0.07365810041055808, 
          -0.4087397727379367, 
          -0.19756735892377764, 
          -0.0513640947460858, 
          0.008392122145754305, 
          0.18344108417228108
        ], 
        [
          0.08740800192224796, 
          -0.14801971502715483, 
          0.14967167287207905, 
          0.0931910536753416, 
          0.14309662778279753, 
          -0.42666025229320964, 
          0.20738351363478466, 
          0.009233637198457585, 
          0.1238039731985251, 
          -0.25687689816016834
        ], 
        [
          0.04966073830443723, 
          0.10961922954286069, 
          -0.009987201866230713, 
          0.10145497003589458, 
          -0.00410227036936674, 
          -0.057029695472956346, 
          -0.01606718222341382, 
          8.302767474716174e-06, 
          0.08682243075898853, 
          0.047929534673558816
        ], 
        [
          0.2834429854627492, 
          -0.007448080945264863, 
          -0.1757537722830454, 
          -0.08774186883492788, 
          -0.045584080530972265, 
          0.19539812374567372, 
          -0.3725468472430262, 
          0.1531267686982602, 
          0.018438316094797215, 
          0.04264025149358887
        ], 
        [
          -0.032336100836721185, 
          0.2640576072185822, 
          0.07784801541558477, 
          0.06684482074302783, 
          0.012960614751214588, 
          0.30432626655066236, 
          0.07509696531449928, 
          0.16341853765882375, 
          -0.1027007227302184, 
          -0.16474341458144812
        ], 
        [
          0.14659327414680595, 
          -0.16269866795277582, 
          -0.26154128852630504, 
          0.04768055557792474, 
          -0.21145034426073156, 
          0.057457376226285266, 
          0.03917278233287922, 
          -0.07287119806976557, 
          -0.03613706804857557, 
          0.0524202748973391
        ], 
        [
          -0.34420803337925715, 
          -0.04187516819233601, 
          0.02812926369450433, 
          0.033954352458482884, 
          -0.13395951767266673, 
          0.09738575992093933, 
          -0.28154876365403275, 
          0.010063545056820736, 
          -0.07009667927049924, 
          0.30925752104495086
        ], 
        [
          0.147672119076774, 
          -0.41826322688302703, 
          0.06559248283960686, 
          0.026809476443525788, 
          0.0011819705341819388, 
          -0.12878320611819355, 
          0.1875718954697177, 
          0.12588408411113539, 
          0.3267475586325518, 
          0.1773356364580999
        ], 
        [
          -0.35267222804483833, 
          0.14278943166077734, 
          0.22462798043823157, 
          -0.16328985533335558, 
          -0.23253043549033853, 
          -0.002303905045471525, 
          0.3482724183724097, 
          0.40362258417421165, 
          -0.46132660308094325, 
          0.44398724355611446
        ], 
        [
          0.24699275338349794, 
          -0.005399040327682074, 
          -0.24920902017356605, 
          -0.131574508220039, 
          0.3035808031568707, 
          -0.0036372040159244976, 
          -0.3546487273940576, 
          0.09016277107712935, 
          0.030848582054450072, 
          -0.24591495344140715
        ], 
        [
          0.13251699880594092, 
          -0.35482240953509253, 
          -0.29058056158607043, 
          0.02328697520998305, 
          0.09786065390741126, 
          -0.17690900833609782, 
          -0.25307780127218515, 
          -0.043548197174425714, 
          -0.0053060565020714425, 
          -0.0006613880828749537
        ], 
        [
          0.03998805751711396, 
          0.3369455247084805, 
          0.020671222476730273, 
          0.0531698535165719, 
          0.11398356387815456, 
          0.0850955405675659, 
          0.1650134959089121, 
          0.09106482606704305, 
          0.09085922714367987, 
          -0.16187735947122434
        ], 
        [
          -0.0602195997883134, 
          0.17207866814317851, 
          -0.05136616328620299, 
          0.07124036306765325, 
          -0.08526259230186671, 
          0.016888453988739262, 
          0.004022637723653854, 
          -0.09511673451902537, 
          -0.03369742724855127, 
          0.20515139104053437
        ], 
        [
          -0.09515079918543795, 
          0.008633928763670789, 
          -0.023186576686767366, 
          0.0601802517251693, 
          0.2741365652591184, 
          0.03940972963042289, 
          0.05221317164996008, 
          0.027910721808793157, 
          -0.2166415051659484, 
          0.03933711629571822
        ], 
        [
          -0.3612159469212979, 
          0.09743684400716912, 
          -0.05405979952641548, 
          0.21435635905701392, 
          -0.305772428189766, 
          0.13807403945976102, 
          0.10277688488062886, 
          -0.19627802356161808, 
          -0.31522165736989016, 
          0.05346365830700028
        ], 
        [
          -0.05014541550168906, 
          -0.02798964183115324, 
          0.33921823237928383, 
          0.022188335013121726, 
          -0.1428056607090436, 
          0.09045949479010922, 
          -0.036325778962188665, 
          -0.04744425062630346, 
          0.2108931833939882, 
          -0.11428240423759019
        ], 
        [
          0.21269716143311374, 
          -0.05198357767387617, 
          -0.09872426320429983, 
          0.06876921564418216, 
          0.11644523830680255, 
          0.09918745439096158, 
          -0.03254743181023369, 
          -0.18060661342471707, 
          0.15242962374358823, 
          -0.13297909975686592
        ], 
        [
          -0.08093851088218176, 
          -0.21081655109408318, 
          -0.1291520888546351, 
          -0.11697505590697173, 
          0.20728718103857655, 
          0.06307920439373636, 
          -0.06832018780383708, 
          0.2888705393912513, 
          0.17613275634768458, 
          -0.04584658806961669
        ]
      ], 
      "biases": [
        0.046770625932187934, 
        0.046337934921173156, 
        -0.04919033145120652, 
        0.19092615650628164, 
        0.07295438825947191, 
        0.0786595802558341, 
        0.09456494109283216, 
        0.16450693905163516, 
        0.012327785690052282, 
        -0.03570068975983084
      ]
